{"learner":{"attributes":{"scikit_learn":"{\"_estimator_type\": \"regressor\"}"},"feature_names":["Server_Workload(%)","Inlet_Temperature(째C)","Outlet_Temperature(째C)","Ambient_Temperature(째C)","Cooling_Unit_Power_Consumption(kW)","Chiller_Usage(%)","AHU_Usage(%)","Temperature_Deviation(째C)","workload_t-1","outlet_t-1","inlet_t-1","cooling_power_t-1","chiller_usage_t-1","ahu_usage_t-1","ambient_t-1","workload_t-2","outlet_t-2","inlet_t-2","cooling_power_t-2","chiller_usage_t-2","ahu_usage_t-2","ambient_t-2","workload_t-3","outlet_t-3","inlet_t-3","cooling_power_t-3","chiller_usage_t-3","ahu_usage_t-3","ambient_t-3","workload_t-6","outlet_t-6","inlet_t-6","cooling_power_t-6","chiller_usage_t-6","ahu_usage_t-6","ambient_t-6","workload_t-12","outlet_t-12","inlet_t-12","cooling_power_t-12","chiller_usage_t-12","ahu_usage_t-12","ambient_t-12","workload_t-24","outlet_t-24","inlet_t-24","cooling_power_t-24","chiller_usage_t-24","ahu_usage_t-24","ambient_t-24","workload_rolling_mean_6","workload_rolling_mean_24","workload_roll_std_6","workload_roll_std_24","outlet_rolling_mean_6","outlet_rolling_mean_24","outlet_roll_std_6","outlet_roll_std_24","inlet_rolling_mean_6","inlet_rolling_mean_24","inlet_roll_std_6","inlet_roll_std_24","cooling_power_rolling_mean_6","cooling_power_rolling_mean_24","cooling_power_roll_std_6","cooling_power_roll_std_24","chiller_usage_rolling_mean_6","chiller_usage_rolling_mean_24","chiller_usage_roll_std_6","chiller_usage_roll_std_24","ahu_usage_rolling_mean_6","ahu_usage_rolling_mean_24","ahu_usage_roll_std_6","ahu_usage_roll_std_24","ambient_rolling_mean_6","ambient_rolling_mean_24","ambient_roll_std_6","ambient_roll_std_24","hour_sin","hour_cos","dow_sin","dow_cos","workload_t-168","outlet_t-168","Q_roll_mean_6","Q_roll_mean_24","Q_t-1","Q_t-6","Q_t-24"],"feature_types":["float","float","float","float","float","float","float","float","float","float","float","float","float","float","float","float","float","float","float","float","float","float","float","float","float","float","float","float","float","float","float","float","float","float","float","float","float","float","float","float","float","float","float","float","float","float","float","float","float","float","float","float","float","float","float","float","float","float","float","float","float","float","float","float","float","float","float","float","float","float","float","float","float","float","float","float","float","float","float","float","float","float","float","float","float","float","float","float","float"],"gradient_booster":{"model":{"cats":{"enc":[],"feature_segments":[],"sorted_idx":[]},"gbtree_model_param":{"num_parallel_tree":"1","num_trees":"300"},"iteration_indptr":[0,1,2,3,4,5,6,7,8,9,10,11,12,13,14,15,16,17,18,19,20,21,22,23,24,25,26,27,28,29,30,31,32,33,34,35,36,37,38,39,40,41,42,43,44,45,46,47,48,49,50,51,52,53,54,55,56,57,58,59,60,61,62,63,64,65,66,67,68,69,70,71,72,73,74,75,76,77,78,79,80,81,82,83,84,85,86,87,88,89,90,91,92,93,94,95,96,97,98,99,100,101,102,103,104,105,106,107,108,109,110,111,112,113,114,115,116,117,118,119,120,121,122,123,124,125,126,127,128,129,130,131,132,133,134,135,136,137,138,139,140,141,142,143,144,145,146,147,148,149,150,151,152,153,154,155,156,157,158,159,160,161,162,163,164,165,166,167,168,169,170,171,172,173,174,175,176,177,178,179,180,181,182,183,184,185,186,187,188,189,190,191,192,193,194,195,196,197,198,199,200,201,202,203,204,205,206,207,208,209,210,211,212,213,214,215,216,217,218,219,220,221,222,223,224,225,226,227,228,229,230,231,232,233,234,235,236,237,238,239,240,241,242,243,244,245,246,247,248,249,250,251,252,253,254,255,256,257,258,259,260,261,262,263,264,265,266,267,268,269,270,271,272,273,274,275,276,277,278,279,280,281,282,283,284,285,286,287,288,289,290,291,292,293,294,295,296,297,298,299,300],"tree_info":[0,0,0,0,0,0,0,0,0,0,0,0,0,0,0,0,0,0,0,0,0,0,0,0,0,0,0,0,0,0,0,0,0,0,0,0,0,0,0,0,0,0,0,0,0,0,0,0,0,0,0,0,0,0,0,0,0,0,0,0,0,0,0,0,0,0,0,0,0,0,0,0,0,0,0,0,0,0,0,0,0,0,0,0,0,0,0,0,0,0,0,0,0,0,0,0,0,0,0,0,0,0,0,0,0,0,0,0,0,0,0,0,0,0,0,0,0,0,0,0,0,0,0,0,0,0,0,0,0,0,0,0,0,0,0,0,0,0,0,0,0,0,0,0,0,0,0,0,0,0,0,0,0,0,0,0,0,0,0,0,0,0,0,0,0,0,0,0,0,0,0,0,0,0,0,0,0,0,0,0,0,0,0,0,0,0,0,0,0,0,0,0,0,0,0,0,0,0,0,0,0,0,0,0,0,0,0,0,0,0,0,0,0,0,0,0,0,0,0,0,0,0,0,0,0,0,0,0,0,0,0,0,0,0,0,0,0,0,0,0,0,0,0,0,0,0,0,0,0,0,0,0,0,0,0,0,0,0,0,0,0,0,0,0,0,0,0,0,0,0,0,0,0,0,0,0,0,0,0,0,0,0,0,0,0,0,0,0,0,0,0,0,0,0,0,0,0,0,0,0],"trees":[{"base_weights":[-9.992117E-2,4.7702146E0,-1.8962044E-1,7.618428E0,1.0578513E0,-5.7322466E-1,5.3650033E-1,1.02312766E-1,2.1534583E-2,4.5358147E-2,-2.8324587E-2,-8.319879E-3,1.3671335E-2,-5.0043244E-2,7.396841E-3],"categories":[],"categories_nodes":[],"categories_segments":[],"categories_sizes":[],"default_left":[0,0,0,0,0,0,0,0,0,0,0,0,0,0,0],"id":0,"left_children":[1,3,5,7,9,11,13,-1,-1,-1,-1,-1,-1,-1,-1],"loss_changes":[1.1594244E3,4.9947388E2,7.25912E2,3.6350403E2,3.1051532E2,8.5720685E2,1.0180525E3,0E0,0E0,0E0,0E0,0E0,0E0,0E0,0E0],"parents":[2147483647,0,0,1,1,2,2,3,3,4,4,5,5,6,6],"right_children":[2,4,6,8,10,12,14,-1,-1,-1,-1,-1,-1,-1,-1],"split_conditions":[2.3262255E1,1.5955146E-1,4.851487E1,5.002477E1,2.216188E1,9.7E-1,2.8655222E1,1.02312766E-1,2.1534583E-2,4.5358147E-2,-2.8324587E-2,-8.319879E-3,1.3671335E-2,-5.0043244E-2,7.396841E-3],"split_indices":[29,64,71,13,45,18,36,0,0,0,0,0,0,0,0],"split_type":[0,0,0,0,0,0,0,0,0,0,0,0,0,0,0],"sum_hessian":[2.651E3,4.7E1,2.604E3,2.6E1,2.1E1,1.704E3,9E2,1.7E1,9E0,1.1E1,1E1,1.504E3,2E2,3.1E1,8.69E2],"tree_param":{"num_deleted":"0","num_feature":"89","num_nodes":"15","size_leaf_vector":"1"}},{"base_weights":[-9.037571E-2,-1.9717985E-1,2.7999785E0,9.4946915E-1,-4.8177612E-1,7.8081083E0,1.8259546E0,4.3731234E-3,3.4110364E-2,-6.75375E-3,1.3207357E-2,1.9756243E-2,1.1476917E-1,4.933947E-2,1.4954422E-3],"categories":[],"categories_nodes":[],"categories_segments":[],"categories_sizes":[],"default_left":[0,0,0,0,0,0,0,0,0,0,0,0,0,0,0],"id":1,"left_children":[1,3,5,7,9,11,13,-1,-1,-1,-1,-1,-1,-1,-1],"loss_changes":[8.142901E2,8.3031976E2,4.4427832E2,6.3642676E2,7.120813E2,2.9830005E2,4.160838E2,0E0,0E0,0E0,0E0,0E0,0E0,0E0,0E0],"parents":[2147483647,0,0,1,1,2,2,3,3,4,4,5,5,6,6],"right_children":[2,4,6,8,10,12,14,-1,-1,-1,-1,-1,-1,-1,-1],"split_conditions":[5.024315E1,4.2386967E1,4.3795284E1,2.9504974E1,2.4425632E1,1.5773594E0,1.9137238E1,4.3731234E-3,3.4110364E-2,-6.75375E-3,1.3207357E-2,1.9756243E-2,1.1476917E-1,4.933947E-2,1.4954422E-3],"split_indices":[71,34,6,44,45,60,86,0,0,0,0,0,0,0,0],"split_type":[0,0,0,0,0,0,0,0,0,0,0,0,0,0,0],"sum_hessian":[2.635E3,2.542E3,9.3E1,5.05E2,2.037E3,1.4E1,7.9E1,4.19E2,8.6E1,1.84E3,1.97E2,6E0,8E0,2.7E1,5.2E1],"tree_param":{"num_deleted":"0","num_feature":"89","num_nodes":"15","size_leaf_vector":"1"}},{"base_weights":[-3.0925801E-2,5.2861624E0,-1.0439384E-1,1.0607789E1,1.4175001E0,3.94299E0,-1.9323663E-1,-3.149631E-2,1.18154354E-1,4.9213804E-2,-4.19048E-2,5.5218738E-2,-3.018068E-2,-3.8799762E-3,1.5765421E-2],"categories":[],"categories_nodes":[],"categories_segments":[],"categories_sizes":[],"default_left":[0,0,0,0,0,0,0,0,0,0,0,0,0,0,0],"id":2,"left_children":[1,3,5,7,9,11,13,-1,-1,-1,-1,-1,-1,-1,-1],"loss_changes":[1.0318309E3,7.2611615E2,9.3747015E2,2.8642578E2,4.5291617E2,6.3214465E2,8.7955566E2,0E0,0E0,0E0,0E0,0E0,0E0,0E0,0E0],"parents":[2147483647,0,0,1,1,2,2,3,3,4,4,5,5,6,6],"right_children":[2,4,6,8,10,12,14,-1,-1,-1,-1,-1,-1,-1,-1],"split_conditions":[2.02579E1,2.0781929E1,4.3E-1,3.3814533E1,7.2992744E1,2.3971647E1,2.4425632E1,-3.149631E-2,1.18154354E-1,4.9213804E-2,-4.19048E-2,5.5218738E-2,-3.018068E-2,-3.8799762E-3,1.5765421E-2],"split_indices":[9,58,32,5,47,38,45,0,0,0,0,0,0,0,0],"split_type":[0,0,0,0,0,0,0,0,0,0,0,0,0,0,0],"sum_hessian":[2.639E3,3.5E1,2.604E3,1.4E1,2.1E1,5.5E1,2.549E3,1E0,1.3E1,1.3E1,8E0,4.5E1,1E1,2.297E3,2.52E2],"tree_param":{"num_deleted":"0","num_feature":"89","num_nodes":"15","size_leaf_vector":"1"}},{"base_weights":[-3.762983E-2,-3.3246943E-1,1.0720203E0,4.143494E0,-4.3619952E-1,5.3725904E-1,3.833947E0,5.9764516E-2,-5.7683494E-2,-6.937506E-3,1.1452476E-2,8.40889E-2,3.4867632E-3,-5.8713578E-2,4.5881018E-2],"categories":[],"categories_nodes":[],"categories_segments":[],"categories_sizes":[],"default_left":[0,0,0,0,0,0,0,0,0,0,0,0,0,0,0],"id":3,"left_children":[1,3,5,7,9,11,13,-1,-1,-1,-1,-1,-1,-1,-1],"loss_changes":[8.7586017E2,9.8378503E2,8.279981E2,9.065378E2,8.43098E2,6.977299E2,6.9299524E2,0E0,0E0,0E0,0E0,0E0,0E0,0E0,0E0],"parents":[2147483647,0,0,1,1,2,2,3,3,4,4,5,5,6,6],"right_children":[2,4,6,8,10,12,14,-1,-1,-1,-1,-1,-1,-1,-1],"split_conditions":[2.3428339E1,4.4E-1,3.7224956E0,2.7345333E1,2.4098024E1,2.3471495E1,4.8E-1,5.9764516E-2,-5.7683494E-2,-6.937506E-3,1.1452476E-2,8.40889E-2,3.4867632E-3,-5.8713578E-2,4.5881018E-2],"split_indices":[38,32,56,87,45,38,25,0,0,0,0,0,0,0,0],"split_type":[0,0,0,0,0,0,0,0,0,0,0,0,0,0,0],"sum_hessian":[2.675E3,2.114E3,5.61E2,4.7E1,2.067E3,4.71E2,9E1,4E1,7E0,1.778E3,2.89E2,1E1,4.61E2,6E0,8.4E1],"tree_param":{"num_deleted":"0","num_feature":"89","num_nodes":"15","size_leaf_vector":"1"}},{"base_weights":[-1.17359675E-1,3.8237143E0,-1.9737484E-1,8.5347595E0,1.3619776E0,-1.850387E0,-3.6785025E-2,1.6170418E-2,1.0395747E-1,3.8178664E-2,-4.5666665E-2,8.53071E-4,-3.7701294E-2,3.2064255E-4,-4.395625E-2],"categories":[],"categories_nodes":[],"categories_segments":[],"categories_sizes":[],"default_left":[0,0,0,0,0,0,0,0,0,0,0,0,0,0,0],"id":4,"left_children":[1,3,5,7,9,11,13,-1,-1,-1,-1,-1,-1,-1,-1],"loss_changes":[8.398896E2,6.030355E2,6.92509E2,2.1491785E2,5.4159814E2,8.5872546E2,7.1408606E2,0E0,0E0,0E0,0E0,0E0,0E0,0E0,0E0],"parents":[2147483647,0,0,1,1,2,2,3,3,4,4,5,5,6,6],"right_children":[2,4,6,8,10,12,14,-1,-1,-1,-1,-1,-1,-1,-1],"split_conditions":[4.3E-1,2.591305E1,1.8541983E1,4.3205284E1,5.0992653E1,2.7892752E0,8.414466E0,1.6170418E-2,1.0395747E-1,3.8178664E-2,-4.5666665E-2,8.53071E-4,-3.7701294E-2,3.2064255E-4,-4.395625E-2],"split_indices":[32,54,45,41,20,56,73,0,0,0,0,0,0,0,0],"split_type":[0,0,0,0,0,0,0,0,0,0,0,0,0,0,0],"sum_hessian":[2.66E3,5.2E1,2.608E3,1.7E1,3.5E1,2.3E2,2.378E3,4E0,1.3E1,2.5E1,1E1,1.15E2,1.15E2,2.342E3,3.6E1],"tree_param":{"num_deleted":"0","num_feature":"89","num_nodes":"15","size_leaf_vector":"1"}},{"base_weights":[1.7532635E-2,-1.387137E0,1.6947563E-1,-1.584126E0,1.1714684E-1,3.2269727E-2,2.1353102E0,-4.0177386E-2,-7.647981E-3,8.4805785E-4,-5.3278744E-2,4.2872403E-2,-3.653571E-3],"categories":[],"categories_nodes":[],"categories_segments":[],"categories_sizes":[],"default_left":[0,0,0,0,0,0,0,0,0,0,0,0,0],"id":5,"left_children":[1,3,5,7,-1,9,11,-1,-1,-1,-1,-1,-1],"loss_changes":[5.72867E2,6.947572E2,6.532029E2,5.133542E2,0E0,6.382778E2,8.5180585E2,0E0,0E0,0E0,0E0,0E0,0E0],"parents":[2147483647,0,0,1,1,2,2,3,3,5,5,6,6],"right_children":[2,4,6,8,-1,10,12,-1,-1,-1,-1,-1,-1],"split_conditions":[3.9614513E1,6.339223E1,2.8427896E1,1.9869532E1,1.1714684E-1,5.9488945E1,6.6590034E1,-4.0177386E-2,-7.647981E-3,8.4805785E-4,-5.3278744E-2,4.2872403E-2,-3.653571E-3],"split_indices":[13,41,28,1,0,27,66,0,0,0,0,0,0],"split_type":[0,0,0,0,0,0,0,0,0,0,0,0,0],"sum_hessian":[2.682E3,2.61E2,2.421E3,2.58E2,3E0,2.264E3,1.57E2,6.4E1,1.94E2,2.243E3,2.1E1,8.4E1,7.3E1],"tree_param":{"num_deleted":"0","num_feature":"89","num_nodes":"13","size_leaf_vector":"1"}},{"base_weights":[8.208936E-2,-2.5570068E-1,1.1071066E0,4.8780756E0,-3.388777E-1,2.3313375E0,-2.7420524E-1,1.6404176E-2,9.48385E-2,-5.3954655E-3,1.2865295E-2,-3.7603576E-3,2.9154805E-2,-9.151398E-3,3.171509E-2],"categories":[],"categories_nodes":[],"categories_segments":[],"categories_sizes":[],"default_left":[0,0,0,0,0,0,0,0,0,0,0,0,0,0,0],"id":6,"left_children":[1,3,5,7,9,11,13,-1,-1,-1,-1,-1,-1,-1,-1],"loss_changes":[9.2197546E2,8.569588E2,1.1167288E3,4.6162415E2,6.438986E2,5.5461914E2,6.897389E2,0E0,0E0,0E0,0E0,0E0,0E0,0E0,0E0],"parents":[2147483647,0,0,1,1,2,2,3,3,4,4,5,5,6,6],"right_children":[2,4,6,8,10,12,14,-1,-1,-1,-1,-1,-1,-1,-1],"split_conditions":[2.306109E1,2.110429E1,2.0782171E1,2.664061E1,2.4341434E1,4.6736588E1,1.8729655E-1,1.6404176E-2,9.48385E-2,-5.3954655E-3,1.2865295E-2,-3.7603576E-3,2.9154805E-2,-9.151398E-3,3.171509E-2],"split_indices":[38,29,86,83,45,29,64,0,0,0,0,0,0,0,0],"split_type":[0,0,0,0,0,0,0,0,0,0,0,0,0,0,0],"sum_hessian":[2.661E3,2.002E3,6.59E2,3.1E1,1.971E3,3.49E2,3.1E2,1.9E1,1.2E1,1.755E3,2.16E2,6.2E1,2.87E2,2.62E2,4.8E1],"tree_param":{"num_deleted":"0","num_feature":"89","num_nodes":"15","size_leaf_vector":"1"}},{"base_weights":[-7.0901245E-2,-8.40727E-1,2.9130936E-1,-3.0319462E0,-2.5623962E-1,4.9146676E-1,-1.6764573E0,6.1721546E-3,-4.429467E-2,-5.918648E-3,4.2765822E-2,5.7750433E-3,-4.367319E-2,3.8813397E-2,-2.4063205E-2],"categories":[],"categories_nodes":[],"categories_segments":[],"categories_sizes":[],"default_left":[0,0,0,0,0,0,0,0,0,0,0,0,0,0,0],"id":7,"left_children":[1,3,5,7,9,11,13,-1,-1,-1,-1,-1,-1,-1,-1],"loss_changes":[7.494854E2,1.1006592E3,7.2080554E2,9.2579456E2,1.0370352E3,6.9646545E2,6.9487665E2,0E0,0E0,0E0,0E0,0E0,0E0,0E0,0E0],"parents":[2147483647,0,0,1,1,2,2,3,3,4,4,5,5,6,6],"right_children":[2,4,6,8,10,12,14,-1,-1,-1,-1,-1,-1,-1,-1],"split_conditions":[2.6183746E0,1.788135E1,3.4940944E0,5.361835E1,2.3028925E1,3.528415E0,1.935927E1,6.1721546E-3,-4.429467E-2,-5.918648E-3,4.2765822E-2,5.7750433E-3,-4.367319E-2,3.8813397E-2,-2.4063205E-2],"split_indices":[77,84,77,12,69,60,42,0,0,0,0,0,0,0,0],"split_type":[0,0,0,0,0,0,0,0,0,0,0,0,0,0,0],"sum_hessian":[2.686E3,8.59E2,1.827E3,1.8E2,6.79E2,1.659E3,1.68E2,5E1,1.3E2,6.33E2,4.6E1,1.631E3,2.8E1,1.9E1,1.49E2],"tree_param":{"num_deleted":"0","num_feature":"89","num_nodes":"15","size_leaf_vector":"1"}},{"base_weights":[-7.795874E-2,4.6301436E0,-1.6968028E-1,1.0755232E1,2.6768634E0,-6.5891486E-1,5.315924E-1,4.487861E-2,1.4590801E-1,5.4429315E-2,-6.6683996E-3,-1.1232552E-2,4.703806E-3,3.3634406E-2,1.5920525E-3],"categories":[],"categories_nodes":[],"categories_segments":[],"categories_sizes":[],"default_left":[0,0,0,0,0,0,0,0,0,0,0,0,0,0,0],"id":8,"left_children":[1,3,5,7,9,11,13,-1,-1,-1,-1,-1,-1,-1,-1],"loss_changes":[1.1524879E3,5.8137427E2,8.982087E2,2.2298584E2,3.735861E2,8.0911847E2,1.1341537E3,0E0,0E0,0E0,0E0,0E0,0E0,0E0,0E0],"parents":[2147483647,0,0,1,1,2,2,3,3,4,4,5,5,6,6],"right_children":[2,4,6,8,10,12,14,-1,-1,-1,-1,-1,-1,-1,-1],"split_conditions":[4.3E-1,4.540144E1,7.010584E1,2.7485209E1,4.8245872E1,5.167695E1,2.2821167E1,4.487861E-2,1.4590801E-1,5.4429315E-2,-6.6683996E-3,-1.1232552E-2,4.703806E-3,3.3634406E-2,1.5920525E-3],"split_indices":[32,48,36,44,20,6,9,0,0,0,0,0,0,0,0],"split_type":[0,0,0,0,0,0,0,0,0,0,0,0,0,0,0],"sum_hessian":[2.666E3,5E1,2.616E3,1.1E1,3.9E1,1.541E3,1.075E3,5E0,6E0,2.1E1,1.8E1,1.092E3,4.49E2,1.24E2,9.51E2],"tree_param":{"num_deleted":"0","num_feature":"89","num_nodes":"15","size_leaf_vector":"1"}},{"base_weights":[2.4189603E-2,-2.5818746E0,1.3400634E-1,-1.3355789E0,-8.669915E0,3.3981352E0,1.9560903E-2,2.8315654E-3,-5.1231153E-2,2.8499665E-3,-9.807091E-2,7.844977E-2,1.9317439E-2,-8.721455E-4,2.8913558E-2],"categories":[],"categories_nodes":[],"categories_segments":[],"categories_sizes":[],"default_left":[0,0,0,0,0,0,0,0,0,0,0,0,0,0,0],"id":9,"left_children":[1,3,5,7,9,11,13,-1,-1,-1,-1,-1,-1,-1,-1],"loss_changes":[7.573171E2,8.002831E2,9.4841406E2,5.5324243E2,1.860946E2,5.4563513E2,7.5273987E2,0E0,0E0,0E0,0E0,0E0,0E0,0E0,0E0],"parents":[2147483647,0,0,1,1,2,2,3,3,4,4,5,5,6,6],"right_children":[2,4,6,8,10,12,14,-1,-1,-1,-1,-1,-1,-1,-1],"split_conditions":[1.8862953E1,3.4195075E0,1.9652494E1,2.2759066E1,7.3132463E0,1.2701092E1,5.024315E1,2.8315654E-3,-5.1231153E-2,2.8499665E-3,-9.807091E-2,7.844977E-2,1.9317439E-2,-8.721455E-4,2.8913558E-2],"split_indices":[21,77,21,84,73,88,71,0,0,0,0,0,0,0,0],"split_type":[0,0,0,0,0,0,0,0,0,0,0,0,0,0,0],"sum_hessian":[2.644E3,1.06E2,2.538E3,8.9E1,1.7E1,8.5E1,2.453E3,6.3E1,2.6E1,2E0,1.5E1,2E1,6.5E1,2.366E3,8.7E1],"tree_param":{"num_deleted":"0","num_feature":"89","num_nodes":"15","size_leaf_vector":"1"}},{"base_weights":[-5.737324E-2,3.5222683E0,-1.455814E-1,5.1593723E0,-4.685802E0,-1.9152178E0,2.024236E-2,6.311373E-3,7.884631E-2,-1.03170484E-1,5.9172766E-5,3.4553442E-2,-2.5939297E-2,-2.7415298E-3,1.1724237E-2],"categories":[],"categories_nodes":[],"categories_segments":[],"categories_sizes":[],"default_left":[0,0,0,0,0,0,0,0,0,0,0,0,0,0,0],"id":10,"left_children":[1,3,5,7,9,11,13,-1,-1,-1,-1,-1,-1,-1,-1],"loss_changes":[8.2715564E2,8.7073596E2,7.5009125E2,6.490763E2,2.9068353E2,8.0723206E2,7.933636E2,0E0,0E0,0E0,0E0,0E0,0E0,0E0,0E0],"parents":[2147483647,0,0,1,1,2,2,3,3,4,4,5,5,6,6],"right_children":[2,4,6,8,10,12,14,-1,-1,-1,-1,-1,-1,-1,-1],"split_conditions":[4.4E-1,2.7345333E1,1.8541983E1,1.7801878E1,2.3835348E1,4.0900852E1,2.3428339E1,6.311373E-3,7.884631E-2,-1.03170484E-1,5.9172766E-5,3.4553442E-2,-2.5939297E-2,-2.7415298E-3,1.1724237E-2],"split_indices":[32,87,45,86,2,36,38,0,0,0,0,0,0,0,0],"split_type":[0,0,0,0,0,0,0,0,0,0,0,0,0,0,0],"sum_hessian":[2.617E3,6.2E1,2.555E3,5.2E1,1E1,2.18E2,2.337E3,2E1,3.2E1,4E0,6E0,2.4E1,1.94E2,1.862E3,4.75E2],"tree_param":{"num_deleted":"0","num_feature":"89","num_nodes":"15","size_leaf_vector":"1"}},{"base_weights":[5.413393E-2,1.4250363E-1,-4.1130805E0,3.9720044E-2,3.0005882E0,-9.197934E0,-2.4801462E0,2.1040568E-3,-1.7601348E-2,8.114062E-2,1.6095243E-2,-5.084362E-2,-1.3149707E-1,4.8886016E-2,-3.8072027E-2],"categories":[],"categories_nodes":[],"categories_segments":[],"categories_sizes":[],"default_left":[0,0,0,0,0,0,0,0,0,0,0,0,0,0,0],"id":11,"left_children":[1,3,5,7,9,11,13,-1,-1,-1,-1,-1,-1,-1,-1],"loss_changes":[9.753586E2,7.616114E2,4.338656E2,7.696227E2,6.271254E2,1.4446887E2,4.3909793E2,0E0,0E0,0E0,0E0,0E0,0E0,0E0,0E0],"parents":[2147483647,0,0,1,1,2,2,3,3,4,4,5,5,6,6],"right_children":[2,4,6,8,10,12,14,-1,-1,-1,-1,-1,-1,-1,-1],"split_conditions":[8.36755E0,5.024315E1,4.5080956E1,3.2496376E1,2.426171E0,7.0284195E1,1.9189325E1,2.1040568E-3,-1.7601348E-2,8.114062E-2,1.6095243E-2,-5.084362E-2,-1.3149707E-1,4.8886016E-2,-3.8072027E-2],"split_indices":[73,71,26,86,57,36,45,0,0,0,0,0,0,0,0],"split_type":[0,0,0,0,0,0,0,0,0,0,0,0,0,0,0],"sum_hessian":[2.646E3,2.592E3,5.4E1,2.503E3,8.9E1,1.2E1,4.2E1,2.287E3,2.16E2,1.8E1,7.1E1,7E0,5E0,6E0,3.6E1],"tree_param":{"num_deleted":"0","num_feature":"89","num_nodes":"15","size_leaf_vector":"1"}},{"base_weights":[-3.7464477E-2,-1.4059825E-1,2.529228E0,8.557067E-1,-4.0634137E-1,3.6017065E0,-3.5274808E0,-5.023946E-3,2.1857997E-2,-6.7921337E-3,1.0066774E-2,-9.119054E-3,4.7753766E-2,8.13134E-3,-9.224433E-2],"categories":[],"categories_nodes":[],"categories_segments":[],"categories_sizes":[],"default_left":[0,0,0,0,0,0,0,0,0,0,0,0,0,0,0],"id":12,"left_children":[1,3,5,7,9,11,13,-1,-1,-1,-1,-1,-1,-1,-1],"loss_changes":[7.058149E2,6.789306E2,6.817611E2,9.765549E2,7.810841E2,4.7053394E2,4.0315317E2,0E0,0E0,0E0,0E0,0E0,0E0,0E0,0E0],"parents":[2147483647,0,0,1,1,2,2,3,3,4,4,5,5,6,6],"right_children":[2,4,6,8,10,12,14,-1,-1,-1,-1,-1,-1,-1,-1],"split_conditions":[5.024315E1,2.407781E1,7.8984756E0,2.4177818E1,2.4808092E0,5.3270664E1,5.0577873E1,-5.023946E-3,2.1857997E-2,-6.7921337E-3,1.0066774E-2,-9.119054E-3,4.7753766E-2,8.13134E-3,-9.224433E-2],"split_indices":[71,9,72,49,61,22,71,0,0,0,0,0,0,0,0],"split_type":[0,0,0,0,0,0,0,0,0,0,0,0,0,0,0],"sum_hessian":[2.664E3,2.562E3,1.02E2,5.39E2,2.023E3,8.7E1,1.5E1,2.67E2,2.72E2,1.696E3,3.27E2,1.8E1,6.9E1,9E0,6E0],"tree_param":{"num_deleted":"0","num_feature":"89","num_nodes":"15","size_leaf_vector":"1"}},{"base_weights":[2.527448E-2,4.741011E0,-6.504039E-2,6.6966896E0,-3.7513704E0,-2.6222798E-1,1.624655E0,3.3542067E-2,9.166711E-2,1.0721251E-2,-7.1457215E-2,-1.7118892E-2,-7.617586E-4,2.4005035E-3,3.8377363E-2],"categories":[],"categories_nodes":[],"categories_segments":[],"categories_sizes":[],"default_left":[0,0,0,0,0,0,0,0,0,0,0,0,0,0,0],"id":13,"left_children":[1,3,5,7,9,11,13,-1,-1,-1,-1,-1,-1,-1,-1],"loss_changes":[1.1332054E3,8.555399E2,8.703773E2,3.0774927E2,1.7138748E2,6.307273E2,8.3561707E2,0E0,0E0,0E0,0E0,0E0,0E0,0E0,0E0],"parents":[2147483647,0,0,1,1,2,2,3,3,4,4,5,5,6,6],"right_children":[2,4,6,8,10,12,14,-1,-1,-1,-1,-1,-1,-1,-1],"split_conditions":[4.3E-1,2.4253927E1,2.4295578E1,2.111414E1,1.9599617E1,5.1748357E0,4.9456573E1,3.3542067E-2,9.166711E-2,1.0721251E-2,-7.1457215E-2,-1.7118892E-2,-7.617586E-4,2.4005035E-3,3.8377363E-2],"split_indices":[32,30,45,30,69,73,48,0,0,0,0,0,0,0,0],"split_type":[0,0,0,0,0,0,0,0,0,0,0,0,0,0,0],"sum_hessian":[2.659E3,4.9E1,2.61E3,4E1,9E0,2.338E3,2.72E2,1.8E1,2.2E1,4E0,5E0,2.65E2,2.073E3,1.68E2,1.04E2],"tree_param":{"num_deleted":"0","num_feature":"89","num_nodes":"15","size_leaf_vector":"1"}},{"base_weights":[1.4096136E-1,2.1493068E-1,-4.0011725E0,4.2542195E0,1.3819169E-1,-7.7946973E0,-9.024617E-1,5.973E-2,-2.226385E-2,-2.475601E-2,2.5219226E-3,1.3713169E-2,-9.3985505E-2,1.2664199E-2,-7.280183E-2],"categories":[],"categories_nodes":[],"categories_segments":[],"categories_sizes":[],"default_left":[0,0,0,0,0,0,0,0,0,0,0,0,0,0,0],"id":14,"left_children":[1,3,5,7,9,11,13,-1,-1,-1,-1,-1,-1,-1,-1],"loss_changes":[8.2076196E2,8.146357E2,5.454522E2,5.590962E2,7.69993E2,3.2160828E2,3.8269788E2,0E0,0E0,0E0,0E0,0E0,0E0,0E0,0E0],"parents":[2147483647,0,0,1,1,2,2,3,3,4,4,5,5,6,6],"right_children":[2,4,6,8,10,12,14,-1,-1,-1,-1,-1,-1,-1,-1],"split_conditions":[8.414466E0,4.3E-1,6.987628E1,2.2082008E1,3.0676622E1,2.2147345E1,2.9787477E1,5.973E-2,-2.226385E-2,-2.475601E-2,2.5219226E-3,1.3713169E-2,-9.3985505E-2,1.2664199E-2,-7.280183E-2],"split_indices":[73,32,29,53,47,9,44,0,0,0,0,0,0,0,0],"split_type":[0,0,0,0,0,0,0,0,0,0,0,0,0,0,0],"sum_hessian":[2.675E3,2.629E3,4.6E1,4.8E1,2.581E3,2E1,2.6E1,3.8E1,1E1,1.07E2,2.474E3,3E0,1.7E1,2E1,6E0],"tree_param":{"num_deleted":"0","num_feature":"89","num_nodes":"15","size_leaf_vector":"1"}},{"base_weights":[7.407492E-2,2.5116854E0,-3.1647287E-2,4.6494E0,-4.981688E-1,9.815767E-2,-2.163059E0,7.684661E-2,1.828186E-2,1.1885435E-1,-1.3126719E-2,-3.4236317E-3,7.2781756E-3,-6.1133064E-2,-6.7997593E-3],"categories":[],"categories_nodes":[],"categories_segments":[],"categories_sizes":[],"default_left":[0,0,0,0,0,0,0,0,0,0,0,0,0,0,0],"id":15,"left_children":[1,3,5,7,9,11,13,-1,-1,-1,-1,-1,-1,-1,-1],"loss_changes":[6.8816394E2,7.165134E2,7.0848193E2,5.4255396E2,4.896664E2,6.6984045E2,8.5704913E2,0E0,0E0,0E0,0E0,0E0,0E0,0E0,0E0],"parents":[2147483647,0,0,1,1,2,2,3,3,4,4,5,5,6,6],"right_children":[2,4,6,8,10,12,14,-1,-1,-1,-1,-1,-1,-1,-1],"split_conditions":[3.6751015E1,2.703301E1,3.4940944E0,2.5479674E0,1.1379375E0,7.010584E1,2.1631014E1,7.684661E-2,1.828186E-2,1.1885435E-1,-1.3126719E-2,-3.4236317E-3,7.2781756E-3,-6.1133064E-2,-6.7997593E-3],"split_indices":[34,16,77,56,76,36,3,0,0,0,0,0,0,0,0],"split_type":[0,0,0,0,0,0,0,0,0,0,0,0,0,0,0],"sum_hessian":[2.669E3,1.1E2,2.559E3,6.4E1,4.6E1,2.413E3,1.46E2,3E1,3.4E1,2E0,4.4E1,1.42E3,9.93E2,3.9E1,1.07E2],"tree_param":{"num_deleted":"0","num_feature":"89","num_nodes":"15","size_leaf_vector":"1"}},{"base_weights":[6.43362E-2,1.5143493E-1,-3.7144766E0,1.3049871E0,-1.3702707E-1,-7.380333E0,-3.9077485E-1,4.0329576E-2,8.1283385E-3,-2.5456508E-3,4.126752E-2,1.9460693E-2,-9.0158194E-2,-4.791732E-2,3.2983992E-2],"categories":[],"categories_nodes":[],"categories_segments":[],"categories_sizes":[],"default_left":[0,0,0,0,0,0,0,0,0,0,0,0,0,0,0],"id":16,"left_children":[1,3,5,7,9,11,13,-1,-1,-1,-1,-1,-1,-1,-1],"loss_changes":[8.61895E2,8.517013E2,7.159845E2,6.841226E2,1.0274185E3,4.4463513E2,5.353538E2,0E0,0E0,0E0,0E0,0E0,0E0,0E0,0E0],"parents":[2147483647,0,0,1,1,2,2,3,3,4,4,5,5,6,6],"right_children":[2,4,6,8,10,12,14,-1,-1,-1,-1,-1,-1,-1,-1],"split_conditions":[8.36755E0,4.2386967E1,7.7E-1,2.1135698E1,5.0520123E1,1.1688854E1,7.3211845E1,4.0329576E-2,8.1283385E-3,-2.5456508E-3,4.126752E-2,1.9460693E-2,-9.0158194E-2,-4.791732E-2,3.2983992E-2],"split_indices":[73,34,63,21,71,86,33,0,0,0,0,0,0,0,0],"split_type":[0,0,0,0,0,0,0,0,0,0,0,0,0,0,0],"sum_hessian":[2.616E3,2.558E3,5.8E1,5.11E2,2.047E3,2.7E1,3.1E1,7.7E1,4.34E2,1.993E3,5.4E1,4E0,2.3E1,1.4E1,1.7E1],"tree_param":{"num_deleted":"0","num_feature":"89","num_nodes":"15","size_leaf_vector":"1"}},{"base_weights":[8.390017E-2,2.9611795E0,-2.85888E-2,4.719861E0,-3.8954833E-1,1.7739588E0,-2.0594022E-1,2.9755458E-2,9.469953E-2,5.6486133E-2,-3.0307576E-2,1.2019253E-2,8.769551E-2,-1.1047102E-2,1.8304093E-3],"categories":[],"categories_nodes":[],"categories_segments":[],"categories_sizes":[],"default_left":[0,0,0,0,0,0,0,0,0,0,0,0,0,0,0],"id":17,"left_children":[1,3,5,7,9,11,13,-1,-1,-1,-1,-1,-1,-1,-1],"loss_changes":[8.516398E2,5.85232E2,8.101258E2,5.103894E2,5.7530133E2,8.978484E2,8.067399E2,0E0,0E0,0E0,0E0,0E0,0E0,0E0,0E0],"parents":[2147483647,0,0,1,1,2,2,3,3,4,4,5,5,6,6],"right_children":[2,4,6,8,10,12,14,-1,-1,-1,-1,-1,-1,-1,-1],"split_conditions":[3.6392113E1,3.240059E0,1.8589355E1,2.7340878E1,4.4816345E1,9.8E-1,2.6105435E0,2.9755458E-2,9.469953E-2,5.6486133E-2,-3.0307576E-2,1.2019253E-2,8.769551E-2,-1.1047102E-2,1.8304093E-3],"split_indices":[34,77,10,88,41,25,77,0,0,0,0,0,0,0,0],"split_type":[0,0,0,0,0,0,0,0,0,0,0,0,0,0,0],"sum_hessian":[2.63E3,9.8E1,2.532E3,6.4E1,3.4E1,2.26E2,2.306E3,4.8E1,1.6E1,1E1,2.4E1,2.1E2,1.6E1,6.96E2,1.61E3],"tree_param":{"num_deleted":"0","num_feature":"89","num_nodes":"15","size_leaf_vector":"1"}},{"base_weights":[-8.955893E-2,-1.5115318E-2,-5.1017075E0,-1.650136E0,2.1158387E-1,-9.293725E0,-2.3824291E0,-3.9561395E-2,-6.7349663E-3,1.2939506E-2,-6.1470433E-4,2.2500629E-2,-1.1242774E-1,-4.1378997E-2,3.866212E-2],"categories":[],"categories_nodes":[],"categories_segments":[],"categories_sizes":[],"default_left":[0,0,0,0,0,0,0,0,0,0,0,0,0,0,0],"id":18,"left_children":[1,3,5,7,9,11,13,-1,-1,-1,-1,-1,-1,-1,-1],"loss_changes":[9.942942E2,9.7406726E2,4.224295E2,7.180184E2,6.821972E2,3.627881E2,2.9023068E2,0E0,0E0,0E0,0E0,0E0,0E0,0E0,0E0],"parents":[2147483647,0,0,1,1,2,2,3,3,4,4,5,5,6,6],"right_children":[2,4,6,8,10,12,14,-1,-1,-1,-1,-1,-1,-1,-1],"split_conditions":[8.414466E0,5.189596E0,2.2215942E1,7E-1,2.407781E1,1.813455E1,2.9704996E1,-3.9561395E-2,-6.7349663E-3,1.2939506E-2,-6.1470433E-4,2.2500629E-2,-1.1242774E-1,-4.1378997E-2,3.866212E-2],"split_indices":[73,73,3,39,9,17,23,0,0,0,0,0,0,0,0],"split_type":[0,0,0,0,0,0,0,0,0,0,0,0,0,0,0],"sum_hessian":[2.664E3,2.626E3,3.8E1,3.19E2,2.307E3,1.4E1,2.4E1,9.4E1,2.25E2,4.64E2,1.843E3,2E0,1.2E1,1.9E1,5E0],"tree_param":{"num_deleted":"0","num_feature":"89","num_nodes":"15","size_leaf_vector":"1"}},{"base_weights":[4.6141744E-2,-7.544516E-1,4.0125716E-1,-9.406349E-1,7.085359E0,5.101647E-1,-4.0433674E0,1.1229345E-2,-1.4778948E-2,3.8968742E-2,1.3344264E-1,1.3277546E-2,-1.2692343E-4,-2.1723205E-2,-1.2191538E-1],"categories":[],"categories_nodes":[],"categories_segments":[],"categories_sizes":[],"default_left":[0,0,0,0,0,0,0,0,0,0,0,0,0,0,0],"id":19,"left_children":[1,3,5,7,9,11,13,-1,-1,-1,-1,-1,-1,-1,-1],"loss_changes":[7.5313715E2,1.1948135E3,8.902999E2,8.841636E2,3.2717108E2,7.6606573E2,6.4432294E2,0E0,0E0,0E0,0E0,0E0,0E0,0E0,0E0],"parents":[2147483647,0,0,1,1,2,2,3,3,4,4,5,5,6,6],"right_children":[2,4,6,8,10,12,14,-1,-1,-1,-1,-1,-1,-1,-1],"split_conditions":[2.6183746E0,2.5651432E1,8.414466E0,6.2226498E1,2.1212284E1,1.8598648E1,2.4457083E1,1.1229345E-2,-1.4778948E-2,3.8968742E-2,1.3344264E-1,1.3277546E-2,-1.2692343E-4,-2.1723205E-2,-1.2191538E-1],"split_indices":[77,17,73,51,53,86,1,0,0,0,0,0,0,0,0],"split_type":[0,0,0,0,0,0,0,0,0,0,0,0,0,0,0],"sum_hessian":[2.647E3,8.13E2,1.834E3,7.95E2,1.8E1,1.791E3,4.3E1,1.64E2,6.31E2,1.3E1,5E0,6.98E2,1.093E3,3.6E1,7E0],"tree_param":{"num_deleted":"0","num_feature":"89","num_nodes":"15","size_leaf_vector":"1"}},{"base_weights":[-5.21659E-2,3.9201458E0,-1.3113646E-1,5.4419336E0,-3.9552774E0,-3.04957E-1,1.4512038E0,2.8947702E-2,9.7185455E-2,1.7803682E-2,-7.119828E-2,-1.7723454E-2,-1.1823124E-3,2.5597053E-2,-1.1068972E-2],"categories":[],"categories_nodes":[],"categories_segments":[],"categories_sizes":[],"default_left":[0,0,0,0,0,0,0,0,0,0,0,0,0,0,0],"id":20,"left_children":[1,3,5,7,9,11,13,-1,-1,-1,-1,-1,-1,-1,-1],"loss_changes":[8.368268E2,6.4472986E2,7.196806E2,4.511692E2,1.760326E2,6.4560657E2,7.372689E2,0E0,0E0,0E0,0E0,0E0,0E0,0E0,0E0],"parents":[2147483647,0,0,1,1,2,2,3,3,4,4,5,5,6,6],"right_children":[2,4,6,8,10,12,14,-1,-1,-1,-1,-1,-1,-1,-1],"split_conditions":[4.3E-1,2.4306667E1,2.4425632E1,4.1E-1,1.8524551E1,5.189596E0,6.694797E1,2.8947702E-2,9.7185455E-2,1.7803682E-2,-7.119828E-2,-1.7723454E-2,-1.1823124E-3,2.5597053E-2,-1.1068972E-2],"split_indices":[32,30,45,32,53,73,67,0,0,0,0,0,0,0,0],"split_type":[0,0,0,0,0,0,0,0,0,0,0,0,0,0,0],"sum_hessian":[2.665E3,5.1E1,2.614E3,4.3E1,8E0,2.356E3,2.58E2,2.8E1,1.5E1,3E0,5E0,2.65E2,2.091E3,1.8E2,7.8E1],"tree_param":{"num_deleted":"0","num_feature":"89","num_nodes":"15","size_leaf_vector":"1"}},{"base_weights":[1.1865032E-2,1.1183829E0,-2.7186313E-1,-2.7095744E-1,2.2645652E0,-1.6840559E0,2.2229673E-2,-9.2301466E-2,3.1330262E-4,7.3886067E-3,3.6476973E-2,5.2648652E-2,-1.957201E-2,-5.5328575E-3,6.5957922E-3],"categories":[],"categories_nodes":[],"categories_segments":[],"categories_sizes":[],"default_left":[0,0,0,0,0,0,0,0,0,0,0,0,0,0,0],"id":21,"left_children":[1,3,5,7,9,11,13,-1,-1,-1,-1,-1,-1,-1,-1],"loss_changes":[8.3070245E2,8.6052985E2,8.746924E2,6.6381116E2,6.2193933E2,6.99302E2,6.40072E2,0E0,0E0,0E0,0E0,0E0,0E0,0E0,0E0],"parents":[2147483647,0,0,1,1,2,2,3,3,4,4,5,5,6,6],"right_children":[2,4,6,8,10,12,14,-1,-1,-1,-1,-1,-1,-1,-1],"split_conditions":[4.2386967E1,6.146474E1,4.5245102E1,6.9444027E0,2.9182074E0,1.7363813E1,2.407085E1,-9.2301466E-2,3.1330262E-4,7.3886067E-3,3.6476973E-2,5.2648652E-2,-1.957201E-2,-5.5328575E-3,6.5957922E-3],"split_indices":[34,15,34,88,77,31,75,0,0,0,0,0,0,0,0],"split_type":[0,0,0,0,0,0,0,0,0,0,0,0,0,0,0],"sum_hessian":[2.644E3,5.39E2,2.105E3,2.44E2,2.95E2,3.62E2,1.743E3,7E0,2.37E2,1.41E2,1.54E2,1.3E1,3.49E2,9.16E2,8.27E2],"tree_param":{"num_deleted":"0","num_feature":"89","num_nodes":"15","size_leaf_vector":"1"}},{"base_weights":[-1.9534238E-2,1.0245386E0,-2.7572098E-1,-1.2498182E0,1.6694063E0,-4.386696E-1,1.8272723E0,-2.4844166E-2,2.0300595E-2,2.2119768E-2,-1.8882176E-2,5.6963735E-3,-8.925308E-3,2.5297483E-2,-4.301885E-2],"categories":[],"categories_nodes":[],"categories_segments":[],"categories_sizes":[],"default_left":[0,0,0,0,0,0,0,0,0,0,0,0,0,0,0],"id":22,"left_children":[1,3,5,7,9,11,13,-1,-1,-1,-1,-1,-1,-1,-1],"loss_changes":[7.0321375E2,7.6181586E2,7.241986E2,4.7071667E2,7.840027E2,8.974658E2,6.653319E2,0E0,0E0,0E0,0E0,0E0,0E0,0E0,0E0],"parents":[2147483647,0,0,1,1,2,2,3,3,4,4,5,5,6,6],"right_children":[2,4,6,8,10,12,14,-1,-1,-1,-1,-1,-1,-1,-1],"split_conditions":[4.2386967E1,1.9817106E1,2.4762215E1,2.3592207E0,2.9853222E1,2.1082838E1,9.8E-1,-2.4844166E-2,2.0300595E-2,2.2119768E-2,-1.8882176E-2,5.6963735E-3,-8.925308E-3,2.5297483E-2,-4.301885E-2],"split_indices":[34,38,10,60,16,58,25,0,0,0,0,0,0,0,0],"split_type":[0,0,0,0,0,0,0,0,0,0,0,0,0,0,0],"sum_hessian":[2.627E3,5.17E2,2.11E3,1.14E2,4.03E2,1.959E3,1.51E2,8.3E1,3.1E1,3.5E2,5.3E1,6.08E2,1.351E3,1.36E2,1.5E1],"tree_param":{"num_deleted":"0","num_feature":"89","num_nodes":"15","size_leaf_vector":"1"}},{"base_weights":[-3.545787E-2,3.8448694E0,-1.12194866E-1,7.0508227E0,6.152523E-1,-2.1690461E-1,2.5659118E0,8.671501E-2,-1.4903287E-2,5.3540945E-2,-3.532761E-2,8.433148E-3,-4.8159077E-3,-1.7444883E-2,4.4652812E-2],"categories":[],"categories_nodes":[],"categories_segments":[],"categories_sizes":[],"default_left":[0,0,0,0,0,0,0,0,0,0,0,0,0,0,0],"id":23,"left_children":[1,3,5,7,9,11,13,-1,-1,-1,-1,-1,-1,-1,-1],"loss_changes":[7.984406E2,5.3406995E2,7.377909E2,3.728275E2,5.4964777E2,7.1066907E2,8.183069E2,0E0,0E0,0E0,0E0,0E0,0E0,0E0,0E0],"parents":[2147483647,0,0,1,1,2,2,3,3,4,4,5,5,6,6],"right_children":[2,4,6,8,10,12,14,-1,-1,-1,-1,-1,-1,-1,-1],"split_conditions":[4.3E-1,2.4639563E1,5.024315E1,8.433333E-1,1.7461239E1,4.2386967E1,2.6436626E1,8.671501E-2,-1.4903287E-2,5.3540945E-2,-3.532761E-2,8.433148E-3,-4.8159077E-3,-1.7444883E-2,4.4652812E-2],"split_indices":[32,49,71,62,88,34,55,0,0,0,0,0,0,0,0],"split_type":[0,0,0,0,0,0,0,0,0,0,0,0,0,0,0],"sum_hessian":[2.679E3,5.1E1,2.628E3,2.5E1,2.6E1,2.53E3,9.8E1,2.1E1,4E0,1.2E1,1.4E1,5.05E2,2.025E3,3E1,6.8E1],"tree_param":{"num_deleted":"0","num_feature":"89","num_nodes":"15","size_leaf_vector":"1"}},{"base_weights":[-2.0861123E-2,-3.0389315E-1,8.325549E-1,3.8470738E0,-3.9101404E-1,1.9680945E0,-3.8010618E-1,5.3826556E-2,-6.0075946E-2,-5.085171E-3,2.5947208E-2,-1.7521136E-2,2.8010873E-2,7.142822E-2,-6.458226E-3],"categories":[],"categories_nodes":[],"categories_segments":[],"categories_sizes":[],"default_left":[0,0,0,0,0,0,0,0,0,0,0,0,0,0,0],"id":24,"left_children":[1,3,5,7,9,11,13,-1,-1,-1,-1,-1,-1,-1,-1],"loss_changes":[6.4010315E2,7.211599E2,9.0958435E2,6.5277527E2,6.854441E2,1.0616349E3,6.4428204E2,0E0,0E0,0E0,0E0,0E0,0E0,0E0,0E0],"parents":[2147483647,0,0,1,1,2,2,3,3,4,4,5,5,6,6],"right_children":[2,4,6,8,10,12,14,-1,-1,-1,-1,-1,-1,-1,-1],"split_conditions":[2.3085176E1,4.4E-1,2.0722498E1,2.6570707E1,5.024315E1,4.7582397E1,1.8281559E1,5.3826556E-2,-6.0075946E-2,-5.085171E-3,2.5947208E-2,-1.7521136E-2,2.8010873E-2,7.142822E-2,-6.458226E-3],"split_indices":[38,32,86,87,71,29,3,0,0,0,0,0,0,0,0],"split_type":[0,0,0,0,0,0,0,0,0,0,0,0,0,0,0],"sum_hessian":[2.648E3,1.989E3,6.59E2,4E1,1.949E3,3.4E2,3.19E2,3.5E1,5E0,1.876E3,7.3E1,6.2E1,2.78E2,1E1,3.09E2],"tree_param":{"num_deleted":"0","num_feature":"89","num_nodes":"15","size_leaf_vector":"1"}},{"base_weights":[1.04853824E-1,-5.871678E0,1.5187381E-1,2.19786E0,-8.530775E0,7.826646E-1,-2.9279974E-1,5.7104635E-3,3.634325E-2,-3.3566996E-2,-9.030165E-2,-2.3660293E-2,9.983225E-3,-5.9702424E-3,1.694843E-2],"categories":[],"categories_nodes":[],"categories_segments":[],"categories_sizes":[],"default_left":[0,0,0,0,0,0,0,0,0,0,0,0,0,0,0],"id":25,"left_children":[1,3,5,7,9,11,13,-1,-1,-1,-1,-1,-1,-1,-1],"loss_changes":[7.5598303E2,4.6936084E2,7.4831195E2,1.1945795E1,1.10303955E1,7.51344E2,9.4735114E2,0E0,0E0,0E0,0E0,0E0,0E0,0E0,0E0],"parents":[2147483647,0,0,1,1,2,2,3,3,4,4,5,5,6,6],"right_children":[2,4,6,8,10,12,14,-1,-1,-1,-1,-1,-1,-1,-1],"split_conditions":[9.2344165E-1,4.8798424E1,2.3331814E1,6.919637E1,4.0896725E1,7.980838E0,2.4145817E1,5.7104635E-3,3.634325E-2,-3.3566996E-2,-9.030165E-2,-2.3660293E-2,9.983225E-3,-5.9702424E-3,1.694843E-2],"split_indices":[76,8,35,0,43,88,38,0,0,0,0,0,0,0,0],"split_type":[0,0,0,0,0,0,0,0,0,0,0,0,0,0,0],"sum_hessian":[2.686E3,2E1,2.666E3,5E0,1.5E1,1.102E3,1.564E3,3E0,2E0,2E0,1.3E1,7E1,1.032E3,1.357E3,2.07E2],"tree_param":{"num_deleted":"0","num_feature":"89","num_nodes":"15","size_leaf_vector":"1"}},{"base_weights":[1.2629467E-1,2.688682E-1,-2.0191643E0,3.2755207E-2,1.5073326E0,-5.9282646E0,-1.0265924E0,-2.030991E-3,1.4438001E-2,1.9630745E-2,-1.908865E-2,-7.294764E-2,1.894158E-3,-2.341534E-3,-5.2040484E-2],"categories":[],"categories_nodes":[],"categories_segments":[],"categories_sizes":[],"default_left":[0,0,0,0,0,0,0,0,0,0,0,0,0,0,0],"id":26,"left_children":[1,3,5,7,9,11,13,-1,-1,-1,-1,-1,-1,-1,-1],"loss_changes":[8.050223E2,7.2134467E2,6.302444E2,6.901898E2,6.187247E2,2.772555E2,4.357515E2,0E0,0E0,0E0,0E0,0E0,0E0,0E0,0E0],"parents":[2147483647,0,0,1,1,2,2,3,3,4,4,5,5,6,6],"right_children":[2,4,6,8,10,12,14,-1,-1,-1,-1,-1,-1,-1,-1],"split_conditions":[2.7394043E1,6.8466446E1,2.0431627E1,2.4053318E1,3.1462452E1,8.6E-1,3.0322685E1,-2.030991E-3,1.4438001E-2,1.9630745E-2,-1.908865E-2,-7.294764E-2,1.894158E-3,-2.341534E-3,-5.2040484E-2],"split_indices":[55,51,38,45,87,62,16,0,0,0,0,0,0,0,0],"split_type":[0,0,0,0,0,0,0,0,0,0,0,0,0,0,0],"sum_hessian":[2.629E3,2.466E3,1.63E2,2.072E3,3.94E2,3.2E1,1.31E2,1.776E3,2.96E2,3.48E2,4.6E1,2.6E1,6E0,1.11E2,2E1],"tree_param":{"num_deleted":"0","num_feature":"89","num_nodes":"15","size_leaf_vector":"1"}},{"base_weights":[-1.1017609E-2,-1.5327361E0,1.3923408E-1,1.5765454E-1,-3.6669452E0,-2.6770383E-1,9.579381E-1,3.7725326E-2,-1.33464215E-2,-1.0126762E-1,-2.8965851E-2,4.746894E-2,-3.6739232E-3,-3.193518E-2,1.1709708E-2],"categories":[],"categories_nodes":[],"categories_segments":[],"categories_sizes":[],"default_left":[0,0,0,0,0,0,0,0,0,0,0,0,0,0,0],"id":27,"left_children":[1,3,5,7,9,11,13,-1,-1,-1,-1,-1,-1,-1,-1],"loss_changes":[6.157143E2,8.7362885E2,8.1683575E2,7.3868304E2,5.0314014E2,8.205766E2,7.2363763E2,0E0,0E0,0E0,0E0,0E0,0E0,0E0,0E0],"parents":[2147483647,0,0,1,1,2,2,3,3,4,4,5,5,6,6],"right_children":[2,4,6,8,10,12,14,-1,-1,-1,-1,-1,-1,-1,-1],"split_conditions":[1.8541983E1,2.8899E0,2.2618408E1,5.507676E1,1.611872E1,4.4E-1,7.1708333E-1,3.7725326E-2,-1.33464215E-2,-1.0126762E-1,-2.8965851E-2,4.746894E-2,-3.6739232E-3,-3.193518E-2,1.1709708E-2],"split_indices":[45,56,38,40,53,32,63,0,0,0,0,0,0,0,0],"split_type":[0,0,0,0,0,0,0,0,0,0,0,0,0,0,0],"sum_hessian":[2.691E3,2.41E2,2.45E3,1.35E2,1.06E2,1.637E3,8.13E2,3.9E1,9.6E1,1E1,9.6E1,3.1E1,1.606E3,3.9E1,7.74E2],"tree_param":{"num_deleted":"0","num_feature":"89","num_nodes":"15","size_leaf_vector":"1"}},{"base_weights":[8.836552E-2,-9.5618986E-2,1.6288422E0,-1.6990025E0,1.1566E-1,2.0176868E0,-4.986108E0,-5.4606088E-2,-1.130053E-2,1.1049318E-2,-1.5947635E-3,2.8377902E-3,3.3798024E-2,-6.7901865E-2,2.1236748E-2],"categories":[],"categories_nodes":[],"categories_segments":[],"categories_sizes":[],"default_left":[0,0,0,0,0,0,0,0,0,0,0,0,0,0,0],"id":28,"left_children":[1,3,5,7,9,11,13,-1,-1,-1,-1,-1,-1,-1,-1],"loss_changes":[7.517958E2,8.030607E2,7.379896E2,5.8451447E2,5.70403E2,6.319988E2,2.196459E2,0E0,0E0,0E0,0E0,0E0,0E0,0E0,0E0],"parents":[2147483647,0,0,1,1,2,2,3,3,4,4,5,5,6,6],"right_children":[2,4,6,8,10,12,14,-1,-1,-1,-1,-1,-1,-1,-1],"split_conditions":[2.4341434E1,5.1748357E0,3.562668E0,1.6886265E1,4.262473E1,2.3941088E1,5.0769913E1,-5.4606088E-2,-1.130053E-2,1.1049318E-2,-1.5947635E-3,2.8377902E-3,3.3798024E-2,-6.7901865E-2,2.1236748E-2],"split_indices":[45,73,77,84,34,75,48,0,0,0,0,0,0,0,0],"split_type":[0,0,0,0,0,0,0,0,0,0,0,0,0,0,0],"sum_hessian":[2.651E3,2.369E3,2.82E2,2.75E2,2.094E3,2.67E2,1.5E1,3.5E1,2.4E2,4.55E2,1.639E3,1.18E2,1.49E2,1.2E1,3E0],"tree_param":{"num_deleted":"0","num_feature":"89","num_nodes":"15","size_leaf_vector":"1"}},{"base_weights":[8.825268E-2,3.6403284E0,6.436566E-3,4.846998E0,-4.8089E0,-3.2187922E0,9.0206206E-2,5.948053E-2,-3.238228E-2,-8.866689E-2,1.4655628E-2,-5.307225E-2,2.2266591E-2,2.8373618E-2,-7.237141E-4],"categories":[],"categories_nodes":[],"categories_segments":[],"categories_sizes":[],"default_left":[0,0,0,0,0,0,0,0,0,0,0,0,0,0,0],"id":29,"left_children":[1,3,5,7,9,11,13,-1,-1,-1,-1,-1,-1,-1,-1],"loss_changes":[7.744709E2,6.350344E2,7.043696E2,4.910819E2,2.1667828E2,7.6239984E2,1.135082E3,0E0,0E0,0E0,0E0,0E0,0E0,0E0,0E0],"parents":[2147483647,0,0,1,1,2,2,3,3,4,4,5,5,6,6],"right_children":[2,4,6,8,10,12,14,-1,-1,-1,-1,-1,-1,-1,-1],"split_conditions":[4.4E-1,2.3971647E1,3.557819E1,2.4587095E1,7.6E-1,7.3669975E1,3.9074223E1,5.948053E-2,-3.238228E-2,-8.866689E-2,1.4655628E-2,-5.307225E-2,2.2266591E-2,2.8373618E-2,-7.237141E-4],"split_indices":[32,38,6,30,11,29,6,0,0,0,0,0,0,0,0],"split_type":[0,0,0,0,0,0,0,0,0,0,0,0,0,0,0],"sum_hessian":[2.664E3,5.9E1,2.605E3,5.2E1,7E0,6.5E1,2.54E3,4.6E1,6E0,4E0,3E0,4.7E1,1.8E1,1.41E2,2.399E3],"tree_param":{"num_deleted":"0","num_feature":"89","num_nodes":"15","size_leaf_vector":"1"}},{"base_weights":[-1.058768E-1,-1.7610751E-1,3.027731E0,-8.684889E-1,1.5540096E-1,-2.2028978E0,6.6773877E0,-9.564375E-3,9.884792E-2,9.865211E-3,-3.7788483E-3,-6.925487E-2,1.8413913E-4,-4.9661014E-2,7.924156E-2],"categories":[],"categories_nodes":[],"categories_segments":[],"categories_sizes":[],"default_left":[0,0,0,0,0,0,0,0,0,0,0,0,0,0,0],"id":30,"left_children":[1,3,5,7,9,11,13,-1,-1,-1,-1,-1,-1,-1,-1],"loss_changes":[5.9231616E2,6.040292E2,1.1410195E3,8.1522095E2,7.893126E2,2.6238608E2,5.474375E2,0E0,0E0,0E0,0E0,0E0,0E0,0E0,0E0],"parents":[2147483647,0,0,1,1,2,2,3,3,4,4,5,5,6,6],"right_children":[2,4,6,8,10,12,14,-1,-1,-1,-1,-1,-1,-1,-1],"split_conditions":[1.05E0,2.6407669E0,7.5166667E-1,3.055191E1,1.8598648E1,4.3868237E1,1.3919601E0,-9.564375E-3,9.884792E-2,9.865211E-3,-3.7788483E-3,-6.925487E-2,1.8413913E-4,-4.9661014E-2,7.924156E-2],"split_indices":[46,77,62,52,86,36,56,0,0,0,0,0,0,0,0],"split_type":[0,0,0,0,0,0,0,0,0,0,0,0,0,0,0],"sum_hessian":[2.688E3,2.63E3,5.8E1,8.51E2,1.779E3,2.4E1,3.4E1,8.45E2,6E0,6.95E2,1.084E3,7E0,1.7E1,3E0,3.1E1],"tree_param":{"num_deleted":"0","num_feature":"89","num_nodes":"15","size_leaf_vector":"1"}},{"base_weights":[1.0255604E-1,-2.0945194E-1,9.5956886E-1,4.1065283E0,-2.983791E-1,4.964113E0,6.978857E-1,7.307199E-2,-6.5362584E-3,-2.7417876E-2,-1.6121552E-3,7.2600834E-2,-3.5681944E-2,4.939659E-3,5.7847243E-2],"categories":[],"categories_nodes":[],"categories_segments":[],"categories_sizes":[],"default_left":[0,0,0,0,0,0,0,0,0,0,0,0,0,0,0],"id":31,"left_children":[1,3,5,7,9,11,13,-1,-1,-1,-1,-1,-1,-1,-1],"loss_changes":[7.2136487E2,7.6039716E2,7.510395E2,6.1420355E2,6.494073E2,8.878622E2,6.9939935E2,0E0,0E0,0E0,0E0,0E0,0E0,0E0,0E0],"parents":[2147483647,0,0,1,1,2,2,3,3,4,4,5,5,6,6],"right_children":[2,4,6,8,10,12,14,-1,-1,-1,-1,-1,-1,-1,-1],"split_conditions":[7.928052E1,2.5407362E1,5.1E-1,1.5955146E-1,7.118913E0,2.1713284E-1,3.1735275E1,7.307199E-2,-6.5362584E-3,-2.7417876E-2,-1.6121552E-3,7.2600834E-2,-3.5681944E-2,4.939659E-3,5.7847243E-2],"split_indices":[40,29,4,64,88,64,2,0,0,0,0,0,0,0,0],"split_type":[0,0,0,0,0,0,0,0,0,0,0,0,0,0,0],"sum_hessian":[2.696E3,1.977E3,7.19E2,3.9E1,1.938E3,4.3E1,6.76E2,2.3E1,1.6E1,1.02E2,1.836E3,3.4E1,9E0,6.51E2,2.5E1],"tree_param":{"num_deleted":"0","num_feature":"89","num_nodes":"15","size_leaf_vector":"1"}},{"base_weights":[-1.7020671E-1,9.130965E-1,-4.3411258E-1,5.399964E-1,4.2677875E0,-8.5985154E-1,5.8174616E-1,-2.9303543E-2,9.053151E-3,-3.7364043E-2,6.762455E-2,-1.4065531E-2,-1.5611991E-3,-2.363522E-3,2.2386456E-2],"categories":[],"categories_nodes":[],"categories_segments":[],"categories_sizes":[],"default_left":[0,0,0,0,0,0,0,0,0,0,0,0,0,0,0],"id":32,"left_children":[1,3,5,7,9,11,13,-1,-1,-1,-1,-1,-1,-1,-1],"loss_changes":[7.602922E2,6.497975E2,9.2516516E2,5.985115E2,1.0635928E3,5.795703E2,8.572095E2,0E0,0E0,0E0,0E0,0E0,0E0,0E0,0E0],"parents":[2147483647,0,0,1,1,2,2,3,3,4,4,5,5,6,6],"right_children":[2,4,6,8,10,12,14,-1,-1,-1,-1,-1,-1,-1,-1],"split_conditions":[4.2386967E1,5.7000546E1,8.8E-1,1.8541983E1,2.5577185E1,2.6996836E1,4.8675514E1,-2.9303543E-2,9.053151E-3,-3.7364043E-2,6.762455E-2,-1.4065531E-2,-1.5611991E-3,-2.363522E-3,2.2386456E-2],"split_indices":[34,41,32,38,54,83,71,0,0,0,0,0,0,0,0],"split_type":[0,0,0,0,0,0,0,0,0,0,0,0,0,0,0],"sum_hessian":[2.657E3,5.2E2,2.137E3,4.69E2,5.1E1,1.506E3,6.31E2,4.4E1,4.25E2,1.2E1,3.9E1,8.47E2,6.59E2,4.23E2,2.08E2],"tree_param":{"num_deleted":"0","num_feature":"89","num_nodes":"15","size_leaf_vector":"1"}},{"base_weights":[-1.1820678E-2,4.4841367E-1,-6.9745624E-1,2.0562823E0,1.1828853E-1,-1.1186244E0,1.0654889E0,5.5374898E-2,1.1924574E-2,3.1976905E-3,-2.5986044E-2,-3.0874629E-2,-7.929406E-3,2.5192015E-2,-1.7750438E-2],"categories":[],"categories_nodes":[],"categories_segments":[],"categories_sizes":[],"default_left":[0,0,0,0,0,0,0,0,0,0,0,0,0,0,0],"id":33,"left_children":[1,3,5,7,9,11,13,-1,-1,-1,-1,-1,-1,-1,-1],"loss_changes":[8.453638E2,8.506257E2,8.0011804E2,8.1434973E2,7.2942175E2,5.547709E2,8.633699E2,0E0,0E0,0E0,0E0,0E0,0E0,0E0,0E0],"parents":[2147483647,0,0,1,1,2,2,3,3,4,4,5,5,6,6],"right_children":[2,4,6,8,10,12,14,-1,-1,-1,-1,-1,-1,-1,-1],"split_conditions":[2.4644592E1,1.9392675E1,2.365152E1,6.1676712E1,2.7394043E1,1.3735005E-1,2.540745E1,5.5374898E-2,1.1924574E-2,3.1976905E-3,-2.5986044E-2,-3.0874629E-2,-7.929406E-3,2.5192015E-2,-1.7750438E-2],"split_indices":[35,10,45,51,55,65,28,0,0,0,0,0,0,0,0],"split_type":[0,0,0,0,0,0,0,0,0,0,0,0,0,0,0],"sum_hessian":[2.677E3,1.602E3,1.075E3,2.72E2,1.33E3,8.68E2,2.07E2,5.3E1,2.19E2,1.239E3,9.1E1,1.22E2,7.46E2,1.37E2,7E1],"tree_param":{"num_deleted":"0","num_feature":"89","num_nodes":"15","size_leaf_vector":"1"}},{"base_weights":[-4.9680855E-2,-9.385113E-2,-2.149031E-2,-1.0539408E-1,2.3400376E0,3.3649388E-3,-6.1318027E-3,-1.9815387E-2,3.91764E-2],"categories":[],"categories_nodes":[],"categories_segments":[],"categories_sizes":[],"default_left":[0,0,0,0,0,0,0,0,0],"id":34,"left_children":[1,-1,3,5,7,-1,-1,-1,-1],"loss_changes":[6.9930664E2,0E0,5.255187E2,5.748553E2,6.281763E2,0E0,0E0,0E0,0E0],"parents":[2147483647,0,0,2,2,3,3,4,4],"right_children":[2,-1,4,6,8,-1,-1,-1,-1],"split_conditions":[8.3376807E-1,-9.385113E-2,5.024315E1,2.6754871E1,2.63177E1,3.3649388E-3,-6.1318027E-3,-1.9815387E-2,3.91764E-2],"split_indices":[76,0,71,23,55,0,0,0,0],"split_type":[0,0,0,0,0,0,0,0,0],"sum_hessian":[2.657E3,7E0,2.65E3,2.56E3,9E1,1.369E3,1.191E3,2.4E1,6.6E1],"tree_param":{"num_deleted":"0","num_feature":"89","num_nodes":"9","size_leaf_vector":"1"}},{"base_weights":[8.284833E-2,1.5735807E-1,-4.5144224E0,-4.8590872E-1,6.178619E-1,-7.9111466E0,-9.1249734E-1,5.60996E-2,-5.975185E-3,4.0699773E-2,4.97375E-3,-1.02234155E-1,-4.1195075E-4,3.8360942E-2,-4.495068E-2],"categories":[],"categories_nodes":[],"categories_segments":[],"categories_sizes":[],"default_left":[0,0,0,0,0,0,0,0,0,0,0,0,0,0,0],"id":35,"left_children":[1,3,5,7,9,11,13,-1,-1,-1,-1,-1,-1,-1,-1],"loss_changes":[9.235169E2,7.8589374E2,5.1887524E2,7.5650916E2,6.410105E2,3.999225E2,3.9151114E2,0E0,0E0,0E0,0E0,0E0,0E0,0E0,0E0],"parents":[2147483647,0,0,1,1,2,2,3,3,4,4,5,5,6,6],"right_children":[2,4,6,8,10,12,14,-1,-1,-1,-1,-1,-1,-1,-1],"split_conditions":[8.414466E0,2.729926E0,4.8525772E1,1.6897886E1,2.1980354E1,2.8838156E1,-2.5881904E-1,5.60996E-2,-5.975185E-3,4.0699773E-2,4.97375E-3,-1.02234155E-1,-4.1195075E-4,3.8360942E-2,-4.495068E-2],"split_indices":[73,77,6,10,74,35,78,0,0,0,0,0,0,0,0],"split_type":[0,0,0,0,0,0,0,0,0,0,0,0,0,0,0],"sum_hessian":[2.693E3,2.651E3,4.2E1,1.106E3,1.545E3,2.1E1,2.1E1,1.9E1,1.087E3,5.1E1,1.494E3,1.6E1,5E0,9E0,1.2E1],"tree_param":{"num_deleted":"0","num_feature":"89","num_nodes":"15","size_leaf_vector":"1"}},{"base_weights":[-5.389474E-2,6.165705E0,-9.3939945E-2,1.0478628E1,3.837943E-3,2.6470384E-2,-1.9473764E0,4.6287823E-2,1.232445E-1,2.7174247E-2,-3.389105E-2,-1.4018832E-2,2.215313E-3,-2.730191E-2,6.4671904E-2],"categories":[],"categories_nodes":[],"categories_segments":[],"categories_sizes":[],"default_left":[0,0,0,0,0,0,0,0,0,0,0,0,0,0,0],"id":36,"left_children":[1,3,5,7,9,11,13,-1,-1,-1,-1,-1,-1,-1,-1],"loss_changes":[6.6184717E2,4.5174597E2,5.890048E2,5.0930542E1,8.2866005E1,6.909996E2,1.0781711E3,0E0,0E0,0E0,0E0,0E0,0E0,0E0,0E0],"parents":[2147483647,0,0,1,1,2,2,3,3,4,4,5,5,6,6],"right_children":[2,4,6,8,10,12,14,-1,-1,-1,-1,-1,-1,-1,-1],"split_conditions":[6.0833335E-1,0E0,3.5050352E0,6.5E-1,2.8386161E0,5.189596E0,6.943014E1,4.6287823E-2,1.232445E-1,2.7174247E-2,-3.389105E-2,-1.4018832E-2,2.215313E-3,-2.730191E-2,6.4671904E-2],"split_indices":[62,78,77,39,56,73,51,0,0,0,0,0,0,0,0],"split_type":[0,0,0,0,0,0,0,0,0,0,0,0,0,0,0],"sum_hessian":[2.654E3,1.6E1,2.638E3,9E0,7E0,2.478E3,1.6E2,3E0,6E0,4E0,3E0,2.97E2,2.181E3,1.47E2,1.3E1],"tree_param":{"num_deleted":"0","num_feature":"89","num_nodes":"15","size_leaf_vector":"1"}},{"base_weights":[-4.168185E-2,3.2870394E-1,-9.7736406E-1,3.3878539E0,1.7950141E-1,-1.6189625E0,5.305996E-1,6.543519E-2,2.9574188E-3,-3.8038135E-2,2.7307349E-3,-2.3551475E-2,6.206457E-4,1.0389151E-2,-6.237744E-2],"categories":[],"categories_nodes":[],"categories_segments":[],"categories_sizes":[],"default_left":[0,0,0,0,0,0,0,0,0,0,0,0,0,0,0],"id":37,"left_children":[1,3,5,7,9,11,13,-1,-1,-1,-1,-1,-1,-1,-1],"loss_changes":[9.263387E2,8.73461E2,7.3422943E2,8.664976E2,6.82011E2,6.5852124E2,7.8746375E2,0E0,0E0,0E0,0E0,0E0,0E0,0E0,0E0],"parents":[2147483647,0,0,1,1,2,2,3,3,4,4,5,5,6,6],"right_children":[2,4,6,8,10,12,14,-1,-1,-1,-1,-1,-1,-1,-1],"split_conditions":[2.5689129E1,3.1591791E1,7.1174207E0,1.6585091E-1,3.5078274E1,2.2461372E1,3.6993473E0,6.543519E-2,2.9574188E-3,-3.8038135E-2,2.7307349E-3,-2.3551475E-2,6.206457E-4,1.0389151E-2,-6.237744E-2],"split_indices":[35,8,72,65,8,45,77,0,0,0,0,0,0,0,0],"split_type":[0,0,0,0,0,0,0,0,0,0,0,0,0,0,0],"sum_hessian":[2.671E3,1.914E3,7.57E2,8.8E1,1.826E3,5.31E2,2.26E2,4.3E1,4.5E1,4.1E1,1.785E3,3.69E2,1.62E2,2.11E2,1.5E1],"tree_param":{"num_deleted":"0","num_feature":"89","num_nodes":"15","size_leaf_vector":"1"}},{"base_weights":[3.8802305E-3,3.6977901E0,-7.6885685E-2,9.2778425E0,1.8382785E0,-1.8361378E0,9.1680005E-2,1.30674215E-2,1.13329835E-1,4.5852065E-2,-2.0174272E-2,-3.9317027E-2,-7.832025E-3,-1.1184102E-2,3.286682E-3],"categories":[],"categories_nodes":[],"categories_segments":[],"categories_sizes":[],"default_left":[0,0,0,0,0,0,0,0,0,0,0,0,0,0,0],"id":38,"left_children":[1,3,5,7,9,11,13,-1,-1,-1,-1,-1,-1,-1,-1],"loss_changes":[7.9476917E2,5.743865E2,7.73273E2,2.1453516E2,4.7526953E2,5.0000128E2,6.8289716E2,0E0,0E0,0E0,0E0,0E0,0E0,0E0,0E0],"parents":[2147483647,0,0,1,1,2,2,3,3,4,4,5,5,6,6],"right_children":[2,4,6,8,10,12,14,-1,-1,-1,-1,-1,-1,-1,-1],"split_conditions":[4.3E-1,2.583627E0,1.8541983E1,1.3321662E-1,1.5727894E-1,2.5349665E1,4.5696953E1,1.30674215E-2,1.13329835E-1,4.5852065E-2,-2.0174272E-2,-3.9317027E-2,-7.832025E-3,-1.1184102E-2,3.286682E-3],"split_indices":[32,77,45,64,64,83,15,0,0,0,0,0,0,0,0],"split_type":[0,0,0,0,0,0,0,0,0,0,0,0,0,0,0],"sum_hessian":[2.662E3,5.6E1,2.606E3,1.3E1,4.3E1,2.27E2,2.379E3,3E0,1E1,2.5E1,1.8E1,7.5E1,1.52E2,3.89E2,1.99E3],"tree_param":{"num_deleted":"0","num_feature":"89","num_nodes":"15","size_leaf_vector":"1"}},{"base_weights":[-1.679722E-2,4.7298536E-2,-3.6442437E0,2.6840353E-1,-1.0730793E0,-6.529355E0,1.0461651E0,-1.0933698E-3,1.1627217E-2,-1.607226E-2,2.4275744E-2,3.766672E-2,-7.915545E-2,-2.9927555E-2,6.46891E-2],"categories":[],"categories_nodes":[],"categories_segments":[],"categories_sizes":[],"default_left":[0,0,0,0,0,0,0,0,0,0,0,0,0,0,0],"id":39,"left_children":[1,3,5,7,9,11,13,-1,-1,-1,-1,-1,-1,-1,-1],"loss_changes":[6.025901E2,6.3123376E2,6.1578656E2,7.190086E2,7.8924396E2,4.2943823E2,4.1359656E2,0E0,0E0,0E0,0E0,0E0,0E0,0E0,0E0],"parents":[2147483647,0,0,1,1,2,2,3,3,4,4,5,5,6,6],"right_children":[2,4,6,8,10,12,14,-1,-1,-1,-1,-1,-1,-1,-1],"split_conditions":[8.414466E0,2.7706125E1,7.0054886E1,5.1474487E1,9.659258E-1,1.813455E1,6.606537E1,-1.0933698E-3,1.1627217E-2,-1.607226E-2,2.4275744E-2,3.766672E-2,-7.915545E-2,-2.9927555E-2,6.46891E-2],"split_indices":[73,54,33,6,79,17,51,0,0,0,0,0,0,0,0],"split_type":[0,0,0,0,0,0,0,0,0,0,0,0,0,0,0],"sum_hessian":[2.59E3,2.546E3,4.4E1,2.127E3,4.19E2,2.7E1,1.7E1,1.496E3,6.31E2,3.64E2,5.5E1,3E0,2.4E1,1E1,7E0],"tree_param":{"num_deleted":"0","num_feature":"89","num_nodes":"15","size_leaf_vector":"1"}},{"base_weights":[-7.955848E-2,-1.2949849E0,1.4939925E-1,-7.5714844E-1,-4.678564E0,-2.2019039E-1,1.0390276E0,-3.9689954E-2,-2.2801224E-3,-8.007506E-2,-2.51425E-2,-1.1855792E-3,-6.7409016E-2,1.1843866E-2,-6.1746757E-2],"categories":[],"categories_nodes":[],"categories_segments":[],"categories_sizes":[],"default_left":[0,0,0,0,0,0,0,0,0,0,0,0,0,0,0],"id":40,"left_children":[1,3,5,7,9,11,13,-1,-1,-1,-1,-1,-1,-1,-1],"loss_changes":[7.320732E2,7.553194E2,7.281862E2,6.1261615E2,3.9054504E2,1.0363514E3,6.888887E2,0E0,0E0,0E0,0E0,0E0,0E0,0E0,0E0],"parents":[2147483647,0,0,1,1,2,2,3,3,4,4,5,5,6,6],"right_children":[2,4,6,8,10,12,14,-1,-1,-1,-1,-1,-1,-1,-1],"split_conditions":[4.5145927E1,5.4949703E1,5.1474487E1,1.8895146E0,4.879909E1,8.414466E0,3.252049E1,-3.9689954E-2,-2.2801224E-3,-8.007506E-2,-2.51425E-2,-1.1855792E-3,-6.7409016E-2,1.1843866E-2,-6.1746757E-2],"split_indices":[15,6,6,56,70,73,30,0,0,0,0,0,0,0,0],"split_type":[0,0,0,0,0,0,0,0,0,0,0,0,0,0,0],"sum_hessian":[2.629E3,4.16E2,2.213E3,3.6E2,5.6E1,1.564E3,6.49E2,5E1,3.1E2,2.1E1,3.5E1,1.541E3,2.3E1,6.37E2,1.2E1],"tree_param":{"num_deleted":"0","num_feature":"89","num_nodes":"15","size_leaf_vector":"1"}},{"base_weights":[-8.876764E-2,3.977357E0,-1.6400297E-1,1.6082309E-1,6.6977086E0,-6.000689E-1,4.6120602E-1,2.7592987E-2,-3.6103997E-2,8.276297E-2,7.796139E-3,-9.356466E-3,1.3576497E-2,3.272445E-2,1.2443532E-3],"categories":[],"categories_nodes":[],"categories_segments":[],"categories_sizes":[],"default_left":[0,0,0,0,0,0,0,0,0,0,0,0,0,0,0],"id":41,"left_children":[1,3,5,7,9,11,13,-1,-1,-1,-1,-1,-1,-1,-1],"loss_changes":[8.082711E2,4.9727386E2,7.0721246E2,2.1575021E2,2.551305E2,1.00511566E3,1.0088208E3,0E0,0E0,0E0,0E0,0E0,0E0,0E0,0E0],"parents":[2147483647,0,0,1,1,2,2,3,3,4,4,5,5,6,6],"right_children":[2,4,6,8,10,12,14,-1,-1,-1,-1,-1,-1,-1,-1],"split_conditions":[2.3262255E1,2.6259907E1,7.0729576E1,1.7247558E-1,2.7017048E1,2.399343E1,2.2821167E1,2.7592987E-2,-3.6103997E-2,8.276297E-2,7.796139E-3,-9.356466E-3,1.3576497E-2,3.272445E-2,1.2443532E-3],"split_indices":[29,9,36,65,55,45,9,0,0,0,0,0,0,0,0],"split_type":[0,0,0,0,0,0,0,0,0,0,0,0,0,0,0],"sum_hessian":[2.639E3,4.7E1,2.592E3,2E1,2.7E1,1.527E3,1.065E3,1.2E1,8E0,2.1E1,6E0,1.304E3,2.23E2,1.13E2,9.52E2],"tree_param":{"num_deleted":"0","num_feature":"89","num_nodes":"15","size_leaf_vector":"1"}},{"base_weights":[-5.8276895E-2,-2.0366075E0,1.0459232E-1,-5.259917E-1,-4.068066E0,4.2445264E0,3.597867E-2,6.194361E-2,-1.1433763E-2,1.4646714E-2,-5.0734118E-2,6.791139E-2,-2.2634959E-2,7.0612687E-3,-3.5142638E-3],"categories":[],"categories_nodes":[],"categories_segments":[],"categories_sizes":[],"default_left":[0,0,0,0,0,0,0,0,0,0,0,0,0,0,0],"id":42,"left_children":[1,3,5,7,9,11,13,-1,-1,-1,-1,-1,-1,-1,-1],"loss_changes":[8.556783E2,6.177485E2,6.969208E2,4.9252045E2,4.8579016E2,6.78308E2,6.272275E2,0E0,0E0,0E0,0E0,0E0,0E0,0E0,0E0],"parents":[2147483647,0,0,1,1,2,2,3,3,4,4,5,5,6,6],"right_children":[2,4,6,8,10,12,14,-1,-1,-1,-1,-1,-1,-1,-1],"split_conditions":[4.9692364E0,2.2219603E0,1.6757338E1,2.1344961E1,2.001523E1,5.1155437E1,2.023922E1,6.194361E-2,-1.1433763E-2,1.4646714E-2,-5.0734118E-2,6.791139E-2,-2.2634959E-2,7.0612687E-3,-3.5142638E-3],"split_indices":[73,76,31,21,3,20,85,0,0,0,0,0,0,0,0],"split_type":[0,0,0,0,0,0,0,0,0,0,0,0,0,0,0],"sum_hessian":[2.654E3,2.01E2,2.453E3,1.16E2,8.5E1,3.9E1,2.414E3,9E0,1.07E2,1.3E1,7.2E1,2.8E1,1.1E1,8.84E2,1.53E3],"tree_param":{"num_deleted":"0","num_feature":"89","num_nodes":"15","size_leaf_vector":"1"}},{"base_weights":[-9.800805E-3,-1.7336584E0,1.5110606E-1,-1.0690529E0,-5.608338E0,1.2961996E0,-9.410163E-2,-2.0104637E-2,2.6291754E-2,3.543018E-2,-6.6415735E-2,-8.582975E-3,2.0148003E-2,-1.5538459E-2,1.648161E-3],"categories":[],"categories_nodes":[],"categories_segments":[],"categories_sizes":[],"default_left":[0,0,0,0,0,0,0,0,0,0,0,0,0,0,0],"id":43,"left_children":[1,3,5,7,9,11,13,-1,-1,-1,-1,-1,-1,-1,-1],"loss_changes":[7.3753937E2,5.7855975E2,6.8299286E2,6.841885E2,3.355631E2,6.659172E2,7.5767523E2,0E0,0E0,0E0,0E0,0E0,0E0,0E0,0E0],"parents":[2147483647,0,0,1,1,2,2,3,3,4,4,5,5,6,6],"right_children":[2,4,6,8,10,12,14,-1,-1,-1,-1,-1,-1,-1,-1],"split_conditions":[1.8541983E1,2.7211239E1,2.1247879E1,2.6065804E1,2.3904603E0,1.5130304E1,2.2455425E1,-2.0104637E-2,2.6291754E-2,3.543018E-2,-6.6415735E-2,-8.582975E-3,2.0148003E-2,-1.5538459E-2,1.648161E-3],"split_indices":[45,55,42,21,77,88,42,0,0,0,0,0,0,0,0],"split_type":[0,0,0,0,0,0,0,0,0,0,0,0,0,0,0],"sum_hessian":[2.657E3,2.26E2,2.431E3,1.94E2,3.2E1,4.28E2,2.003E3,1.55E2,3.9E1,3E0,2.9E1,1.07E2,3.21E2,3.01E2,1.702E3],"tree_param":{"num_deleted":"0","num_feature":"89","num_nodes":"15","size_leaf_vector":"1"}},{"base_weights":[-1.4435419E-2,1.2990949E-1,-2.1360447E0,4.2669353E0,5.567178E-2,-1.3274015E0,-6.0740933E0,6.464072E-2,-7.459974E-3,-2.65824E-2,1.614303E-3,-3.700699E-2,4.6916427E-3,-7.891878E-2,1.9064318E-2],"categories":[],"categories_nodes":[],"categories_segments":[],"categories_sizes":[],"default_left":[0,0,0,0,0,0,0,0,0,0,0,0,0,0,0],"id":44,"left_children":[1,3,5,7,9,11,13,-1,-1,-1,-1,-1,-1,-1,-1],"loss_changes":[7.9804175E2,7.491433E2,5.205603E2,4.7842847E2,6.887013E2,5.9440234E2,4.212379E2,0E0,0E0,0E0,0E0,0E0,0E0,0E0,0E0],"parents":[2147483647,0,0,1,1,2,2,3,3,4,4,5,5,6,6],"right_children":[2,4,6,8,10,12,14,-1,-1,-1,-1,-1,-1,-1,-1],"split_conditions":[2.7394043E1,2.3262255E1,5.382702E1,4.8337776E1,4.5180373E0,7.5E-1,2.285371E1,6.464072E-2,-7.459974E-3,-2.65824E-2,1.614303E-3,-3.700699E-2,4.6916427E-3,-7.891878E-2,1.9064318E-2],"split_indices":[55,29,41,71,73,39,59,0,0,0,0,0,0,0,0],"split_type":[0,0,0,0,0,0,0,0,0,0,0,0,0,0,0],"sum_hessian":[2.604E3,2.439E3,1.65E2,4.2E1,2.397E3,1.38E2,2.7E1,2.9E1,1.3E1,8.9E1,2.308E3,5.9E1,7.9E1,2.2E1,5E0],"tree_param":{"num_deleted":"0","num_feature":"89","num_nodes":"15","size_leaf_vector":"1"}},{"base_weights":[-4.7975324E-2,3.3401632E0,-1.2135551E-1,5.4956007E0,-2.3919053E0,-2.919794E-1,1.3798189E0,6.972696E-2,-5.3103627E-3,5.4653425E-2,-5.466433E-2,2.1765955E-2,-3.867516E-3,-2.0148005E-2,1.9949956E-2],"categories":[],"categories_nodes":[],"categories_segments":[],"categories_sizes":[],"default_left":[0,0,0,0,0,0,0,0,0,0,0,0,0,0,0],"id":45,"left_children":[1,3,5,7,9,11,13,-1,-1,-1,-1,-1,-1,-1,-1],"loss_changes":[6.567681E2,7.0503143E2,6.62515E2,3.6868115E2,4.1639316E2,5.440791E2,5.5532825E2,0E0,0E0,0E0,0E0,0E0,0E0,0E0,0E0],"parents":[2147483647,0,0,1,1,2,2,3,3,4,4,5,5,6,6],"right_children":[2,4,6,8,10,12,14,-1,-1,-1,-1,-1,-1,-1,-1],"split_conditions":[4.3E-1,2.8355236E1,2.4407925E1,3.1906786E0,6.1E-1,3.6751015E1,2.0842476E1,6.972696E-2,-5.3103627E-3,5.4653425E-2,-5.466433E-2,2.1765955E-2,-3.867516E-3,-2.0148005E-2,1.9949956E-2],"split_indices":[32,23,45,56,18,34,21,0,0,0,0,0,0,0,0],"split_type":[0,0,0,0,0,0,0,0,0,0,0,0,0,0,0],"sum_hessian":[2.639E3,5.5E1,2.584E3,4E1,1.5E1,2.321E3,2.63E2,3.2E1,8E0,4E0,1.1E1,8.5E1,2.236E3,4E1,2.23E2],"tree_param":{"num_deleted":"0","num_feature":"89","num_nodes":"15","size_leaf_vector":"1"}},{"base_weights":[-2.2010611E-2,-3.092227E-1,1.1040502E0,-1.3274246E0,4.546843E-2,3.8464504E-1,3.330202E0,-3.7012985E-3,-2.6897201E-2,5.0823264E-2,-5.568964E-4,3.9772432E-2,-6.9174555E-4,8.719269E-2,1.9895855E-2],"categories":[],"categories_nodes":[],"categories_segments":[],"categories_sizes":[],"default_left":[0,0,0,0,0,0,0,0,0,0,0,0,0,0,0],"id":46,"left_children":[1,3,5,7,9,11,13,-1,-1,-1,-1,-1,-1,-1,-1],"loss_changes":[8.609574E2,7.660536E2,8.6513324E2,7.136613E2,8.022656E2,6.6873566E2,9.363093E2,0E0,0E0,0E0,0E0,0E0,0E0,0E0,0E0],"parents":[2147483647,0,0,1,1,2,2,3,3,4,4,5,5,6,6],"right_children":[2,4,6,8,10,12,14,-1,-1,-1,-1,-1,-1,-1,-1],"split_conditions":[2.3428339E1,1.5310868E1,3.4234545E0,4.979563E1,2.3262255E1,2.3622112E1,2.2821167E1,-3.7012985E-3,-2.6897201E-2,5.0823264E-2,-5.568964E-4,3.9772432E-2,-6.9174555E-4,8.719269E-2,1.9895855E-2],"split_indices":[38,87,56,41,29,38,9,0,0,0,0,0,0,0,0],"split_type":[0,0,0,0,0,0,0,0,0,0,0,0,0,0,0],"sum_hessian":[2.66E3,2.12E3,5.4E2,5.47E2,1.573E3,4.09E2,1.31E2,3.22E2,2.25E2,3E1,1.543E3,4.5E1,3.64E2,2.5E1,1.06E2],"tree_param":{"num_deleted":"0","num_feature":"89","num_nodes":"15","size_leaf_vector":"1"}},{"base_weights":[1.0289472E-2,-7.548356E-1,3.5135868E-1,8.194205E0,-8.869715E-1,1.1450522E0,-1.7521288E-1,1.4348347E-1,3.3235908E-2,-1.3154794E-2,1.6769473E-2,1.047395E-2,8.8738E-2,1.4915991E-2,-6.0834615E-3],"categories":[],"categories_nodes":[],"categories_segments":[],"categories_sizes":[],"default_left":[0,0,0,0,0,0,0,0,0,0,0,0,0,0,0],"id":47,"left_children":[1,3,5,7,9,11,13,-1,-1,-1,-1,-1,-1,-1,-1],"loss_changes":[6.9233276E2,9.7454443E2,7.671139E2,3.120053E2,8.888246E2,5.431956E2,7.9794214E2,0E0,0E0,0E0,0E0,0E0,0E0,0E0,0E0],"parents":[2147483647,0,0,1,1,2,2,3,3,4,4,5,5,6,6],"right_children":[2,4,6,8,10,12,14,-1,-1,-1,-1,-1,-1,-1,-1],"split_conditions":[2.6151814E0,4.3E-1,1.8598648E1,4.540144E1,2.4053318E1,5.0677605E1,4.262473E1,1.4348347E-1,3.3235908E-2,-1.3154794E-2,1.6769473E-2,1.047395E-2,8.8738E-2,1.4915991E-2,-6.0834615E-3],"split_indices":[77,32,86,48,45,71,34,0,0,0,0,0,0,0,0],"split_type":[0,0,0,0,0,0,0,0,0,0,0,0,0,0,0],"sum_hessian":[2.651E3,8.17E2,1.834E3,1.1E1,8.06E2,7.31E2,1.103E3,4E0,7E0,6.91E2,1.15E2,7.23E2,8E0,2.27E2,8.76E2],"tree_param":{"num_deleted":"0","num_feature":"89","num_nodes":"15","size_leaf_vector":"1"}},{"base_weights":[1.7970292E-2,-2.6164904E0,1.164384E-1,-3.7248588E0,2.4549518E0,3.076781E0,3.6762863E-2,-6.0058407E-2,-1.8172985E-2,-2.4285669E-2,7.608311E-2,4.6431523E-2,-2.7672742E-2,-3.907898E-3,6.478691E-3],"categories":[],"categories_nodes":[],"categories_segments":[],"categories_sizes":[],"default_left":[0,0,0,0,0,0,0,0,0,0,0,0,0,0,0],"id":48,"left_children":[1,3,5,7,9,11,13,-1,-1,-1,-1,-1,-1,-1,-1],"loss_changes":[6.9837787E2,5.54384E2,6.119615E2,3.3717444E2,4.7147476E2,6.353182E2,6.607693E2,0E0,0E0,0E0,0E0,0E0,0E0,0E0,0E0],"parents":[2147483647,0,0,1,1,2,2,3,3,4,4,5,5,6,6],"right_children":[2,4,6,8,10,12,14,-1,-1,-1,-1,-1,-1,-1,-1],"split_conditions":[4.5180373E0,8.160524E1,4.4E-1,7E-1,2.682932E1,2.4253927E1,2.2020887E1,-6.0058407E-2,-1.8172985E-2,-2.4285669E-2,7.608311E-2,4.6431523E-2,-2.7672742E-2,-3.907898E-3,6.478691E-3],"split_indices":[73,19,32,39,30,30,38,0,0,0,0,0,0,0,0],"split_type":[0,0,0,0,0,0,0,0,0,0,0,0,0,0,0],"sum_hessian":[2.69E3,9.6E1,2.594E3,7.9E1,1.7E1,6.7E1,2.527E3,3.5E1,4.4E1,9E0,8E0,5.3E1,1.4E1,1.487E3,1.04E3],"tree_param":{"num_deleted":"0","num_feature":"89","num_nodes":"15","size_leaf_vector":"1"}},{"base_weights":[3.03388E-2,1.1370823E0,-2.041034E-1,5.2387446E-1,3.1895847E0,-1.6302041E0,4.5744512E-2,1.2995636E-3,6.2899806E-2,-2.574715E-3,5.8940694E-2,-1.3393292E-2,-1.1791287E-1,1.6901058E-3,-2.9532375E-2],"categories":[],"categories_nodes":[],"categories_segments":[],"categories_sizes":[],"default_left":[0,0,0,0,0,0,0,0,0,0,0,0,0,0,0],"id":49,"left_children":[1,3,5,7,9,11,13,-1,-1,-1,-1,-1,-1,-1,-1],"loss_changes":[6.917126E2,5.8484155E2,7.8395276E2,8.1687695E2,9.9902625E2,9.536455E2,6.928961E2,0E0,0E0,0E0,0E0,0E0,0E0,0E0,0E0],"parents":[2147483647,0,0,1,1,2,2,3,3,4,4,5,5,6,6],"right_children":[2,4,6,8,10,12,14,-1,-1,-1,-1,-1,-1,-1,-1],"split_conditions":[2.1247879E1,2.0996222E1,2.2455425E1,2.1139698E1,6.554997E1,3.6993473E0,2.527198E1,1.2995636E-3,6.2899806E-2,-2.574715E-3,5.8940694E-2,-1.3393292E-2,-1.1791287E-1,1.6901058E-3,-2.9532375E-2],"split_indices":[42,53,42,42,22,77,24,0,0,0,0,0,0,0,0],"split_type":[0,0,0,0,0,0,0,0,0,0,0,0,0,0,0],"sum_hessian":[2.664E3,4.65E2,2.199E3,3.59E2,1.06E2,3.27E2,1.872E3,3.37E2,2.2E1,4.7E1,5.9E1,3.19E2,8E0,1.799E3,7.3E1],"tree_param":{"num_deleted":"0","num_feature":"89","num_nodes":"15","size_leaf_vector":"1"}},{"base_weights":[2.793744E-3,-8.1891817E-1,3.6090615E-1,-3.1222768E0,-2.9767668E-1,-9.544298E-1,6.4634925E-1,-4.2016152E-2,6.5200375E-3,-1.4217984E-2,9.683692E-3,-8.83265E-2,-6.0458854E-3,2.3888466E-3,1.8897815E-2],"categories":[],"categories_nodes":[],"categories_segments":[],"categories_sizes":[],"default_left":[0,0,0,0,0,0,0,0,0,0,0,0,0,0,0],"id":50,"left_children":[1,3,5,7,9,11,13,-1,-1,-1,-1,-1,-1,-1,-1],"loss_changes":[7.833353E2,9.691603E2,6.967079E2,6.097245E2,9.4068207E2,9.0693774E2,7.716902E2,0E0,0E0,0E0,0E0,0E0,0E0,0E0,0E0],"parents":[2147483647,0,0,1,1,2,2,3,3,4,4,5,5,6,6],"right_children":[2,4,6,8,10,12,14,-1,-1,-1,-1,-1,-1,-1,-1],"split_conditions":[2.6105435E0,1.745397E1,4.1450912E1,6.838354E1,6.842295E1,1.8862953E1,7.986146E1,-4.2016152E-2,6.5200375E-3,-1.4217984E-2,9.683692E-3,-8.83265E-2,-6.0458854E-3,2.3888466E-3,1.8897815E-2],"split_indices":[77,84,13,51,43,21,33,0,0,0,0,0,0,0,0],"split_type":[0,0,0,0,0,0,0,0,0,0,0,0,0,0,0],"sum_hessian":[2.66E3,8.07E2,1.853E3,1.48E2,6.59E2,3.3E2,1.523E3,1.15E2,3.3E1,3.49E2,3.1E2,1.3E1,3.17E2,1.148E3,3.75E2],"tree_param":{"num_deleted":"0","num_feature":"89","num_nodes":"15","size_leaf_vector":"1"}},{"base_weights":[-2.5662666E-2,-9.517337E-1,4.016106E-1,1.9695235E0,-1.3683211E0,-6.2644905E-1,8.3032715E-1,6.2215097E-2,3.977683E-3,7.928911E-2,-1.50904795E-2,9.100009E-3,-1.4667585E-2,1.2688501E-2,-2.8600495E-3],"categories":[],"categories_nodes":[],"categories_segments":[],"categories_sizes":[],"default_left":[0,0,0,0,0,0,0,0,0,0,0,0,0,0,0],"id":51,"left_children":[1,3,5,7,9,11,13,-1,-1,-1,-1,-1,-1,-1,-1],"loss_changes":[1.0402434E3,1.01277075E3,7.934226E2,6.9256573E2,9.631511E2,6.856143E2,6.2207513E2,0E0,0E0,0E0,0E0,0E0,0E0,0E0,0E0],"parents":[2147483647,0,0,1,1,2,2,3,3,4,4,5,5,6,6],"right_children":[2,4,6,8,10,12,14,-1,-1,-1,-1,-1,-1,-1,-1],"split_conditions":[2.6183746E0,5.6359673E1,5.4366875E1,2.2079353E1,4.3E-1,2.0316914E1,2.8300821E1,6.2215097E-2,3.977683E-3,7.928911E-2,-1.50904795E-2,9.100009E-3,-1.4667585E-2,1.2688501E-2,-2.8600495E-3],"split_indices":[77,50,19,21,32,85,23,0,0,0,0,0,0,0,0],"split_type":[0,0,0,0,0,0,0,0,0,0,0,0,0,0,0],"sum_hessian":[2.627E3,8.29E2,1.798E3,1.03E2,7.26E2,5.29E2,1.269E3,2.7E1,7.6E1,1E1,7.16E2,1.87E2,3.42E2,9.11E2,3.58E2],"tree_param":{"num_deleted":"0","num_feature":"89","num_nodes":"15","size_leaf_vector":"1"}},{"base_weights":[-1.3873015E-1,1.0698208E0,-3.9494362E-1,-1.6757479E0,1.6232313E0,-2.4114716E0,-2.1793035E-1,2.9356878E-3,-6.483369E-2,3.8683034E-2,8.667797E-3,1.0750347E-2,-3.3339947E-2,-1.811721E-2,6.8190024E-4],"categories":[],"categories_nodes":[],"categories_segments":[],"categories_sizes":[],"default_left":[0,0,0,0,0,0,0,0,0,0,0,0,0,0,0],"id":52,"left_children":[1,3,5,7,9,11,13,-1,-1,-1,-1,-1,-1,-1,-1],"loss_changes":[8.284186E2,7.138118E2,7.8726807E2,7.4985394E2,6.589794E2,5.7610034E2,9.25836E2,0E0,0E0,0E0,0E0,0E0,0E0,0E0,0E0],"parents":[2147483647,0,0,1,1,2,2,3,3,4,4,5,5,6,6],"right_children":[2,4,6,8,10,12,14,-1,-1,-1,-1,-1,-1,-1,-1],"split_conditions":[2.3775703E1,5.3005323E0,1.8541983E1,5.3387764E1,2.6518962E0,1.9607119E1,4.5145927E1,2.9356878E-3,-6.483369E-2,3.8683034E-2,8.667797E-3,1.0750347E-2,-3.3339947E-2,-1.811721E-2,6.8190024E-4],"split_indices":[9,73,45,12,77,17,15,0,0,0,0,0,0,0,0],"split_type":[0,0,0,0,0,0,0,0,0,0,0,0,0,0,0],"sum_hessian":[2.673E3,4.67E2,2.206E3,7.8E1,3.89E2,1.77E2,2.029E3,5.6E1,2.2E1,9.7E1,2.92E2,3.7E1,1.4E2,3.08E2,1.721E3],"tree_param":{"num_deleted":"0","num_feature":"89","num_nodes":"15","size_leaf_vector":"1"}},{"base_weights":[1.9129358E-1,3.1549025E-1,-1.940643E0,-5.6840296E0,3.6058164E-1,2.0348269E-1,-5.001994E0,-7.8698084E-2,4.4800926E-2,5.5713323E-4,1.0956556E-2,4.8104156E-2,-1.3122786E-2,-7.77538E-2,-3.1187505E-2],"categories":[],"categories_nodes":[],"categories_segments":[],"categories_sizes":[],"default_left":[0,0,0,0,0,0,0,0,0,0,0,0,0,0,0],"id":53,"left_children":[1,3,5,7,9,11,13,-1,-1,-1,-1,-1,-1,-1,-1],"loss_changes":[7.118097E2,6.889168E2,9.724783E2,4.573714E2,5.648969E2,6.2081757E2,2.943512E2,0E0,0E0,0E0,0E0,0E0,0E0,0E0,0E0],"parents":[2147483647,0,0,1,1,2,2,3,3,4,4,5,5,6,6],"right_children":[2,4,6,8,10,12,14,-1,-1,-1,-1,-1,-1,-1,-1],"split_conditions":[2.8433231E1,9.2344165E-1,2.239298E1,2.0572187E1,7.774592E1,5.2625282E1,2.2967726E1,-7.8698084E-2,4.4800926E-2,5.5713323E-4,1.0956556E-2,4.8104156E-2,-1.3122786E-2,-7.77538E-2,-3.1187505E-2],"split_indices":[54,76,85,53,40,33,85,0,0,0,0,0,0,0,0],"split_type":[0,0,0,0,0,0,0,0,0,0,0,0,0,0,0],"sum_hessian":[2.685E3,2.538E3,1.47E2,1.8E1,2.52E3,8.7E1,6E1,1.5E1,3E0,1.782E3,7.38E2,2.1E1,6.6E1,2.3E1,3.7E1],"tree_param":{"num_deleted":"0","num_feature":"89","num_nodes":"15","size_leaf_vector":"1"}},{"base_weights":[-1.3250559E-2,-3.3330017E-1,7.7200454E-1,9.574316E-1,-6.718422E-1,-8.878805E-1,1.5470417E0,2.3814308E-2,-7.7421796E-3,-8.789765E-3,1.4539793E-2,1.6308378E-2,-2.0383047E-2,5.3836744E-2,1.0985989E-2],"categories":[],"categories_nodes":[],"categories_segments":[],"categories_sizes":[],"default_left":[0,0,0,0,0,0,0,0,0,0,0,0,0,0,0],"id":54,"left_children":[1,3,5,7,9,11,13,-1,-1,-1,-1,-1,-1,-1,-1],"loss_changes":[6.71786E2,8.304435E2,9.9710315E2,9.7586145E2,6.639755E2,7.190301E2,9.025149E2,0E0,0E0,0E0,0E0,0E0,0E0,0E0,0E0],"parents":[2147483647,0,0,1,1,2,2,3,3,4,4,5,5,6,6],"right_children":[2,4,6,8,10,12,14,-1,-1,-1,-1,-1,-1,-1,-1],"split_conditions":[5.1474487E1,4.110114E1,2.3834986E1,2.682932E1,1.8544893E-1,5.567298E1,5.204049E1,2.3814308E-2,-7.7421796E-3,-8.789765E-3,1.4539793E-2,1.6308378E-2,-2.0383047E-2,5.3836744E-2,1.0985989E-2],"split_indices":[6,6,75,23,65,82,6,0,0,0,0,0,0,0,0],"split_type":[0,0,0,0,0,0,0,0,0,0,0,0,0,0,0],"sum_hessian":[2.671E3,1.898E3,7.73E2,3.94E2,1.504E3,2.46E2,5.27E2,2.16E2,1.78E2,1.371E3,1.33E2,7.7E1,1.69E2,5.4E1,4.73E2],"tree_param":{"num_deleted":"0","num_feature":"89","num_nodes":"15","size_leaf_vector":"1"}},{"base_weights":[-4.392065E-2,-5.629144E-1,3.973097E-1,-2.5295755E-2,-2.532701E0,1.4199221E0,-2.9535165E-1,1.9758474E-3,-4.8484642E-2,-1.33978175E-2,-5.496894E-2,2.276998E-2,1.8276653E-3,-2.4777833E-2,1.3232914E-3],"categories":[],"categories_nodes":[],"categories_segments":[],"categories_sizes":[],"default_left":[0,0,0,0,0,0,0,0,0,0,0,0,0,0,0],"id":55,"left_children":[1,3,5,7,9,11,13,-1,-1,-1,-1,-1,-1,-1,-1],"loss_changes":[6.0202454E2,1.2792007E3,1.00694794E3,1.0221988E3,9.084707E2,6.082169E2,7.918377E2,0E0,0E0,0E0,0E0,0E0,0E0,0E0,0E0],"parents":[2147483647,0,0,1,1,2,2,3,3,4,4,5,5,6,6],"right_children":[2,4,6,8,10,12,14,-1,-1,-1,-1,-1,-1,-1,-1],"split_conditions":[2.1305542E1,2.0734991E1,2.254526E1,8.241152E0,2.0275242E1,4.9333805E1,1.2365776E1,1.9758474E-3,-4.8484642E-2,-1.33978175E-2,-5.496894E-2,2.276998E-2,1.8276653E-3,-2.4777833E-2,1.3232914E-3],"split_indices":[24,24,24,73,52,48,87,0,0,0,0,0,0,0,0],"split_type":[0,0,0,0,0,0,0,0,0,0,0,0,0,0,0],"sum_hessian":[2.627E3,1.207E3,1.42E3,9.49E2,2.58E2,5.73E2,8.47E2,9.08E2,4.1E1,1.85E2,7.3E1,3.38E2,2.35E2,1.38E2,7.09E2],"tree_param":{"num_deleted":"0","num_feature":"89","num_nodes":"15","size_leaf_vector":"1"}},{"base_weights":[8.6543076E-2,-5.339989E-1,5.1196814E-1,5.6912317E0,-6.6392374E-1,1.2086251E0,2.9635074E-2,1.09893695E-1,-6.0593914E-3,-8.715475E-3,2.4957838E-2,-7.767365E-2,1.3347347E-2,6.3784276E-3,-1.0986441E-2],"categories":[],"categories_nodes":[],"categories_segments":[],"categories_sizes":[],"default_left":[0,0,0,0,0,0,0,0,0,0,0,0,0,0,0],"id":56,"left_children":[1,3,5,7,9,11,13,-1,-1,-1,-1,-1,-1,-1,-1],"loss_changes":[6.9510583E2,8.700163E2,5.2482837E2,7.40651E2,6.910072E2,7.336901E2,6.347755E2,0E0,0E0,0E0,0E0,0E0,0E0,0E0,0E0],"parents":[2147483647,0,0,1,1,2,2,3,3,4,4,5,5,6,6],"right_children":[2,4,6,8,10,12,14,-1,-1,-1,-1,-1,-1,-1,-1],"split_conditions":[2.729926E0,1.6897886E1,2.319028E1,4.976994E1,2.3028925E1,1.6499588E1,2.1558172E1,1.09893695E-1,-6.0593914E-3,-8.715475E-3,2.4957838E-2,-7.767365E-2,1.3347347E-2,6.3784276E-3,-1.0986441E-2],"split_indices":[77,10,35,27,69,1,85,0,0,0,0,0,0,0,0],"split_type":[0,0,0,0,0,0,0,0,0,0,0,0,0,0,0],"sum_hessian":[2.631E3,1.07E3,1.561E3,2.1E1,1.049E3,6.38E2,9.23E2,1.1E1,1E1,9.85E2,6.4E1,8E0,6.3E2,6E2,3.23E2],"tree_param":{"num_deleted":"0","num_feature":"89","num_nodes":"15","size_leaf_vector":"1"}},{"base_weights":[-5.6374453E-2,-2.492987E-1,1.0175349E0,-4.1815687E-2,-1.3063335E0,-2.0214956E0,1.6735369E0,3.4859052E-3,-9.552362E-3,-1.659617E-3,-2.9257702E-2,-3.3037454E-2,3.526665E-2,4.294575E-2,7.541732E-3],"categories":[],"categories_nodes":[],"categories_segments":[],"categories_sizes":[],"default_left":[0,0,0,0,0,0,0,0,0,0,0,0,0,0,0],"id":57,"left_children":[1,3,5,7,9,11,13,-1,-1,-1,-1,-1,-1,-1,-1],"loss_changes":[5.482532E2,4.9187292E2,8.0680786E2,6.693241E2,6.791222E2,5.2386847E2,7.967772E2,0E0,0E0,0E0,0E0,0E0,0E0,0E0,0E0],"parents":[2147483647,0,0,1,1,2,2,3,3,4,4,5,5,6,6],"right_children":[2,4,6,8,10,12,14,-1,-1,-1,-1,-1,-1,-1,-1],"split_conditions":[2.4842136E0,2.1211166E1,4.1913105E1,7.0710677E-1,2.722701E1,8.6596176E1,7.5E-1,3.4859052E-3,-9.552362E-3,-1.659617E-3,-2.9257702E-2,-3.3037454E-2,3.526665E-2,4.294575E-2,7.541732E-3],"split_indices":[61,69,13,79,23,12,63,0,0,0,0,0,0,0,0],"split_type":[0,0,0,0,0,0,0,0,0,0,0,0,0,0,0],"sum_hessian":[2.644E3,2.242E3,4.02E2,1.875E3,3.67E2,7.1E1,3.31E2,1.314E3,5.61E2,2.16E2,1.51E2,5.8E1,1.3E1,8.5E1,2.46E2],"tree_param":{"num_deleted":"0","num_feature":"89","num_nodes":"15","size_leaf_vector":"1"}},{"base_weights":[-4.5860544E-2,-1.0881765E-1,4.890985E0,-9.38683E-1,2.7066404E-1,2.7385225E0,1.41206455E1,-3.1523064E-2,-3.432353E-3,5.6004613E-3,-9.531969E-3,-3.48151E-2,6.387513E-2,2.530794E-2,1.5932457E-1],"categories":[],"categories_nodes":[],"categories_segments":[],"categories_sizes":[],"default_left":[0,0,0,0,0,0,0,0,0,0,0,0,0,0,0],"id":58,"left_children":[1,3,5,7,9,11,13,-1,-1,-1,-1,-1,-1,-1,-1],"loss_changes":[8.1454236E2,8.149486E2,6.1692487E2,1.0692126E3,6.295281E2,6.5774976E2,8.566992E1,0E0,0E0,0E0,0E0,0E0,0E0,0E0,0E0],"parents":[2147483647,0,0,1,1,2,2,3,3,4,4,5,5,6,6],"right_children":[2,4,6,8,10,12,14,-1,-1,-1,-1,-1,-1,-1,-1],"split_conditions":[2.0192507E-1,2.6183746E0,8.508054E1,1.7820793E1,2.9190111E1,5.898023E0,2.156452E1,-3.1523064E-2,-3.432353E-3,5.6004613E-3,-9.531969E-3,-3.48151E-2,6.387513E-2,2.530794E-2,1.5932457E-1],"split_indices":[65,77,15,84,9,72,1,0,0,0,0,0,0,0,0],"split_type":[0,0,0,0,0,0,0,0,0,0,0,0,0,0,0],"sum_hessian":[2.618E3,2.586E3,3.2E1,8.11E2,1.775E3,2.7E1,5E0,1.71E2,6.4E2,1.436E3,3.39E2,1E1,1.7E1,1E0,4E0],"tree_param":{"num_deleted":"0","num_feature":"89","num_nodes":"15","size_leaf_vector":"1"}},{"base_weights":[9.4300106E-2,-1.4788238E0,3.0271393E-1,-4.8516545E0,-6.364464E-1,1.6781038E-1,2.2916412E0,-8.8053875E-2,-2.8998798E-2,2.003846E-3,-3.3489056E-2,-5.138166E-2,2.237909E-3,5.2211914E-2,4.1984203E-3],"categories":[],"categories_nodes":[],"categories_segments":[],"categories_sizes":[],"default_left":[0,0,0,0,0,0,0,0,0,0,0,0,0,0,0],"id":59,"left_children":[1,3,5,7,9,11,13,-1,-1,-1,-1,-1,-1,-1,-1],"loss_changes":[8.7157367E2,8.8052423E2,6.293469E2,4.5290686E2,5.681387E2,6.54322E2,8.148538E2,0E0,0E0,0E0,0E0,0E0,0E0,0E0,0E0],"parents":[2147483647,0,0,1,1,2,2,3,3,4,4,5,5,6,6],"right_children":[2,4,6,8,10,12,14,-1,-1,-1,-1,-1,-1,-1,-1],"split_conditions":[5.189596E0,5.1296085E1,5.2044125E1,6.0785152E1,2.5435509E1,1.9978596E1,5.9483906E1,-8.8053875E-2,-2.8998798E-2,2.003846E-3,-3.3489056E-2,-5.138166E-2,2.237909E-3,5.2211914E-2,4.1984203E-3],"split_indices":[73,36,70,43,35,2,36,0,0,0,0,0,0,0,0],"split_type":[0,0,0,0,0,0,0,0,0,0,0,0,0,0,0],"sum_hessian":[2.656E3,3.1E2,2.346E3,6.1E1,2.49E2,2.198E3,1.48E2,1.9E1,4.2E1,1.91E2,5.8E1,2.2E1,2.176E3,5.7E1,9.1E1],"tree_param":{"num_deleted":"0","num_feature":"89","num_nodes":"15","size_leaf_vector":"1"}},{"base_weights":[-9.648506E-2,-1.7322394E0,4.46467E-2,2.7775714E0,-2.6599402E0,6.645852E0,7.1825483E-3,4.4891533E-2,-5.1990874E-2,-6.760444E-2,-1.9140618E-2,1.1107752E-1,1.9109588E-2,-4.914988E-4,4.437224E-2],"categories":[],"categories_nodes":[],"categories_segments":[],"categories_sizes":[],"default_left":[0,0,0,0,0,0,0,0,0,0,0,0,0,0,0],"id":60,"left_children":[1,3,5,7,9,11,13,-1,-1,-1,-1,-1,-1,-1,-1],"loss_changes":[6.220058E2,9.0271185E2,6.135248E2,5.284896E2,5.31469E2,2.745462E2,6.161198E2,0E0,0E0,0E0,0E0,0E0,0E0,0E0,0E0],"parents":[2147483647,0,0,1,1,2,2,3,3,4,4,5,5,6,6],"right_children":[2,4,6,8,10,12,14,-1,-1,-1,-1,-1,-1,-1,-1],"split_conditions":[1.8434391E1,6.199759E1,2.0683176E1,2.2967493E1,4.30816E1,4.820901E1,2.0192507E-1,4.4891533E-2,-5.1990874E-2,-6.760444E-2,-1.9140618E-2,1.1107752E-1,1.9109588E-2,-4.914988E-4,4.437224E-2],"split_indices":[45,67,44,31,82,34,65,0,0,0,0,0,0,0,0],"split_type":[0,0,0,0,0,0,0,0,0,0,0,0,0,0,0],"sum_hessian":[2.693E3,2.13E2,2.48E3,3.6E1,1.77E2,1.3E1,2.467E3,3E1,6E0,2.6E1,1.51E2,6E0,7E0,2.437E3,3E1],"tree_param":{"num_deleted":"0","num_feature":"89","num_nodes":"15","size_leaf_vector":"1"}},{"base_weights":[-1.2384155E-1,-3.175777E-1,1.2125579E0,3.7805536E0,-3.9832258E-1,9.447712E0,8.2636636E-1,6.675059E-2,4.5106746E-3,8.163346E-2,-4.3584714E-3,-6.1652303E-2,1.1003295E-1,1.8337261E-3,5.1239345E-2],"categories":[],"categories_nodes":[],"categories_segments":[],"categories_sizes":[],"default_left":[0,0,0,0,0,0,0,0,0,0,0,0,0,0,0],"id":61,"left_children":[1,3,5,7,9,11,13,-1,-1,-1,-1,-1,-1,-1,-1],"loss_changes":[6.890827E2,7.705248E2,1.0639696E3,4.3066394E2,7.360608E2,4.321466E2,8.916095E2,0E0,0E0,0E0,0E0,0E0,0E0,0E0,0E0],"parents":[2147483647,0,0,1,1,2,2,3,3,4,4,5,5,6,6],"right_children":[2,4,6,8,10,12,14,-1,-1,-1,-1,-1,-1,-1,-1],"split_conditions":[2.4145817E1,4.3E-1,2.111414E1,6.669462E1,6.825E-1,4.3879528E1,4.76E0,6.675059E-2,4.5106746E-3,8.163346E-2,-4.3584714E-3,-6.1652303E-2,1.1003295E-1,1.8337261E-3,5.1239345E-2],"split_indices":[38,32,9,36,63,6,7,0,0,0,0,0,0,0,0],"split_type":[0,0,0,0,0,0,0,0,0,0,0,0,0,0,0],"sum_hessian":[2.659E3,2.323E3,3.36E2,4.4E1,2.279E3,1.4E1,3.22E2,2.3E1,2.1E1,9E0,2.27E3,1E0,1.3E1,2.81E2,4.1E1],"tree_param":{"num_deleted":"0","num_feature":"89","num_nodes":"15","size_leaf_vector":"1"}},{"base_weights":[-6.22748E-2,6.5314627E-1,-4.2640272E-1,-6.3819754E-1,1.3979659E0,-1.4610289E0,-5.0208706E-2,-3.160439E-2,4.673635E-3,1.2180928E-2,7.583666E-2,1.0469958E-2,-2.005299E-2,-1.4605455E-3,6.429595E-2],"categories":[],"categories_nodes":[],"categories_segments":[],"categories_sizes":[],"default_left":[0,0,0,0,0,0,0,0,0,0,0,0,0,0,0],"id":62,"left_children":[1,3,5,7,9,11,13,-1,-1,-1,-1,-1,-1,-1,-1],"loss_changes":[6.9738934E2,8.6941394E2,6.9040326E2,9.2446783E2,6.2830554E2,6.47765E2,8.095621E2,0E0,0E0,0E0,0E0,0E0,0E0,0E0,0E0],"parents":[2147483647,0,0,1,1,2,2,3,3,4,4,5,5,6,6],"right_children":[2,4,6,8,10,12,14,-1,-1,-1,-1,-1,-1,-1,-1],"split_conditions":[2.0090397E1,1.7820793E1,1.5310868E1,5.6398544E0,7.229493E1,4.8834892E1,2.6102661E1,-3.160439E-2,4.673635E-3,1.2180928E-2,7.583666E-2,1.0469958E-2,-2.005299E-2,-1.4605455E-3,6.429595E-2],"split_indices":[85,84,88,73,67,43,17,0,0,0,0,0,0,0,0],"split_type":[0,0,0,0,0,0,0,0,0,0,0,0,0,0,0],"sum_hessian":[2.675E3,9.02E2,1.773E3,3.3E2,5.72E2,4.72E2,1.301E3,1E2,2.3E2,5.57E2,1.5E1,8.4E1,3.88E2,1.283E3,1.8E1],"tree_param":{"num_deleted":"0","num_feature":"89","num_nodes":"15","size_leaf_vector":"1"}},{"base_weights":[-9.094049E-2,2.6273882E0,-1.9308169E-1,5.6586876E0,5.43801E-1,-7.9429317E-1,3.197666E-1,6.778744E-2,-3.3134457E-2,1.2761135E-1,-1.2040976E-3,-1.1843015E-2,7.237241E-3,4.083199E-3,-5.7178468E-2],"categories":[],"categories_nodes":[],"categories_segments":[],"categories_sizes":[],"default_left":[0,0,0,0,0,0,0,0,0,0,0,0,0,0,0],"id":63,"left_children":[1,3,5,7,9,11,13,-1,-1,-1,-1,-1,-1,-1,-1],"loss_changes":[7.3601105E2,6.0325653E2,7.877296E2,4.1438367E2,4.721999E2,6.970955E2,7.396179E2,0E0,0E0,0E0,0E0,0E0,0E0,0E0,0E0],"parents":[2147483647,0,0,1,1,2,2,3,3,4,4,5,5,6,6],"right_children":[2,4,6,8,10,12,14,-1,-1,-1,-1,-1,-1,-1,-1],"split_conditions":[3.6751015E1,5.8001007E1,2.3941088E1,3.1462452E1,4.9E-1,2.3428339E1,2.5970123E1,6.778744E-2,-3.3134457E-2,1.2761135E-1,-1.2040976E-3,-1.1843015E-2,7.237241E-3,4.083199E-3,-5.7178468E-2],"split_indices":[34,82,75,87,4,38,31,0,0,0,0,0,0,0,0],"split_type":[0,0,0,0,0,0,0,0,0,0,0,0,0,0,0],"sum_hessian":[2.648E3,9.5E1,2.553E3,3.8E1,5.7E1,1.175E3,1.378E3,3.4E1,4E0,2E0,5.5E1,9.35E2,2.4E2,1.359E3,1.9E1],"tree_param":{"num_deleted":"0","num_feature":"89","num_nodes":"15","size_leaf_vector":"1"}},{"base_weights":[3.271146E-2,3.183893E0,-4.430838E-2,3.2919598E-1,8.134271E0,-1.4722458E-1,2.4301074E0,-2.5084252E-2,6.6339515E-2,4.84234E-2,1.2717013E-1,2.4520556E-2,-2.5423686E-3,-3.7227124E-5,4.9117327E-2],"categories":[],"categories_nodes":[],"categories_segments":[],"categories_sizes":[],"default_left":[0,0,0,0,0,0,0,0,0,0,0,0,0,0,0],"id":64,"left_children":[1,3,5,7,9,11,13,-1,-1,-1,-1,-1,-1,-1,-1],"loss_changes":[6.408783E2,8.8762744E2,6.568647E2,7.501516E2,2.853994E2,6.89335E2,6.221233E2,0E0,0E0,0E0,0E0,0E0,0E0,0E0,0E0],"parents":[2147483647,0,0,1,1,2,2,3,3,4,4,5,5,6,6],"right_children":[2,4,6,8,10,12,14,-1,-1,-1,-1,-1,-1,-1,-1],"split_conditions":[1.8281559E1,3.7009033E1,5.024315E1,8.1523506E1,6.066657E1,1.7570934E1,2.3886667E1,-2.5084252E-2,6.6339515E-2,4.84234E-2,1.2717013E-1,2.4520556E-2,-2.5423686E-3,-3.7227124E-5,4.9117327E-2],"split_indices":[3,6,71,29,82,10,49,0,0,0,0,0,0,0,0],"split_type":[0,0,0,0,0,0,0,0,0,0,0,0,0,0,0],"sum_hessian":[2.639E3,6.2E1,2.577E3,4E1,2.2E1,2.475E3,1.02E2,2.8E1,1.2E1,1.4E1,8E0,9.7E1,2.378E3,5.2E1,5E1],"tree_param":{"num_deleted":"0","num_feature":"89","num_nodes":"15","size_leaf_vector":"1"}},{"base_weights":[-1.1517748E-2,2.666927E0,-1.1802452E-1,1.09612255E1,1.9403871E0,-3.0986214E-1,1.4057244E0,2.157671E-2,1.5811823E-1,-8.02533E-2,2.5832083E-2,-7.7336393E-3,3.1194815E-3,9.307206E-3,6.346535E-2],"categories":[],"categories_nodes":[],"categories_segments":[],"categories_sizes":[],"default_left":[0,0,0,0,0,0,0,0,0,0,0,0,0,0,0],"id":65,"left_children":[1,3,5,7,9,11,13,-1,-1,-1,-1,-1,-1,-1,-1],"loss_changes":[7.608514E2,5.933972E2,7.502168E2,3.0750336E2,6.2931775E2,6.5707227E2,6.676545E2,0E0,0E0,0E0,0E0,0E0,0E0,0E0,0E0],"parents":[2147483647,0,0,1,1,2,2,3,3,4,4,5,5,6,6],"right_children":[2,4,6,8,10,12,14,-1,-1,-1,-1,-1,-1,-1,-1],"split_conditions":[3.6751015E1,5.7104945E0,2.4341434E1,4.7658497E1,2.0753252E1,6.946016E1,2.2497627E1,2.157671E-2,1.5811823E-1,-8.02533E-2,2.5832083E-2,-7.7336393E-3,3.1194815E-3,9.307206E-3,6.346535E-2],"split_indices":[34,73,45,70,59,36,53,0,0,0,0,0,0,0,0],"split_type":[0,0,0,0,0,0,0,0,0,0,0,0,0,0,0],"sum_hessian":[2.665E3,1.01E2,2.564E3,7E0,9.4E1,2.278E3,2.86E2,3E0,4E0,5E0,8.9E1,1.305E3,9.73E2,2.62E2,2.4E1],"tree_param":{"num_deleted":"0","num_feature":"89","num_nodes":"15","size_leaf_vector":"1"}},{"base_weights":[2.3921004E-2,-1.7947827E-1,1.3402998E0,9.382754E-2,-1.2998188E0,1.8273598E0,-3.0939996E0,-1.8859842E-4,5.5389035E-2,-4.1370347E-2,-3.8849076E-3,9.346472E-3,4.0442917E-2,4.2170312E-2,-6.068128E-2],"categories":[],"categories_nodes":[],"categories_segments":[],"categories_sizes":[],"default_left":[0,0,0,0,0,0,0,0,0,0,0,0,0,0,0],"id":66,"left_children":[1,3,5,7,9,11,13,-1,-1,-1,-1,-1,-1,-1,-1],"loss_changes":[7.202216E2,7.135577E2,7.831709E2,1.1499749E3,1.1800278E3,6.394221E2,8.0837146E2,0E0,0E0,0E0,0E0,0E0,0E0,0E0,0E0],"parents":[2147483647,0,0,1,1,2,2,3,3,4,4,5,5,6,6],"right_children":[2,4,6,8,10,12,14,-1,-1,-1,-1,-1,-1,-1,-1],"split_conditions":[2.4098024E1,8.1666666E-1,3.3884194E0,8.1916666E-1,2.1477045E1,3.1906786E0,4.262468E1,-1.8859842E-4,5.5389035E-2,-4.1370347E-2,-3.8849076E-3,9.346472E-3,4.0442917E-2,4.2170312E-2,-6.068128E-2],"split_indices":[45,62,77,63,59,56,6,0,0,0,0,0,0,0,0],"split_type":[0,0,0,0,0,0,0,0,0,0,0,0,0,0,0],"sum_hessian":[2.688E3,2.329E3,3.59E2,1.873E3,4.56E2,3.24E2,3.5E1,1.836E3,3.7E1,1.1E2,3.46E2,2.32E2,9.2E1,1E1,2.5E1],"tree_param":{"num_deleted":"0","num_feature":"89","num_nodes":"15","size_leaf_vector":"1"}},{"base_weights":[-1.0599038E-1,3.3247132E0,-1.710983E-1,6.6141753E0,-1.1625195E0,-6.850794E-2,-2.3570836E0,8.88975E-2,1.4016087E-2,-7.183791E-2,1.0310188E-2,-1.731581E-3,2.0596636E-2,-1.1178713E-3,-5.204733E-2],"categories":[],"categories_nodes":[],"categories_segments":[],"categories_sizes":[],"default_left":[0,0,0,0,0,0,0,0,0,0,0,0,0,0,0],"id":67,"left_children":[1,3,5,7,9,11,13,-1,-1,-1,-1,-1,-1,-1,-1],"loss_changes":[5.9963654E2,7.457182E2,5.903179E2,3.3152588E2,2.9798022E2,5.607039E2,7.538886E2,0E0,0E0,0E0,0E0,0E0,0E0,0E0,0E0],"parents":[2147483647,0,0,1,1,2,2,3,3,4,4,5,5,6,6],"right_children":[2,4,6,8,10,12,14,-1,-1,-1,-1,-1,-1,-1,-1],"split_conditions":[1.6757338E1,4.8255836E1,2.8591412E1,8.4E-1,2.0105482E1,2.8838156E1,2.22756E1,8.88975E-2,1.4016087E-2,-7.183791E-2,1.0310188E-2,-1.731581E-3,2.0596636E-2,-1.1178713E-3,-5.204733E-2],"split_indices":[31,70,54,39,10,49,85,0,0,0,0,0,0,0,0],"split_type":[0,0,0,0,0,0,0,0,0,0,0,0,0,0,0],"sum_hessian":[2.681E3,4.9E1,2.632E3,2.8E1,2.1E1,2.515E3,1.17E2,1.9E1,9E0,5E0,1.6E1,2.398E3,1.17E2,6.6E1,5.1E1],"tree_param":{"num_deleted":"0","num_feature":"89","num_nodes":"15","size_leaf_vector":"1"}},{"base_weights":[5.295701E-2,-1.5503275E-1,1.4867072E0,5.103015E0,-2.369447E-1,-1.1729392E0,2.2310183E0,6.128696E-2,-8.222376E-2,-6.1638687E-2,-1.8246574E-3,-2.6766606E-2,4.1148543E-2,4.7639564E-2,8.86668E-3],"categories":[],"categories_nodes":[],"categories_segments":[],"categories_sizes":[],"default_left":[0,0,0,0,0,0,0,0,0,0,0,0,0,0,0],"id":68,"left_children":[1,3,5,7,9,11,13,-1,-1,-1,-1,-1,-1,-1,-1],"loss_changes":[8.003155E2,1.0107628E3,6.7568243E2,5.424261E2,7.444345E2,6.073667E2,9.015475E2,0E0,0E0,0E0,0E0,0E0,0E0,0E0,0E0],"parents":[2147483647,0,0,1,1,2,2,3,3,4,4,5,5,6,6],"right_children":[2,4,6,8,10,12,14,-1,-1,-1,-1,-1,-1,-1,-1],"split_conditions":[2.510113E0,2.3262255E1,4.2619846E1,7.95E-1,9.2344165E-1,9.2E-1,2.3676105E1,6.128696E-2,-8.222376E-2,-6.1638687E-2,-1.8246574E-3,-2.6766606E-2,4.1148543E-2,4.7639564E-2,8.86668E-3],"split_indices":[61,29,13,63,76,11,74,0,0,0,0,0,0,0,0],"split_type":[0,0,0,0,0,0,0,0,0,0,0,0,0,0,0],"sum_hessian":[2.682E3,2.343E3,3.39E2,3.5E1,2.308E3,7.4E1,2.65E2,3.3E1,2E0,2E1,2.288E3,5.8E1,1.6E1,9.1E1,1.74E2],"tree_param":{"num_deleted":"0","num_feature":"89","num_nodes":"15","size_leaf_vector":"1"}},{"base_weights":[1.0900155E-2,3.4903824E0,-7.185351E-2,7.943988E0,1.4879079E0,-8.646116E-1,2.7581033E-1,9.293506E-2,5.599174E-3,9.1012985E-2,2.7846547E-3,-1.1493321E-2,2.2976682E-2,1.33195305E-2,-2.2713456E-3],"categories":[],"categories_nodes":[],"categories_segments":[],"categories_sizes":[],"default_left":[0,0,0,0,0,0,0,0,0,0,0,0,0,0,0],"id":69,"left_children":[1,3,5,7,9,11,13,-1,-1,-1,-1,-1,-1,-1,-1],"loss_changes":[7.684745E2,5.4111053E2,7.1876245E2,1.8413013E2,4.0261572E2,7.1843134E2,9.6333484E2,0E0,0E0,0E0,0E0,0E0,0E0,0E0,0E0],"parents":[2147483647,0,0,1,1,2,2,3,3,4,4,5,5,6,6],"right_children":[2,4,6,8,10,12,14,-1,-1,-1,-1,-1,-1,-1,-1],"split_conditions":[4.4E-1,1.4923587E1,2.6183746E0,9.1E-1,4.2273743E1,9.324739E1,1.690316E1,9.293506E-2,5.599174E-3,9.1012985E-2,2.7846547E-3,-1.1493321E-2,2.2976682E-2,1.33195305E-2,-2.2713456E-3],"split_indices":[32,52,77,11,48,43,86,0,0,0,0,0,0,0,0],"split_type":[0,0,0,0,0,0,0,0,0,0,0,0,0,0,0],"sum_hessian":[2.667E3,6.1E1,2.606E3,1.8E1,4.3E1,7.94E2,1.812E3,1.5E1,3E0,5E0,3.8E1,7.29E2,6.5E1,5.84E2,1.228E3],"tree_param":{"num_deleted":"0","num_feature":"89","num_nodes":"15","size_leaf_vector":"1"}},{"base_weights":[-4.621257E-2,1.1277729E-1,-2.3572721E0,-1.0608951E-1,1.3981621E0,1.0525537E0,-3.3906975E0,-4.6624867E-3,9.298027E-3,-2.0959263E-3,3.5397563E-2,-2.8214894E-2,3.644801E-2,2.7072433E-2,-4.6236876E-2],"categories":[],"categories_nodes":[],"categories_segments":[],"categories_sizes":[],"default_left":[0,0,0,0,0,0,0,0,0,0,0,0,0,0,0],"id":70,"left_children":[1,3,5,7,9,11,13,-1,-1,-1,-1,-1,-1,-1,-1],"loss_changes":[9.875638E2,7.076885E2,6.131864E2,8.025686E2,1.260938E3,4.220254E2,1.0125049E3,0E0,0E0,0E0,0E0,0E0,0E0,0E0,0E0],"parents":[2147483647,0,0,1,1,2,2,3,3,4,4,5,5,6,6],"right_children":[2,4,6,8,10,12,14,-1,-1,-1,-1,-1,-1,-1,-1],"split_conditions":[3.4940944E0,2.9541515E1,1.1E0,3.16E0,2.2493377E0,2.0546703E1,4.0571495E1,-4.6624867E-3,9.298027E-3,-2.0959263E-3,3.5397563E-2,-2.8214894E-2,3.644801E-2,2.7072433E-2,-4.6236876E-2],"split_indices":[77,44,7,7,61,10,41,0,0,0,0,0,0,0,0],"split_type":[0,0,0,0,0,0,0,0,0,0,0,0,0,0,0],"sum_hessian":[2.686E3,2.514E3,1.72E2,2.149E3,3.65E2,4E1,1.32E2,1.595E3,5.54E2,2.09E2,1.56E2,1.6E1,2.4E1,2.2E1,1.1E2],"tree_param":{"num_deleted":"0","num_feature":"89","num_nodes":"15","size_leaf_vector":"1"}},{"base_weights":[-5.429737E-2,-4.0679944E-1,7.6565385E-1,-3.6157231E0,-3.006706E-1,-2.8620284E0,1.1194955E0,3.073149E-2,-4.415841E-2,-2.3167586E-2,-1.0070737E-3,-9.1628246E-2,-1.0431729E-2,7.054814E-2,9.353046E-3],"categories":[],"categories_nodes":[],"categories_segments":[],"categories_sizes":[],"default_left":[0,0,0,0,0,0,0,0,0,0,0,0,0,0,0],"id":71,"left_children":[1,3,5,7,9,11,13,-1,-1,-1,-1,-1,-1,-1,-1],"loss_changes":[7.75791E2,6.3814264E2,1.0390896E3,3.346839E2,7.326815E2,8.1557874E2,7.980201E2,0E0,0E0,0E0,0E0,0E0,0E0,0E0,0E0],"parents":[2147483647,0,0,1,1,2,2,3,3,4,4,5,5,6,6],"right_children":[2,4,6,8,10,12,14,-1,-1,-1,-1,-1,-1,-1,-1],"split_conditions":[7.729451E1,4.5180373E0,1.6719426E0,2.2583298E1,1.8677248E1,6.4E-1,1.718567E1,3.073149E-2,-4.415841E-2,-2.3167586E-2,-1.0070737E-3,-9.1628246E-2,-1.0431729E-2,7.054814E-2,9.353046E-3],"split_indices":[40,73,56,16,17,18,10,0,0,0,0,0,0,0,0],"split_type":[0,0,0,0,0,0,0,0,0,0,0,0,0,0,0],"sum_hessian":[2.682E3,1.876E3,8.06E2,5.9E1,1.817E3,7.1E1,7.35E2,6E0,5.3E1,1.63E2,1.654E3,1.5E1,5.6E1,2.1E1,7.14E2],"tree_param":{"num_deleted":"0","num_feature":"89","num_nodes":"15","size_leaf_vector":"1"}},{"base_weights":[9.596342E-2,1.6245343E-1,-3.3268948E0,3.6353912E0,9.632905E-2,-1.5066057E0,-8.030044E0,5.005105E-2,-3.0083472E-2,3.6641277E-4,4.5577902E-2,3.7822112E-2,-3.801391E-2,-1.0809995E-1,1.6223345E-2],"categories":[],"categories_nodes":[],"categories_segments":[],"categories_sizes":[],"default_left":[0,0,0,0,0,0,0,0,0,0,0,0,0,0,0],"id":72,"left_children":[1,3,5,7,9,11,13,-1,-1,-1,-1,-1,-1,-1,-1],"loss_changes":[6.091051E2,6.0224054E2,4.2451758E2,4.60958E2,6.858081E2,4.755722E2,3.9320135E2,0E0,0E0,0E0,0E0,0E0,0E0,0E0,0E0],"parents":[2147483647,0,0,1,1,2,2,3,3,4,4,5,5,6,6],"right_children":[2,4,6,8,10,12,14,-1,-1,-1,-1,-1,-1,-1,-1],"split_conditions":[8.36755E0,4.3E-1,2.8158997E1,2.4253927E1,2.0192507E-1,1.789184E1,2.7170164E1,5.005105E-2,-3.0083472E-2,3.6641277E-4,4.5577902E-2,3.7822112E-2,-3.801391E-2,-1.0809995E-1,1.6223345E-2],"split_indices":[73,32,2,30,65,87,87,0,0,0,0,0,0,0,0],"split_type":[0,0,0,0,0,0,0,0,0,0,0,0,0,0,0],"sum_hessian":[2.673E3,2.623E3,5E1,4.8E1,2.575E3,3.7E1,1.3E1,4E1,8E0,2.542E3,3.3E1,1.1E1,2.6E1,1E1,3E0],"tree_param":{"num_deleted":"0","num_feature":"89","num_nodes":"15","size_leaf_vector":"1"}},{"base_weights":[1.5417233E-1,-1.1252323E0,3.1083518E-1,-3.0974536E0,1.10957496E-1,-1.4545887E0,4.5611823E-1,-3.7310585E-2,5.526593E-2,3.0915884E-2,-1.5487932E-2,-2.0462137E-2,3.3511415E-2,5.6409207E-3,-1.6973635E-2],"categories":[],"categories_nodes":[],"categories_segments":[],"categories_sizes":[],"default_left":[0,0,0,0,0,0,0,0,0,0,0,0,0,0,0],"id":73,"left_children":[1,3,5,7,9,11,13,-1,-1,-1,-1,-1,-1,-1,-1],"loss_changes":[5.290978E2,7.0249915E2,6.0366235E2,6.271505E2,8.8537274E2,5.157883E2,5.0622305E2,0E0,0E0,0E0,0E0,0E0,0E0,0E0,0E0],"parents":[2147483647,0,0,1,1,2,2,3,3,4,4,5,5,6,6],"right_children":[2,4,6,8,10,12,14,-1,-1,-1,-1,-1,-1,-1,-1],"split_conditions":[3.975897E1,2.3102104E1,1.6076351E1,2.2086746E1,2.0752285E1,8.4166664E-1,2.8522062E1,-3.7310585E-2,5.526593E-2,3.0915884E-2,-1.5487932E-2,-2.0462137E-2,3.3511415E-2,5.6409207E-3,-1.6973635E-2],"split_indices":[13,42,69,59,31,62,54,0,0,0,0,0,0,0,0],"split_type":[0,0,0,0,0,0,0,0,0,0,0,0,0,0,0],"sum_hessian":[2.637E3,2.87E2,2.35E3,1.1E2,1.77E2,1.78E2,2.172E3,1.03E2,7E0,6.3E1,1.14E2,1.59E2,1.9E1,2.069E3,1.03E2],"tree_param":{"num_deleted":"0","num_feature":"89","num_nodes":"15","size_leaf_vector":"1"}},{"base_weights":[-7.9292014E-2,-3.6634144E-1,7.658376E-1,4.6933327E0,-4.4618E-1,1.6741792E0,-5.4061615E-1,1.1525394E-1,2.220423E-2,-5.7153646E-3,2.5068425E-2,2.0279927E-2,-5.5088267E-2,-1.4999246E-3,-6.1746247E-2],"categories":[],"categories_nodes":[],"categories_segments":[],"categories_sizes":[],"default_left":[0,0,0,0,0,0,0,0,0,0,0,0,0,0,0],"id":74,"left_children":[1,3,5,7,9,11,13,-1,-1,-1,-1,-1,-1,-1,-1],"loss_changes":[6.467935E2,8.059685E2,8.031185E2,4.9815594E2,7.2698694E2,1.0252081E3,6.108899E2,0E0,0E0,0E0,0E0,0E0,0E0,0E0,0E0],"parents":[2147483647,0,0,1,1,2,2,3,3,4,4,5,5,6,6],"right_children":[2,4,6,8,10,12,14,-1,-1,-1,-1,-1,-1,-1,-1],"split_conditions":[2.306109E1,4.3E-1,2.111531E1,2.583627E0,5.024315E1,9.653789E1,3.4723217E0,1.1525394E-1,2.220423E-2,-5.7153646E-3,2.5068425E-2,2.0279927E-2,-5.5088267E-2,-1.4999246E-3,-6.1746247E-2],"split_indices":[38,32,85,77,71,5,57,0,0,0,0,0,0,0,0],"split_type":[0,0,0,0,0,0,0,0,0,0,0,0,0,0,0],"sum_hessian":[2.664E3,1.989E3,6.75E2,3E1,1.959E3,3.98E2,2.77E2,7E0,2.3E1,1.88E3,7.9E1,3.8E2,1.8E1,2.6E2,1.7E1],"tree_param":{"num_deleted":"0","num_feature":"89","num_nodes":"15","size_leaf_vector":"1"}},{"base_weights":[5.5561867E-2,-1.6642106E-1,1.4764676E0,-2.9816253E-2,-3.12456E0,6.2186117E0,1.0898576E0,3.2911813E-3,-1.2028782E-2,-5.8794882E-2,-9.332439E-3,9.492166E-2,-2.956479E-3,-7.074791E-2,1.3628461E-2],"categories":[],"categories_nodes":[],"categories_segments":[],"categories_sizes":[],"default_left":[0,0,0,0,0,0,0,0,0,0,0,0,0,0,0],"id":75,"left_children":[1,3,5,7,9,11,13,-1,-1,-1,-1,-1,-1,-1,-1],"loss_changes":[8.427239E2,9.337727E2,6.550658E2,9.309215E2,6.102788E2,5.7857544E2,7.563086E2,0E0,0E0,0E0,0E0,0E0,0E0,0E0,0E0],"parents":[2147483647,0,0,1,1,2,2,3,3,4,4,5,5,6,6],"right_children":[2,4,6,8,10,12,14,-1,-1,-1,-1,-1,-1,-1,-1],"split_conditions":[2.4098024E1,9.084827E1,5.977625E1,8.1E-1,2.8013966E0,2.5881904E-1,2.780315E1,3.2911813E-3,-1.2028782E-2,-5.8794882E-2,-9.332439E-3,9.492166E-2,-2.956479E-3,-7.074791E-2,1.3628461E-2],"split_indices":[45,47,67,62,57,78,36,0,0,0,0,0,0,0,0],"split_type":[0,0,0,0,0,0,0,0,0,0,0,0,0,0,0],"sum_hessian":[2.67E3,2.31E3,3.6E2,2.209E3,1.01E2,2.6E1,3.34E2,1.692E3,5.17E2,4.4E1,5.7E1,1.7E1,9E0,1E1,3.24E2],"tree_param":{"num_deleted":"0","num_feature":"89","num_nodes":"15","size_leaf_vector":"1"}},{"base_weights":[5.342572E-2,-1.7367303E0,2.1972251E-1,-3.1365159E0,-3.1727042E-2,1.25689E-1,2.9939053E0,-9.854165E-3,-5.3067245E-2,-1.9977355E-2,3.332017E-2,1.5923893E-2,-6.784552E-4,-2.4961382E-2,4.319636E-2],"categories":[],"categories_nodes":[],"categories_segments":[],"categories_sizes":[],"default_left":[0,0,0,0,0,0,0,0,0,0,0,0,0,0,0],"id":76,"left_children":[1,3,5,7,9,11,13,-1,-1,-1,-1,-1,-1,-1,-1],"loss_changes":[7.8451605E2,5.3450757E2,6.2857196E2,5.689758E2,6.811978E2,6.6234674E2,5.8576984E2,0E0,0E0,0E0,0E0,0E0,0E0,0E0,0E0],"parents":[2147483647,0,0,1,1,2,2,3,3,4,4,5,5,6,6],"right_children":[2,4,6,8,10,12,14,-1,-1,-1,-1,-1,-1,-1,-1],"split_conditions":[1.8541983E1,2.7187368E1,5.028826E1,4.871955E1,2.1356255E1,2.0565825E1,1.2910253E1,-9.854165E-3,-5.3067245E-2,-1.9977355E-2,3.332017E-2,1.5923893E-2,-6.784552E-4,-2.4961382E-2,4.319636E-2],"split_indices":[45,83,71,13,68,35,87,0,0,0,0,0,0,0,0],"split_type":[0,0,0,0,0,0,0,0,0,0,0,0,0,0,0],"sum_hessian":[2.633E3,2.23E2,2.41E3,1.22E2,1.01E2,2.332E3,7.8E1,6.2E1,6E1,6.4E1,3.7E1,2.71E2,2.061E3,1.5E1,6.3E1],"tree_param":{"num_deleted":"0","num_feature":"89","num_nodes":"15","size_leaf_vector":"1"}},{"base_weights":[2.9338239E-2,-6.7758106E-2,2.7572155E0,5.03187E-1,-4.6940607E-1,-1.2673911E0,4.6299295E0,2.8197074E-3,3.559429E-2,-8.814317E-3,6.574784E-3,4.9485736E-2,-4.167022E-2,-1.8763835E-2,5.749063E-2],"categories":[],"categories_nodes":[],"categories_segments":[],"categories_sizes":[],"default_left":[0,0,0,0,0,0,0,0,0,0,0,0,0,0,0],"id":77,"left_children":[1,3,5,7,9,11,13,-1,-1,-1,-1,-1,-1,-1,-1],"loss_changes":[7.089707E2,5.9302563E2,6.992661E2,7.210609E2,7.053949E2,5.6134094E2,4.6951758E2,0E0,0E0,0E0,0E0,0E0,0E0,0E0,0E0],"parents":[2147483647,0,0,1,1,2,2,3,3,4,4,5,5,6,6],"right_children":[2,4,6,8,10,12,14,-1,-1,-1,-1,-1,-1,-1,-1],"split_conditions":[5.024315E1,2.3228598E1,2.6430285E1,9.4483894E1,8.9E-1,1.6613756E1,1.9934668E1,2.8197074E-3,3.559429E-2,-8.814317E-3,6.574784E-3,4.9485736E-2,-4.167022E-2,-1.8763835E-2,5.749063E-2],"split_indices":[71,35,55,19,32,86,24,0,0,0,0,0,0,0,0],"split_type":[0,0,0,0,0,0,0,0,0,0,0,0,0,0,0],"sum_hessian":[2.675E3,2.584E3,9.1E1,1.067E3,1.517E3,2.9E1,6.2E1,9.96E2,7.1E1,1.111E3,4.06E2,9E0,2E1,9E0,5.3E1],"tree_param":{"num_deleted":"0","num_feature":"89","num_nodes":"15","size_leaf_vector":"1"}},{"base_weights":[-1.5178402E-1,8.815694E0,-1.8575859E-1,2.1749673E0,1.135101E-1,9.6699554E-1,-4.217038E-1,-6.323814E-5,2.904172E-2,4.103809E-3,3.409814E-2,-2.1423306E-2,-1.7837135E-3],"categories":[],"categories_nodes":[],"categories_segments":[],"categories_sizes":[],"default_left":[0,0,0,0,0,0,0,0,0,0,0,0,0],"id":78,"left_children":[1,3,5,7,-1,9,11,-1,-1,-1,-1,-1,-1],"loss_changes":[8.071751E2,1.436753E2,7.17093E2,6.3808002E0,0E0,6.077501E2,9.156991E2,0E0,0E0,0E0,0E0,0E0,0E0],"parents":[2147483647,0,0,1,1,2,2,3,3,5,5,6,6],"right_children":[2,4,6,8,-1,10,12,-1,-1,-1,-1,-1,-1],"split_conditions":[6.825E-1,2.4401537E1,2.1247879E1,2.6600702E1,1.135101E-1,8.4232376E1,2.2292646E1,-6.323814E-5,2.904172E-2,4.103809E-3,3.409814E-2,-2.1423306E-2,-1.7837135E-3],"split_indices":[63,23,42,0,0,19,42,0,0,0,0,0,0],"split_type":[0,0,0,0,0,0,0,0,0,0,0,0,0],"sum_hessian":[2.643E3,9E0,2.634E3,3E0,6E0,4.47E2,2.187E3,1E0,2E0,3.65E2,8.2E1,2.7E2,1.917E3],"tree_param":{"num_deleted":"0","num_feature":"89","num_nodes":"13","size_leaf_vector":"1"}},{"base_weights":[-4.185128E-3,-2.344071E-1,1.4419473E0,-1.7289029E-1,-3.990572E0,3.0226543E0,2.4915224E-2,-7.881928E-3,1.881336E-3,-1.0040675E-1,-2.4956917E-2,3.3576034E-2,-6.859695E-2,-2.0490538E-2,1.2930871E-2],"categories":[],"categories_nodes":[],"categories_segments":[],"categories_sizes":[],"default_left":[0,0,0,0,0,0,0,0,0,0,0,0,0,0,0],"id":79,"left_children":[1,3,5,7,9,11,13,-1,-1,-1,-1,-1,-1,-1,-1],"loss_changes":[8.8726746E2,5.305336E2,8.197327E2,5.028486E2,3.0957617E2,5.956764E2,5.128986E2,0E0,0E0,0E0,0E0,0E0,0E0,0E0,0E0],"parents":[2147483647,0,0,1,1,2,2,3,3,4,4,5,5,6,6],"right_children":[2,4,6,8,10,12,14,-1,-1,-1,-1,-1,-1,-1,-1],"split_conditions":[2.4098024E1,3.865276E1,5.827846E0,5.4337764E0,5E-1,6.031127E1,1.6997522E1,-7.881928E-3,1.881336E-3,-1.0040675E-1,-2.4956917E-2,3.3576034E-2,-6.859695E-2,-2.0490538E-2,1.2930871E-2],"split_indices":[45,86,72,72,18,34,88,0,0,0,0,0,0,0,0],"split_type":[0,0,0,0,0,0,0,0,0,0,0,0,0,0,0],"sum_hessian":[2.663E3,2.298E3,3.65E2,2.262E3,3.6E1,1.72E2,1.93E2,8.36E2,1.426E3,6E0,3E1,1.67E2,5E0,7.3E1,1.2E2],"tree_param":{"num_deleted":"0","num_feature":"89","num_nodes":"15","size_leaf_vector":"1"}},{"base_weights":[1.4692198E-1,2.3081536E0,4.66004E-2,5.0328326E0,3.397849E-1,-3.9667018E-2,2.4615524E0,7.389348E-2,-1.3862663E-2,1.7998988E-2,-6.08839E-2,3.7337956E-3,-6.010201E-3,-1.8220069E-2,4.419521E-2],"categories":[],"categories_nodes":[],"categories_segments":[],"categories_sizes":[],"default_left":[0,0,0,0,0,0,0,0,0,0,0,0,0,0,0],"id":80,"left_children":[1,3,5,7,9,11,13,-1,-1,-1,-1,-1,-1,-1,-1],"loss_changes":[5.7185876E2,6.2578125E2,5.255102E2,7.5145215E2,6.585833E2,5.650474E2,7.377279E2,0E0,0E0,0E0,0E0,0E0,0E0,0E0,0E0],"parents":[2147483647,0,0,1,1,2,2,3,3,4,4,5,5,6,6],"right_children":[2,4,6,8,10,12,14,-1,-1,-1,-1,-1,-1,-1,-1],"split_conditions":[1.776278E1,1.8538282E1,5.024315E1,2.5887028E1,2.8338367E1,2.1000788E1,2.6430285E1,7.389348E-2,-1.3862663E-2,1.7998988E-2,-6.08839E-2,3.7337956E-3,-6.010201E-3,-1.8220069E-2,4.419521E-2],"split_indices":[10,87,71,35,88,85,55,0,0,0,0,0,0,0,0],"split_type":[0,0,0,0,0,0,0,0,0,0,0,0,0,0,0],"sum_hessian":[2.637E3,1.16E2,2.521E3,4.8E1,6.8E1,2.435E3,8.6E1,3.5E1,1.3E1,5.6E1,1.2E1,1.403E3,1.032E3,2.7E1,5.9E1],"tree_param":{"num_deleted":"0","num_feature":"89","num_nodes":"15","size_leaf_vector":"1"}},{"base_weights":[-4.0254198E-2,-3.4718135E-1,7.267128E-1,4.27612E0,-4.3628633E-1,-3.6048188E0,1.0964206E0,5.446308E-2,-4.0683087E-2,-5.805848E-3,2.088256E-2,7.79395E-2,-4.3414902E-2,-1.40210185E-2,1.5144812E-2],"categories":[],"categories_nodes":[],"categories_segments":[],"categories_sizes":[],"default_left":[0,0,0,0,0,0,0,0,0,0,0,0,0,0,0],"id":81,"left_children":[1,3,5,7,9,11,13,-1,-1,-1,-1,-1,-1,-1,-1],"loss_changes":[6.2595355E2,7.84176E2,1.2210173E3,3.736812E2,6.802445E2,5.37666E2,7.343415E2,0E0,0E0,0E0,0E0,0E0,0E0,0E0,0E0],"parents":[2147483647,0,0,1,1,2,2,3,3,4,4,5,5,6,6],"right_children":[2,4,6,8,10,12,14,-1,-1,-1,-1,-1,-1,-1,-1],"split_conditions":[4.8675514E1,4.3E-1,3.708914E1,2.79479E1,9.785185E1,1.813455E1,4.5145927E1,5.446308E-2,-4.0683087E-2,-5.805848E-3,2.088256E-2,7.79395E-2,-4.3414902E-2,-1.40210185E-2,1.5144812E-2],"split_indices":[71,32,36,54,40,10,15,0,0,0,0,0,0,0,0],"split_type":[0,0,0,0,0,0,0,0,0,0,0,0,0,0,0],"sum_hessian":[2.657E3,1.898E3,7.59E2,3.5E1,1.863E3,5.9E1,7E2,3.1E1,4E0,1.763E3,1E2,3E0,5.6E1,1E2,6E2],"tree_param":{"num_deleted":"0","num_feature":"89","num_nodes":"15","size_leaf_vector":"1"}},{"base_weights":[6.915619E-2,2.368387E0,-3.82696E-2,4.521301E0,-3.4667975E-1,-4.082037E-1,8.594881E-1,5.1490527E-2,-4.292631E-2,4.719239E-2,-2.2377323E-2,3.9963886E-2,-4.993257E-3,5.350788E-3,3.42522E-2],"categories":[],"categories_nodes":[],"categories_segments":[],"categories_sizes":[],"default_left":[0,0,0,0,0,0,0,0,0,0,0,0,0,0,0],"id":82,"left_children":[1,3,5,7,9,11,13,-1,-1,-1,-1,-1,-1,-1,-1],"loss_changes":[6.6401776E2,7.0300397E2,8.5354443E2,3.9281152E2,5.27876E2,7.3246234E2,6.224278E2,0E0,0E0,0E0,0E0,0E0,0E0,0E0,0E0],"parents":[2147483647,0,0,1,1,2,2,3,3,4,4,5,5,6,6],"right_children":[2,4,6,8,10,12,14,-1,-1,-1,-1,-1,-1,-1,-1],"split_conditions":[2.0048197E1,2.4363577E1,5.1474487E1,2.2732534E1,2.4898684E0,1.6757338E1,9.058723E1,5.1490527E-2,-4.292631E-2,4.719239E-2,-2.2377323E-2,3.9963886E-2,-4.993257E-3,5.350788E-3,3.42522E-2],"split_indices":[58,3,6,85,77,38,19,0,0,0,0,0,0,0,0],"split_type":[0,0,0,0,0,0,0,0,0,0,0,0,0,0,0],"sum_hessian":[2.687E3,