{"learner":{"attributes":{"scikit_learn":"{\"_estimator_type\": \"regressor\"}"},"feature_names":["Server_Workload(%)","Inlet_Temperature(째C)","Outlet_Temperature(째C)","Ambient_Temperature(째C)","Cooling_Unit_Power_Consumption(kW)","Chiller_Usage(%)","AHU_Usage(%)","Temperature_Deviation(째C)","workload_t-1","outlet_t-1","inlet_t-1","cooling_power_t-1","chiller_usage_t-1","ahu_usage_t-1","ambient_t-1","workload_t-2","outlet_t-2","inlet_t-2","cooling_power_t-2","chiller_usage_t-2","ahu_usage_t-2","ambient_t-2","workload_t-3","outlet_t-3","inlet_t-3","cooling_power_t-3","chiller_usage_t-3","ahu_usage_t-3","ambient_t-3","workload_t-6","outlet_t-6","inlet_t-6","cooling_power_t-6","chiller_usage_t-6","ahu_usage_t-6","ambient_t-6","workload_t-12","outlet_t-12","inlet_t-12","cooling_power_t-12","chiller_usage_t-12","ahu_usage_t-12","ambient_t-12","workload_t-24","outlet_t-24","inlet_t-24","cooling_power_t-24","chiller_usage_t-24","ahu_usage_t-24","ambient_t-24","workload_rolling_mean_6","workload_rolling_mean_24","workload_roll_std_6","workload_roll_std_24","outlet_rolling_mean_6","outlet_rolling_mean_24","outlet_roll_std_6","outlet_roll_std_24","inlet_rolling_mean_6","inlet_rolling_mean_24","inlet_roll_std_6","inlet_roll_std_24","cooling_power_rolling_mean_6","cooling_power_rolling_mean_24","cooling_power_roll_std_6","cooling_power_roll_std_24","chiller_usage_rolling_mean_6","chiller_usage_rolling_mean_24","chiller_usage_roll_std_6","chiller_usage_roll_std_24","ahu_usage_rolling_mean_6","ahu_usage_rolling_mean_24","ahu_usage_roll_std_6","ahu_usage_roll_std_24","ambient_rolling_mean_6","ambient_rolling_mean_24","ambient_roll_std_6","ambient_roll_std_24","hour_sin","hour_cos","dow_sin","dow_cos","workload_t-168","outlet_t-168","Q_roll_mean_6","Q_roll_mean_24","Q_t-1","Q_t-6","Q_t-24"],"feature_types":["float","float","float","float","float","float","float","float","float","float","float","float","float","float","float","float","float","float","float","float","float","float","float","float","float","float","float","float","float","float","float","float","float","float","float","float","float","float","float","float","float","float","float","float","float","float","float","float","float","float","float","float","float","float","float","float","float","float","float","float","float","float","float","float","float","float","float","float","float","float","float","float","float","float","float","float","float","float","float","float","float","float","float","float","float","float","float","float","float"],"gradient_booster":{"model":{"cats":{"enc":[],"feature_segments":[],"sorted_idx":[]},"gbtree_model_param":{"num_parallel_tree":"1","num_trees":"300"},"iteration_indptr":[0,1,2,3,4,5,6,7,8,9,10,11,12,13,14,15,16,17,18,19,20,21,22,23,24,25,26,27,28,29,30,31,32,33,34,35,36,37,38,39,40,41,42,43,44,45,46,47,48,49,50,51,52,53,54,55,56,57,58,59,60,61,62,63,64,65,66,67,68,69,70,71,72,73,74,75,76,77,78,79,80,81,82,83,84,85,86,87,88,89,90,91,92,93,94,95,96,97,98,99,100,101,102,103,104,105,106,107,108,109,110,111,112,113,114,115,116,117,118,119,120,121,122,123,124,125,126,127,128,129,130,131,132,133,134,135,136,137,138,139,140,141,142,143,144,145,146,147,148,149,150,151,152,153,154,155,156,157,158,159,160,161,162,163,164,165,166,167,168,169,170,171,172,173,174,175,176,177,178,179,180,181,182,183,184,185,186,187,188,189,190,191,192,193,194,195,196,197,198,199,200,201,202,203,204,205,206,207,208,209,210,211,212,213,214,215,216,217,218,219,220,221,222,223,224,225,226,227,228,229,230,231,232,233,234,235,236,237,238,239,240,241,242,243,244,245,246,247,248,249,250,251,252,253,254,255,256,257,258,259,260,261,262,263,264,265,266,267,268,269,270,271,272,273,274,275,276,277,278,279,280,281,282,283,284,285,286,287,288,289,290,291,292,293,294,295,296,297,298,299,300],"tree_info":[0,0,0,0,0,0,0,0,0,0,0,0,0,0,0,0,0,0,0,0,0,0,0,0,0,0,0,0,0,0,0,0,0,0,0,0,0,0,0,0,0,0,0,0,0,0,0,0,0,0,0,0,0,0,0,0,0,0,0,0,0,0,0,0,0,0,0,0,0,0,0,0,0,0,0,0,0,0,0,0,0,0,0,0,0,0,0,0,0,0,0,0,0,0,0,0,0,0,0,0,0,0,0,0,0,0,0,0,0,0,0,0,0,0,0,0,0,0,0,0,0,0,0,0,0,0,0,0,0,0,0,0,0,0,0,0,0,0,0,0,0,0,0,0,0,0,0,0,0,0,0,0,0,0,0,0,0,0,0,0,0,0,0,0,0,0,0,0,0,0,0,0,0,0,0,0,0,0,0,0,0,0,0,0,0,0,0,0,0,0,0,0,0,0,0,0,0,0,0,0,0,0,0,0,0,0,0,0,0,0,0,0,0,0,0,0,0,0,0,0,0,0,0,0,0,0,0,0,0,0,0,0,0,0,0,0,0,0,0,0,0,0,0,0,0,0,0,0,0,0,0,0,0,0,0,0,0,0,0,0,0,0,0,0,0,0,0,0,0,0,0,0,0,0,0,0,0,0,0,0,0,0,0,0,0,0,0,0,0,0,0,0,0,0,0,0,0,0,0,0],"trees":[{"base_weights":[-2.9010868E-2,-2.4066697E-1,1.4109585E0,7.884458E-1,-6.3397133E-1,2.3410525E0,-1.8506976E0,2.7620854E-2,2.150201E-3,2.070748E-2,-8.236743E-3,3.1392615E-2,-2.1487463E-3,-3.4745112E-2,3.989273E-2],"categories":[],"categories_nodes":[],"categories_segments":[],"categories_sizes":[],"default_left":[0,0,0,0,0,0,0,0,0,0,0,0,0,0,0],"id":0,"left_children":[1,3,5,7,9,11,13,-1,-1,-1,-1,-1,-1,-1,-1],"loss_changes":[8.086117E2,9.36697E2,1.0357725E3,7.2371704E2,8.60624E2,5.4131836E2,7.345706E2,0E0,0E0,0E0,0E0,0E0,0E0,0E0,0E0],"parents":[2147483647,0,0,1,1,2,2,3,3,4,4,5,5,6,6],"right_children":[2,4,6,8,10,12,14,-1,-1,-1,-1,-1,-1,-1,-1],"split_conditions":[8.420296E0,1.4818517E1,1.0057253E1,5.984662E1,3.8421005E1,4.85E0,3.6993473E0,2.7620854E-2,2.150201E-3,2.070748E-2,-8.236743E-3,3.1392615E-2,-2.1487463E-3,-3.4745112E-2,3.989273E-2],"split_indices":[72,52,72,50,48,7,77,0,0,0,0,0,0,0,0],"split_type":[0,0,0,0,0,0,0,0,0,0,0,0,0,0,0],"sum_hessian":[2.651E3,2.312E3,3.39E2,6.39E2,1.673E3,2.64E2,7.5E1,1.43E2,4.96E2,1.09E2,1.564E3,2.01E2,6.3E1,5.9E1,1.6E1],"tree_param":{"num_deleted":"0","num_feature":"89","num_nodes":"15","size_leaf_vector":"1"}},{"base_weights":[7.727524E-2,2.464128E0,-6.265161E-2,-1.4435807E0,3.2065744E0,9.4198185E-1,-4.1345072E-1,-3.8933236E-2,5.0619833E-2,2.4111247E-2,8.024605E-2,2.18288E-2,-3.9381837E-5,2.6316501E-2,-5.456129E-3],"categories":[],"categories_nodes":[],"categories_segments":[],"categories_sizes":[],"default_left":[0,0,0,0,0,0,0,0,0,0,0,0,0,0,0],"id":1,"left_children":[1,3,5,7,9,11,13,-1,-1,-1,-1,-1,-1,-1,-1],"loss_changes":[8.805383E2,4.2821332E2,8.7827893E2,4.0219495E2,4.5204944E2,7.571037E2,7.447562E2,0E0,0E0,0E0,0E0,0E0,0E0,0E0,0E0],"parents":[2147483647,0,0,1,1,2,2,3,3,4,4,5,5,6,6],"right_children":[2,4,6,8,10,12,14,-1,-1,-1,-1,-1,-1,-1,-1],"split_conditions":[3.78913E1,4.6940437E1,1.4757898E1,2.1910278E1,3.0629519E1,6.268151E1,-9.659258E-1,-3.8933236E-2,5.0619833E-2,2.4111247E-2,8.024605E-2,2.18288E-2,-3.9381837E-5,2.6316501E-2,-5.456129E-3],"split_indices":[48,71,52,84,88,33,78,0,0,0,0,0,0,0,0],"split_type":[0,0,0,0,0,0,0,0,0,0,0,0,0,0,0],"sum_hessian":[2.635E3,1.45E2,2.49E3,2.3E1,1.22E2,6.44E2,1.846E3,1.7E1,6E0,1.06E2,1.6E1,2.78E2,3.66E2,7.6E1,1.77E3],"tree_param":{"num_deleted":"0","num_feature":"89","num_nodes":"15","size_leaf_vector":"1"}},{"base_weights":[-5.344703E-2,-8.5316E-1,7.6903313E-1,-2.1155982E0,-4.480905E-1,3.944121E-1,2.3207448E0,8.123522E-2,-2.3665333E-2,-5.187154E-2,-2.6349695E-3,1.2050263E-2,-5.344632E-3,9.656415E-2,1.7847652E-2],"categories":[],"categories_nodes":[],"categories_segments":[],"categories_sizes":[],"default_left":[0,0,0,0,0,0,0,0,0,0,0,0,0,0,0],"id":2,"left_children":[1,3,5,7,9,11,13,-1,-1,-1,-1,-1,-1,-1,-1],"loss_changes":[1.737111E3,6.8378357E2,7.5594226E2,8.542648E2,8.8655566E2,7.912516E2,9.775032E2,0E0,0E0,0E0,0E0,0E0,0E0,0E0,0E0],"parents":[2147483647,0,0,1,1,2,2,3,3,4,4,5,5,6,6],"right_children":[2,4,6,8,10,12,14,-1,-1,-1,-1,-1,-1,-1,-1],"split_conditions":[6.043882E0,6.5E-1,8.3333916E1,2.5258133E1,3.6751015E1,6.796837E1,2.222556E1,8.123522E-2,-2.3665333E-2,-5.187154E-2,-2.6349695E-3,1.2050263E-2,-5.344632E-3,9.656415E-2,1.7847652E-2],"split_indices":[72,18,82,55,34,22,44,0,0,0,0,0,0,0,0],"split_type":[0,0,0,0,0,0,0,0,0,0,0,0,0,0,0],"sum_hessian":[2.639E3,1.338E3,1.301E3,3.24E2,1.014E3,1.049E3,2.52E2,7E0,3.17E2,3.7E1,9.77E2,5.6E2,4.89E2,1.6E1,2.36E2],"tree_param":{"num_deleted":"0","num_feature":"89","num_nodes":"15","size_leaf_vector":"1"}},{"base_weights":[2.1387514E-2,-5.946305E-1,6.259904E-1,-1.7752408E0,-5.4862652E-2,1.4462639E0,-2.87542E-1,6.8133613E-3,-2.63885E-2,-2.300919E-3,4.765656E-2,1.977908E-2,-5.930962E-3,-1.4656676E-2,8.167072E-3],"categories":[],"categories_nodes":[],"categories_segments":[],"categories_sizes":[],"default_left":[0,0,0,0,0,0,0,0,0,0,0,0,0,0,0],"id":3,"left_children":[1,3,5,7,9,11,13,-1,-1,-1,-1,-1,-1,-1,-1],"loss_changes":[9.970384E2,8.4490344E2,1.01278284E3,8.843513E2,7.7061444E2,7.7313354E2,8.338014E2,0E0,0E0,0E0,0E0,0E0,0E0,0E0,0E0],"parents":[2147483647,0,0,1,1,2,2,3,3,4,4,5,5,6,6],"right_children":[2,4,6,8,10,12,14,-1,-1,-1,-1,-1,-1,-1,-1],"split_conditions":[6.043882E0,2.506554E0,6.759995E1,5.2374374E1,5.015951E1,3.334088E0,2.3568275E1,6.8133613E-3,-2.63885E-2,-2.300919E-3,4.765656E-2,1.977908E-2,-5.930962E-3,-1.4656676E-2,8.167072E-3],"split_indices":[72,77,22,29,71,77,49,0,0,0,0,0,0,0,0],"split_type":[0,0,0,0,0,0,0,0,0,0,0,0,0,0,0],"sum_hessian":[2.675E3,1.325E3,1.35E3,4.15E2,9.1E2,7.11E2,6.39E2,1.08E2,3.07E2,8.79E2,3.1E1,5.64E2,1.47E2,3.09E2,3.3E2],"tree_param":{"num_deleted":"0","num_feature":"89","num_nodes":"15","size_leaf_vector":"1"}},{"base_weights":[1.0014802E-1,1.0902475E0,-2.3424748E-1,2.2828891E0,1.8838335E-2,2.727386E0,-4.2407203E-1,4.0802453E-2,7.335038E-3,6.3213683E-3,-3.411439E-2,3.3431416E-3,4.615423E-2,-5.0801067E-3,5.1190328E-2],"categories":[],"categories_nodes":[],"categories_segments":[],"categories_sizes":[],"default_left":[0,0,0,0,0,0,0,0,0,0,0,0,0,0,0],"id":4,"left_children":[1,3,5,7,9,11,13,-1,-1,-1,-1,-1,-1,-1,-1],"loss_changes":[8.812721E2,8.586435E2,1.1199163E3,8.8257275E2,7.489998E2,5.406421E2,8.7314075E2,0E0,0E0,0E0,0E0,0E0,0E0,0E0,0E0],"parents":[2147483647,0,0,1,1,2,2,3,3,4,4,5,5,6,6],"right_children":[2,4,6,8,10,12,14,-1,-1,-1,-1,-1,-1,-1,-1],"split_conditions":[1.4757898E1,6.406356E1,3.78913E1,6.268151E1,3.0026892E1,2.4387714E1,2.0192507E-1,4.0802453E-2,7.335038E-3,6.3213683E-3,-3.411439E-2,3.3431416E-3,4.615423E-2,-5.0801067E-3,5.1190328E-2],"split_indices":[52,19,48,33,86,3,65,0,0,0,0,0,0,0,0],"split_type":[0,0,0,0,0,0,0,0,0,0,0,0,0,0,0],"sum_hessian":[2.66E3,6.71E2,1.989E3,3.17E2,3.54E2,1.19E2,1.87E3,1.46E2,1.71E2,3.01E2,5.3E1,5.3E1,6.6E1,1.843E3,2.7E1],"tree_param":{"num_deleted":"0","num_feature":"89","num_nodes":"15","size_leaf_vector":"1"}},{"base_weights":[1.4141145E-4,-7.327048E-1,7.406728E-1,-8.417652E-1,5.32341E0,1.0733037E0,-1.1303376E0,2.453045E-2,-1.0356792E-2,2.4180772E-2,1.0831816E-1,1.7763622E-2,-7.2198185E-5,-3.4784205E-2,1.0290433E-2],"categories":[],"categories_nodes":[],"categories_segments":[],"categories_sizes":[],"default_left":[0,0,0,0,0,0,0,0,0,0,0,0,0,0,0],"id":5,"left_children":[1,3,5,7,9,11,13,-1,-1,-1,-1,-1,-1,-1,-1],"loss_changes":[1.4565952E3,8.9547144E2,8.3205835E2,8.4973486E2,3.5789783E2,8.6148035E2,1.0278013E3,0E0,0E0,0E0,0E0,0E0,0E0,0E0,0E0],"parents":[2147483647,0,0,1,1,2,2,3,3,4,4,5,5,6,6],"right_children":[2,4,6,8,10,12,14,-1,-1,-1,-1,-1,-1,-1,-1],"split_conditions":[6.043882E0,6.1528194E1,3.4195075E0,3.78913E1,2.299458E1,2.2131294E1,2.1227304E1,2.453045E-2,-1.0356792E-2,2.4180772E-2,1.0831816E-1,1.7763622E-2,-7.2198185E-5,-3.4784205E-2,1.0290433E-2],"split_indices":[72,48,77,48,87,24,10,0,0,0,0,0,0,0,0],"split_type":[0,0,0,0,0,0,0,0,0,0,0,0,0,0,0],"sum_hessian":[2.682E3,1.348E3,1.334E3,1.325E3,2.3E1,1.133E3,2.01E2,7.3E1,1.252E3,1.6E1,7E0,6.86E2,4.47E2,9.6E1,1.05E2],"tree_param":{"num_deleted":"0","num_feature":"89","num_nodes":"15","size_leaf_vector":"1"}},{"base_weights":[-4.881493E-2,-6.77557E-1,5.880431E-1,-3.2435688E-1,-2.262733E0,1.0183775E0,-1.1338897E0,2.3049362E-2,-5.5312268E-3,-2.9604072E-2,2.8126905E-2,-8.681774E-3,1.4371626E-2,-2.465015E-2,1.4384274E-2],"categories":[],"categories_nodes":[],"categories_segments":[],"categories_sizes":[],"default_left":[0,0,0,0,0,0,0,0,0,0,0,0,0,0,0],"id":6,"left_children":[1,3,5,7,9,11,13,-1,-1,-1,-1,-1,-1,-1,-1],"loss_changes":[1.066315E3,7.49511E2,9.815069E2,6.6111194E2,8.72329E2,8.379226E2,9.1092615E2,0E0,0E0,0E0,0E0,0E0,0E0,0E0,0E0],"parents":[2147483647,0,0,1,1,2,2,3,3,4,4,5,5,6,6],"right_children":[2,4,6,8,10,12,14,-1,-1,-1,-1,-1,-1,-1,-1],"split_conditions":[6.043882E0,3.5451198E0,8.265479E1,9.440625E0,4.4872518E0,6.1E-1,2.3364643E1,2.3049362E-2,-5.5312268E-3,-2.9604072E-2,2.8126905E-2,-8.681774E-3,1.4371626E-2,-2.465015E-2,1.4384274E-2],"split_indices":[72,56,22,86,56,4,68,0,0,0,0,0,0,0,0],"split_type":[0,0,0,0,0,0,0,0,0,0,0,0,0,0,0],"sum_hessian":[2.661E3,1.339E3,1.322E3,1.096E3,2.43E2,1.058E3,2.64E2,8.7E1,1.009E3,2.14E2,2.9E1,1.92E2,8.66E2,1.74E2,9E1],"tree_param":{"num_deleted":"0","num_feature":"89","num_nodes":"15","size_leaf_vector":"1"}},{"base_weights":[-6.285922E-2,5.941331E-1,-5.200199E-1,-1.8838243E-1,1.6965586E0,-2.4733245E0,-2.804999E-1,7.6141767E-3,-1.5481022E-2,9.326464E-3,4.0481742E-2,-5.0481055E-2,-9.896802E-3,2.8265238E-2,-4.445492E-3],"categories":[],"categories_nodes":[],"categories_segments":[],"categories_sizes":[],"default_left":[0,0,0,0,0,0,0,0,0,0,0,0,0,0,0],"id":7,"left_children":[1,3,5,7,9,11,13,-1,-1,-1,-1,-1,-1,-1,-1],"loss_changes":[8.073522E2,9.518391E2,7.4085736E2,8.354632E2,8.189884E2,6.5587427E2,7.2146967E2,0E0,0E0,0E0,0E0,0E0,0E0,0E0,0E0],"parents":[2147483647,0,0,1,1,2,2,3,3,4,4,5,5,6,6],"right_children":[2,4,6,8,10,12,14,-1,-1,-1,-1,-1,-1,-1,-1],"split_conditions":[7.3E-1,2.8644443E0,2.2627718E1,4.9267395E1,8.058655E1,2.6407669E0,2.2886456E1,7.6141767E-3,-1.5481022E-2,9.326464E-3,4.0481742E-2,-5.0481055E-2,-9.896802E-3,2.8265238E-2,-4.445492E-3],"split_indices":[25,76,74,6,33,77,74,0,0,0,0,0,0,0,0],"split_type":[0,0,0,0,0,0,0,0,0,0,0,0,0,0,0],"sum_hessian":[2.686E3,1.102E3,1.584E3,6.45E2,4.57E2,1.72E2,1.412E3,3.8E2,2.65E2,3.46E2,1.11E2,6.2E1,1.1E2,7E1,1.342E3],"tree_param":{"num_deleted":"0","num_feature":"89","num_nodes":"15","size_leaf_vector":"1"}},{"base_weights":[-8.175252E-2,-2.0984182E-1,2.984775E0,-3.921029E-1,1.4691031E0,7.589153E0,1.4131335E0,-2.3996131E-3,-2.8046269E-2,3.8396273E-2,-3.189923E-3,1.0590838E-1,2.9544754E-2,-1.9871816E-2,3.347678E-2],"categories":[],"categories_nodes":[],"categories_segments":[],"categories_sizes":[],"default_left":[0,0,0,0,0,0,0,0,0,0,0,0,0,0,0],"id":8,"left_children":[1,3,5,7,9,11,13,-1,-1,-1,-1,-1,-1,-1,-1],"loss_changes":[1.0481957E3,7.842582E2,7.6357367E2,8.475685E2,1.0651444E3,3.4432947E2,5.3947546E2,0E0,0E0,0E0,0E0,0E0,0E0,0E0,0E0],"parents":[2147483647,0,0,1,1,2,2,3,3,4,4,5,5,6,6],"right_children":[2,4,6,8,10,12,14,-1,-1,-1,-1,-1,-1,-1,-1],"split_conditions":[5.015951E1,9.168661E1,2.314821E1,2.4345886E1,1.974911E1,2.2080458E1,6.3268925E1,-2.3996131E-3,-2.8046269E-2,3.8396273E-2,-3.189923E-3,1.0590838E-1,2.9544754E-2,-1.9871816E-2,3.347678E-2],"split_indices":[71,5,21,1,87,17,50,0,0,0,0,0,0,0,0],"split_type":[0,0,0,0,0,0,0,0,0,0,0,0,0,0,0],"sum_hessian":[2.666E3,2.56E3,1.06E2,2.31E3,2.5E2,2.6E1,8E1,2.174E3,1.36E2,1.07E2,1.43E2,1.5E1,1.1E1,2.9E1,5.1E1],"tree_param":{"num_deleted":"0","num_feature":"89","num_nodes":"15","size_leaf_vector":"1"}},{"base_weights":[-1.2186595E-1,-2.4368416E-1,2.856824E0,2.0455332E0,-3.7594602E-1,6.342182E0,1.4245899E0,-8.249231E-4,3.9706312E-2,5.298468E-3,-7.133357E-3,7.6261505E-2,-7.7555925E-2,-1.1936133E-2,4.450925E-2],"categories":[],"categories_nodes":[],"categories_segments":[],"categories_sizes":[],"default_left":[0,0,0,0,0,0,0,0,0,0,0,0,0,0,0],"id":9,"left_children":[1,3,5,7,9,11,13,-1,-1,-1,-1,-1,-1,-1,-1],"loss_changes":[9.6045734E2,7.7042596E2,5.1011725E2,5.6976306E2,7.350529E2,6.021786E2,5.995797E2,0E0,0E0,0E0,0E0,0E0,0E0,0E0,0E0],"parents":[2147483647,0,0,1,1,2,2,3,3,4,4,5,5,6,6],"right_children":[2,4,6,8,10,12,14,-1,-1,-1,-1,-1,-1,-1,-1],"split_conditions":[5.015951E1,3.78913E1,2.314821E1,2.3957045E1,1.5059548E1,8.2506E1,8.1E-1,-8.249231E-4,3.9706312E-2,5.298468E-3,-7.133357E-3,7.6261505E-2,-7.7555925E-2,-1.1936133E-2,4.450925E-2],"split_indices":[71,48,21,3,52,36,18,0,0,0,0,0,0,0,0],"split_type":[0,0,0,0,0,0,0,0,0,0,0,0,0,0,0],"sum_hessian":[2.644E3,2.541E3,1.03E2,1.38E2,2.403E3,2.9E1,7.4E1,6.6E1,7.2E1,6.52E2,1.751E3,2.7E1,2E0,4E1,3.4E1],"tree_param":{"num_deleted":"0","num_feature":"89","num_nodes":"15","size_leaf_vector":"1"}},{"base_weights":[3.6509924E-2,-5.2608305E-1,6.0904366E-1,-1.4663029E0,8.033483E-2,2.3976251E-1,2.156111E0,-1.0522115E-2,-4.669959E-2,4.3119207E-2,-1.5270178E-3,1.622332E-3,8.278834E-2,5.492667E-2,1.3360747E-2],"categories":[],"categories_nodes":[],"categories_segments":[],"categories_sizes":[],"default_left":[0,0,0,0,0,0,0,0,0,0,0,0,0,0,0],"id":10,"left_children":[1,3,5,7,9,11,13,-1,-1,-1,-1,-1,-1,-1,-1],"loss_changes":[8.435872E2,7.5330725E2,7.4103406E2,6.822682E2,7.934944E2,6.5246045E2,6.7668567E2,0E0,0E0,0E0,0E0,0E0,0E0,0E0,0E0],"parents":[2147483647,0,0,1,1,2,2,3,3,4,4,5,5,6,6],"right_children":[2,4,6,8,10,12,14,-1,-1,-1,-1,-1,-1,-1,-1],"split_conditions":[6.043882E0,2.094803E1,8.3333916E1,9.659258E-1,2.0308626E1,2.3583635E1,6.533464E0,-1.0522115E-2,-4.669959E-2,4.3119207E-2,-1.5270178E-3,1.622332E-3,8.278834E-2,5.492667E-2,1.3360747E-2],"split_indices":[72,17,82,79,58,58,72,0,0,0,0,0,0,0,0],"split_type":[0,0,0,0,0,0,0,0,0,0,0,0,0,0,0],"sum_hessian":[2.617E3,1.32E3,1.297E3,5.17E2,8.03E2,1.048E3,2.49E2,4.59E2,5.8E1,4.1E1,7.62E2,1.039E3,9E0,4.8E1,2.01E2],"tree_param":{"num_deleted":"0","num_feature":"89","num_nodes":"15","size_leaf_vector":"1"}},{"base_weights":[-6.1130874E-2,2.2220447E0,-2.0208833E-1,8.642171E-1,5.114038E0,3.7503073E0,-2.9607144E-1,-1.6637487E-2,3.0665692E-2,-2.2455624E-4,6.969506E-2,-8.493133E-4,5.771089E-2,-8.79652E-3,2.8488603E-3],"categories":[],"categories_nodes":[],"categories_segments":[],"categories_sizes":[],"default_left":[0,0,0,0,0,0,0,0,0,0,0,0,0,0,0],"id":11,"left_children":[1,3,5,7,9,11,13,-1,-1,-1,-1,-1,-1,-1,-1],"loss_changes":[8.5233466E2,6.003118E2,9.275278E2,5.95254E2,4.67156E2,4.500006E2,8.264801E2,0E0,0E0,0E0,0E0,0E0,0E0,0E0,0E0],"parents":[2147483647,0,0,1,1,2,2,3,3,4,4,5,5,6,6],"right_children":[2,4,6,8,10,12,14,-1,-1,-1,-1,-1,-1,-1,-1],"split_conditions":[3.78913E1,7.7666664E-1,1.2295244E0,2.3875443E1,4.6339054E1,2.5510572E1,6.043882E0,-1.6637487E-2,3.0665692E-2,-2.2455624E-4,6.969506E-2,-8.493133E-4,5.771089E-2,-8.79652E-3,2.8488603E-3],"split_indices":[48,63,56,3,70,2,72,0,0,0,0,0,0,0,0],"split_type":[0,0,0,0,0,0,0,0,0,0,0,0,0,0,0],"sum_hessian":[2.646E3,1.53E2,2.493E3,1.05E2,4.8E1,5.7E1,2.436E3,4.9E1,5.6E1,1.3E1,3.5E1,2E1,3.7E1,1.215E3,1.221E3],"tree_param":{"num_deleted":"0","num_feature":"89","num_nodes":"15","size_leaf_vector":"1"}},{"base_weights":[-1.8416723E-2,-2.5071645E-1,1.5762142E0,-3.966964E-1,3.0042233E0,2.608959E0,-1.4923135E0,1.8565704E-3,-1.004865E-2,-1.2041374E-2,4.4991087E-2,8.622087E-4,4.2196997E-2,-3.0770337E-2,2.9822256E-2],"categories":[],"categories_nodes":[],"categories_segments":[],"categories_sizes":[],"default_left":[0,0,0,0,0,0,0,0,0,0,0,0,0,0,0],"id":12,"left_children":[1,3,5,7,9,11,13,-1,-1,-1,-1,-1,-1,-1,-1],"loss_changes":[9.8759735E2,1.1068795E3,1.0781864E3,7.8927527E2,6.345193E2,1.0317596E3,6.189931E2,0E0,0E0,0E0,0E0,0E0,0E0,0E0,0E0],"parents":[2147483647,0,0,1,1,2,2,3,3,4,4,5,5,6,6],"right_children":[2,4,6,8,10,12,14,-1,-1,-1,-1,-1,-1,-1,-1],"split_conditions":[8.420296E0,5.015951E1,9.947659E0,6.589716E1,6.7E-1,1.789036E1,8.5E-1,1.8565704E-3,-1.004865E-2,-1.2041374E-2,4.4991087E-2,8.622087E-4,4.2196997E-2,-3.0770337E-2,2.9822256E-2],"split_indices":[72,71,72,22,11,88,4,0,0,0,0,0,0,0,0],"split_type":[0,0,0,0,0,0,0,0,0,0,0,0,0,0,0],"sum_hessian":[2.664E3,2.326E3,3.38E2,2.227E3,9.9E1,2.53E2,8.5E1,1.138E3,1.089E3,2.6E1,7.3E1,9.9E1,1.54E2,6.3E1,2.2E1],"tree_param":{"num_deleted":"0","num_feature":"89","num_nodes":"15","size_leaf_vector":"1"}},{"base_weights":[2.274087E-1,7.784138E-1,-3.342204E-1,1.4089511E-1,1.6750289E0,-9.7532254E-1,8.056205E-1,3.6866274E-3,-6.27556E-2,-5.0157253E-3,2.222744E-2,-6.755663E-3,-4.1799925E-2,-9.371989E-3,1.7022163E-2],"categories":[],"categories_nodes":[],"categories_segments":[],"categories_sizes":[],"default_left":[0,0,0,0,0,0,0,0,0,0,0,0,0,0,0],"id":13,"left_children":[1,3,5,7,9,11,13,-1,-1,-1,-1,-1,-1,-1,-1],"loss_changes":[8.2342505E2,7.6743475E2,9.639201E2,1.1510217E3,6.663386E2,8.0793945E2,7.438326E2,0E0,0E0,0E0,0E0,0E0,0E0,0E0,0E0],"parents":[2147483647,0,0,1,1,2,2,3,3,4,4,5,5,6,6],"right_children":[2,4,6,8,10,12,14,-1,-1,-1,-1,-1,-1,-1,-1],"split_conditions":[6.589716E1,2.4103172E1,2.6756481E1,8.5833335E-1,1.8868532E1,2.4247272E1,1.8200521E1,3.6866274E-3,-6.27556E-2,-5.0157253E-3,2.222744E-2,-6.755663E-3,-4.1799925E-2,-9.371989E-3,1.7022163E-2],"split_indices":[22,75,55,62,24,1,53,0,0,0,0,0,0,0,0],"split_type":[0,0,0,0,0,0,0,0,0,0,0,0,0,0,0],"sum_hessian":[2.659E3,1.342E3,1.317E3,7.85E2,5.57E2,8.43E2,4.74E2,7.59E2,2.6E1,1.12E2,4.45E2,7.72E2,7.1E1,1.61E2,3.13E2],"tree_param":{"num_deleted":"0","num_feature":"89","num_nodes":"15","size_leaf_vector":"1"}},{"base_weights":[-3.8678215E-3,5.599644E-1,-7.1269584E-1,1.3394873E0,-2.1822102E-1,-1.2815466E0,6.8911964E-1,4.5352452E-3,2.7358387E-2,-3.8505169E-3,5.2971106E-2,-1.00785615E-2,-4.6014003E-2,-2.9267626E-2,1.4506119E-2],"categories":[],"categories_nodes":[],"categories_segments":[],"categories_sizes":[],"default_left":[0,0,0,0,0,0,0,0,0,0,0,0,0,0,0],"id":14,"left_children":[1,3,5,7,9,11,13,-1,-1,-1,-1,-1,-1,-1,-1],"loss_changes":[1.0698894E3,9.047528E2,9.4662775E2,9.2041003E2,6.8937415E2,7.622311E2,9.486847E2,0E0,0E0,0E0,0E0,0E0,0E0,0E0,0E0],"parents":[2147483647,0,0,1,1,2,2,3,3,4,4,5,5,6,6],"right_children":[2,4,6,8,10,12,14,-1,-1,-1,-1,-1,-1,-1,-1],"split_conditions":[2.1238582E0,6.5030266E1,2.4870443E1,6.661844E1,2.757125E1,1.01E0,2.0172029E0,4.5352452E-3,2.7358387E-2,-3.8505169E-3,5.2971106E-2,-1.00785615E-2,-4.6014003E-2,-2.9267626E-2,1.4506119E-2],"split_indices":[60,47,68,67,84,11,76,0,0,0,0,0,0,0,0],"split_type":[0,0,0,0,0,0,0,0,0,0,0,0,0,0,0],"sum_hessian":[2.675E3,1.49E3,1.185E3,7.44E2,7.46E2,8.43E2,3.42E2,4.56E2,2.88E2,7.25E2,2.1E1,7.8E2,6.3E1,5.9E1,2.83E2],"tree_param":{"num_deleted":"0","num_feature":"89","num_nodes":"15","size_leaf_vector":"1"}},{"base_weights":[8.29242E-3,-4.07239E-1,7.6351637E-1,3.724459E0,-5.227921E-1,1.8772786E0,-9.241197E-2,6.668227E-2,-2.3774111E-3,-6.9214045E-3,1.9438721E-2,5.724738E-2,1.3780766E-2,2.960965E-3,-2.968359E-2],"categories":[],"categories_nodes":[],"categories_segments":[],"categories_sizes":[],"default_left":[0,0,0,0,0,0,0,0,0,0,0,0,0,0,0],"id":15,"left_children":[1,3,5,7,9,11,13,-1,-1,-1,-1,-1,-1,-1,-1],"loss_changes":[8.382084E2,8.245598E2,9.0390247E2,5.497839E2,7.0187134E2,7.8342236E2,6.008851E2,0E0,0E0,0E0,0E0,0E0,0E0,0E0,0E0],"parents":[2147483647,0,0,1,1,2,2,3,3,4,4,5,5,6,6],"right_children":[2,4,6,8,10,12,14,-1,-1,-1,-1,-1,-1,-1,-1],"split_conditions":[6.661844E1,2.1303308E0,6.1009666E1,1.4482123E-1,2.3092417E1,2.3306269E1,9.659258E-1,6.668227E-2,-2.3774111E-3,-6.9214045E-3,1.9438721E-2,5.724738E-2,1.3780766E-2,2.960965E-3,-2.968359E-2],"split_indices":[67,57,47,65,53,23,79,0,0,0,0,0,0,0,0],"split_type":[0,0,0,0,0,0,0,0,0,0,0,0,0,0,0],"sum_hessian":[2.669E3,1.722E3,9.47E2,4.6E1,1.676E3,4.11E2,5.36E2,2.6E1,2E1,1.569E3,1.07E2,4.6E1,3.65E2,4.73E2,6.3E1],"tree_param":{"num_deleted":"0","num_feature":"89","num_nodes":"15","size_leaf_vector":"1"}},{"base_weights":[5.702295E-2,-5.7312864E-1,6.880945E-1,-6.8103373E-1,4.3917065E0,1.1825665E0,-6.123142E-1,-7.5341295E-3,5.9334382E-2,8.880965E-2,4.697025E-3,5.8906246E-3,3.03277E-2,-1.606618E-2,1.5561038E-2],"categories":[],"categories_nodes":[],"categories_segments":[],"categories_sizes":[],"default_left":[0,0,0,0,0,0,0,0,0,0,0,0,0,0,0],"id":16,"left_children":[1,3,5,7,9,11,13,-1,-1,-1,-1,-1,-1,-1,-1],"loss_changes":[1.0410986E3,7.0479865E2,8.4178864E2,6.1870667E2,4.888214E2,1.0392153E3,7.808401E2,0E0,0E0,0E0,0E0,0E0,0E0,0E0,0E0],"parents":[2147483647,0,0,1,1,2,2,3,3,4,4,5,5,6,6],"right_children":[2,4,6,8,10,12,14,-1,-1,-1,-1,-1,-1,-1,-1],"split_conditions":[6.043882E0,6.1528194E1,7.8573425E1,8.2087654E1,2.6263197E1,8.058655E1,2.3364643E1,-7.5341295E-3,5.9334382E-2,8.880965E-2,4.697025E-3,5.8906246E-3,3.03277E-2,-1.606618E-2,1.5561038E-2],"split_indices":[72,48,26,50,23,33,68,0,0,0,0,0,0,0,0],"split_type":[0,0,0,0,0,0,0,0,0,0,0,0,0,0,0],"sum_hessian":[2.616E3,1.309E3,1.307E3,1.282E3,2.7E1,9.47E2,3.6E2,1.269E3,1.3E1,1.2E1,1.5E1,7.18E2,2.29E2,2.47E2,1.13E2],"tree_param":{"num_deleted":"0","num_feature":"89","num_nodes":"15","size_leaf_vector":"1"}},{"base_weights":[1.5055756E-2,2.537952E0,-9.186106E-2,1.0354805E0,6.7400866E0,-6.6687095E-1,4.9147585E-1,-1.1844087E-2,4.0736955E-2,-9.252104E-3,8.8726774E-2,-7.812052E-3,4.8424236E-2,8.139272E-3,-1.4751573E-2],"categories":[],"categories_nodes":[],"categories_segments":[],"categories_sizes":[],"default_left":[0,0,0,0,0,0,0,0,0,0,0,0,0,0,0],"id":17,"left_children":[1,3,5,7,9,11,13,-1,-1,-1,-1,-1,-1,-1,-1],"loss_changes":[7.099191E2,6.6857477E2,8.472746E2,5.44385E2,4.6592346E2,8.0501715E2,7.9641675E2,0E0,0E0,0E0,0E0,0E0,0E0,0E0,0E0],"parents":[2147483647,0,0,1,1,2,2,3,3,4,4,5,5,6,6],"right_children":[2,4,6,8,10,12,14,-1,-1,-1,-1,-1,-1,-1,-1],"split_conditions":[3.7065304E1,7.7916664E-1,6.043882E0,2.2659922E1,4.6339054E1,6.1528194E1,3.4195075E0,-1.1844087E-2,4.0736955E-2,-9.252104E-3,8.8726774E-2,-7.812052E-3,4.8424236E-2,8.139272E-3,-1.4751573E-2],"split_indices":[48,63,72,88,70,48,77,0,0,0,0,0,0,0,0],"split_type":[0,0,0,0,0,0,0,0,0,0,0,0,0,0,0],"sum_hessian":[2.63E3,1.06E2,2.524E3,7.9E1,2.7E1,1.271E3,1.253E3,4.6E1,3.3E1,6E0,2.1E1,1.246E3,2.5E1,1.077E3,1.76E2],"tree_param":{"num_deleted":"0","num_feature":"89","num_nodes":"15","size_leaf_vector":"1"}},{"base_weights":[-9.441408E-2,-3.219569E-1,1.5278102E0,-4.5038095E-1,2.6496787E0,-7.44842E0,1.8627849E0,1.803894E-2,-5.7534752E-3,-6.022587E-4,5.655447E-2,2.534423E-2,-9.6984304E-2,2.7007073E-2,-6.533193E-3],"categories":[],"categories_nodes":[],"categories_segments":[],"categories_sizes":[],"default_left":[0,0,0,0,0,0,0,0,0,0,0,0,0,0,0],"id":18,"left_children":[1,3,5,7,9,11,13,-1,-1,-1,-1,-1,-1,-1,-1],"loss_changes":[9.842114E2,8.9344293E2,1.00010834E3,6.326296E2,7.904392E2,2.9411804E2,6.700956E2,0E0,0E0,0E0,0E0,0E0,0E0,0E0,0E0],"parents":[2147483647,0,0,1,1,2,2,3,3,4,4,5,5,6,6],"right_children":[2,4,6,8,10,12,14,-1,-1,-1,-1,-1,-1,-1,-1],"split_conditions":[8.420296E0,5.015951E1,4.4217796E1,3.78913E1,2.4331516E1,3.346133E1,9.947659E0,1.803894E-2,-5.7534752E-3,-6.022587E-4,5.655447E-2,2.534423E-2,-9.6984304E-2,2.7007073E-2,-6.533193E-3],"split_indices":[72,71,70,48,49,27,72,0,0,0,0,0,0,0,0],"split_type":[0,0,0,0,0,0,0,0,0,0,0,0,0,0,0],"sum_hessian":[2.664E3,2.337E3,3.27E2,2.241E3,9.6E1,1.1E1,3.16E2,1.17E2,2.124E3,5.1E1,4.5E1,2E0,9E0,2.37E2,7.9E1],"tree_param":{"num_deleted":"0","num_feature":"89","num_nodes":"15","size_leaf_vector":"1"}},{"base_weights":[1.9912368E-2,-7.0433474E-1,7.220673E-1,1.4336472E-2,-1.624058E0,1.012208E0,-1.0045522E0,1.6885492E-3,-5.2326154E-2,-3.5898264E-2,-9.040898E-3,2.4697816E-2,6.9407457E-3,2.045193E-2,-2.418685E-2],"categories":[],"categories_nodes":[],"categories_segments":[],"categories_sizes":[],"default_left":[0,0,0,0,0,0,0,0,0,0,0,0,0,0,0],"id":19,"left_children":[1,3,5,7,9,11,13,-1,-1,-1,-1,-1,-1,-1,-1],"loss_changes":[1.3471058E3,8.6193933E2,6.748116E2,5.951639E2,8.06301E2,5.3247156E2,8.416192E2,0E0,0E0,0E0,0E0,0E0,0E0,0E0,0E0],"parents":[2147483647,0,0,1,1,2,2,3,3,4,4,5,5,6,6],"right_children":[2,4,6,8,10,12,14,-1,-1,-1,-1,-1,-1,-1,-1],"split_conditions":[6.043882E0,2.5881904E-1,3.4195075E0,3.6632553E1,2.4587622E0,6.457751E0,4.412664E1,1.6885492E-3,-5.2326154E-2,-3.5898264E-2,-9.040898E-3,2.4697816E-2,6.9407457E-3,2.045193E-2,-2.418685E-2],"split_indices":[72,79,77,86,77,72,27,0,0,0,0,0,0,0,0],"split_type":[0,0,0,0,0,0,0,0,0,0,0,0,0,0,0],"sum_hessian":[2.647E3,1.303E3,1.344E3,7.32E2,5.71E2,1.151E3,1.93E2,7.12E2,2E1,1.52E2,4.19E2,2.05E2,9.46E2,6.1E1,1.32E2],"tree_param":{"num_deleted":"0","num_feature":"89","num_nodes":"15","size_leaf_vector":"1"}},{"base_weights":[6.843632E-2,1.9164476E-1,-1.9849471E0,2.349753E-2,1.8789139E0,-4.6808708E-1,-4.780875E0,-9.138894E-4,2.6777323E-2,-6.1219423E-3,2.9638112E-2,-2.3462253E-2,2.8838277E-2,3.2876807E-4,-7.054949E-2],"categories":[],"categories_nodes":[],"categories_segments":[],"categories_sizes":[],"default_left":[0,0,0,0,0,0,0,0,0,0,0,0,0,0,0],"id":20,"left_children":[1,3,5,7,9,11,13,-1,-1,-1,-1,-1,-1,-1,-1],"loss_changes":[6.748629E2,7.1376935E2,6.3815784E2,6.982425E2,6.180064E2,6.3000665E2,5.804138E2,0E0,0E0,0E0,0E0,0E0,0E0,0E0,0E0],"parents":[2147483647,0,0,1,1,2,2,3,3,4,4,5,5,6,6],"right_children":[2,4,6,8,10,12,14,-1,-1,-1,-1,-1,-1,-1,-1],"split_conditions":[2.8433231E1,2.2734985E1,2.3960464E0,5.015951E1,1.1E0,2.9044418E1,4.810912E1,-9.138894E-4,2.6777323E-2,-6.1219423E-3,2.9638112E-2,-2.3462253E-2,2.8838277E-2,3.2876807E-4,-7.054949E-2],"split_indices":[54,69,61,71,7,54,41,0,0,0,0,0,0,0,0],"split_type":[0,0,0,0,0,0,0,0,0,0,0,0,0,0,0],"sum_hessian":[2.665E3,2.515E3,1.5E2,2.288E3,2.27E2,9.8E1,5.2E1,2.194E3,9.4E1,6.9E1,1.58E2,6.3E1,3.5E1,1.7E1,3.5E1],"tree_param":{"num_deleted":"0","num_feature":"89","num_nodes":"15","size_leaf_vector":"1"}},{"base_weights":[-9.705012E-3,2.519017E0,-1.5630837E-1,7.816835E-2,4.6735563E0,-2.2441174E-1,3.8363252E0,-1.902085E-2,3.6394976E-2,8.053813E-3,6.206183E-2,6.4210254E-3,-5.6598084E-3,-1.3001497E-2,7.047239E-2],"categories":[],"categories_nodes":[],"categories_segments":[],"categories_sizes":[],"default_left":[0,0,0,0,0,0,0,0,0,0,0,0,0,0,0],"id":21,"left_children":[1,3,5,7,9,11,13,-1,-1,-1,-1,-1,-1,-1,-1],"loss_changes":[9.809458E2,7.6217584E2,6.8091235E2,4.935337E2,4.514939E2,7.2846075E2,7.0185895E2,0E0,0E0,0E0,0E0,0E0,0E0,0E0,0E0],"parents":[2147483647,0,0,1,1,2,2,3,3,4,4,5,5,6,6],"right_children":[2,4,6,8,10,12,14,-1,-1,-1,-1,-1,-1,-1,-1],"split_conditions":[3.78913E1,2.3957045E1,1.9913399E-1,6.713969E1,1.5457309E1,1.4923587E1,2.0554903E1,-1.902085E-2,3.6394976E-2,8.053813E-3,6.206183E-2,6.4210254E-3,-5.6598084E-3,-1.3001497E-2,7.047239E-2],"split_indices":[48,3,65,67,88,52,38,0,0,0,0,0,0,0,0],"split_type":[0,0,0,0,0,0,0,0,0,0,0,0,0,0,0],"sum_hessian":[2.644E3,1.44E2,2.5E3,6.8E1,7.6E1,2.459E3,4.1E1,4.4E1,2.4E1,2.2E1,5.4E1,6.95E2,1.764E3,1.6E1,2.5E1],"tree_param":{"num_deleted":"0","num_feature":"89","num_nodes":"15","size_leaf_vector":"1"}},{"base_weights":[5.2654273E-3,-5.412053E-1,5.488298E-1,-1.23483375E-1,-1.5796268E0,8.5406417E-1,-1.3369848E0,-1.5954297E-2,4.510646E-3,4.221152E-2,-1.8660735E-2,1.4429348E-2,-1.5185353E-3,9.242767E-3,-3.0853039E-2],"categories":[],"categories_nodes":[],"categories_segments":[],"categories_sizes":[],"default_left":[0,0,0,0,0,0,0,0,0,0,0,0,0,0,0],"id":22,"left_children":[1,3,5,7,9,11,13,-1,-1,-1,-1,-1,-1,-1,-1],"loss_changes":[7.8092334E2,5.684792E2,7.59803E2,7.922983E2,6.32644E2,6.725425E2,7.302785E2,0E0,0E0,0E0,0E0,0E0,0E0,0E0,0E0],"parents":[2147483647,0,0,1,1,2,2,3,3,4,4,5,5,6,6],"right_children":[2,4,6,8,10,12,14,-1,-1,-1,-1,-1,-1,-1,-1],"split_conditions":[6.043882E0,2.2939674E1,3.4290543E0,2.1306025E1,3.6151253E1,7.346827E1,6.3323154E1,-1.5954297E-2,4.510646E-3,4.221152E-2,-1.8660735E-2,1.4429348E-2,-1.5185353E-3,9.242767E-3,-3.0853039E-2],"split_indices":[72,31,77,59,48,26,36,0,0,0,0,0,0,0,0],"split_type":[0,0,0,0,0,0,0,0,0,0,0,0,0,0,0],"sum_hessian":[2.627E3,1.31E3,1.317E3,9.35E2,3.75E2,1.134E3,1.83E2,2.62E2,6.73E2,1.7E1,3.58E2,7.15E2,4.19E2,8E1,1.03E2],"tree_param":{"num_deleted":"0","num_feature":"89","num_nodes":"15","size_leaf_vector":"1"}},{"base_weights":[-2.7623313E-2,3.508392E0,-1.4761627E-1,1.859821E0,7.164059E0,-3.7472528E-1,1.2993326E0,4.912055E-2,-1.971702E-3,8.3957076E-2,-2.0168457E-2,3.6279715E-3,-7.754603E-3,-1.741087E-3,2.47296E-2],"categories":[],"categories_nodes":[],"categories_segments":[],"categories_sizes":[],"default_left":[0,0,0,0,0,0,0,0,0,0,0,0,0,0,0],"id":23,"left_children":[1,3,5,7,9,11,13,-1,-1,-1,-1,-1,-1,-1,-1],"loss_changes":[1.1376337E3,5.170194E2,8.5258594E2,3.9023047E2,3.2223926E2,6.6290686E2,6.091339E2,0E0,0E0,0E0,0E0,0E0,0E0,0E0,0E0],"parents":[2147483647,0,0,1,1,2,2,3,3,4,4,5,5,6,6],"right_children":[2,4,6,8,10,12,14,-1,-1,-1,-1,-1,-1,-1,-1],"split_conditions":[3.6151253E1,2.8160242E1,8.338508E0,-1.8369701E-16,3.0148087E1,2.5255262E1,2.3568275E1,4.912055E-2,-1.971702E-3,8.3957076E-2,-2.0168457E-2,3.6279715E-3,-7.754603E-3,-1.741087E-3,2.47296E-2],"split_indices":[48,44,72,79,87,9,49,0,0,0,0,0,0,0,0],"split_type":[0,0,0,0,0,0,0,0,0,0,0,0,0,0,0],"sum_hessian":[2.679E3,8.7E1,2.592E3,6.1E1,2.6E1,2.241E3,3.51E2,2.4E1,3.7E1,2.3E1,3E0,7.89E2,1.452E3,1.56E2,1.95E2],"tree_param":{"num_deleted":"0","num_feature":"89","num_nodes":"15","size_leaf_vector":"1"}},{"base_weights":[7.101743E-2,-1.2590896E-1,1.4363183E0,-1.9698335E-1,3.726952E0,-3.2912621E0,2.0907214E0,2.6421199E-2,-2.9764443E-3,-5.983336E-3,6.152049E-2,-5.8352955E-2,2.6370635E-2,1.7416053E-2,1.09141946E-1],"categories":[],"categories_nodes":[],"categories_segments":[],"categories_sizes":[],"default_left":[0,0,0,0,0,0,0,0,0,0,0,0,0,0,0],"id":24,"left_children":[1,3,5,7,9,11,13,-1,-1,-1,-1,-1,-1,-1,-1],"loss_changes":[7.1240094E2,6.349471E2,1.0401913E3,6.509522E2,4.44229E2,6.3374426E2,8.866339E2,0E0,0E0,0E0,0E0,0E0,0E0,0E0,0E0],"parents":[2147483647,0,0,1,1,2,2,3,3,4,4,5,5,6,6],"right_children":[2,4,6,8,10,12,14,-1,-1,-1,-1,-1,-1,-1,-1],"split_conditions":[8.420296E0,6.1528194E1,1.8990273E1,3.6151253E1,7E-1,2.8158997E1,1.04E0,2.6421199E-2,-2.9764443E-3,-5.983336E-3,6.152049E-2,-5.8352955E-2,2.6370635E-2,1.7416053E-2,1.09141946E-1],"split_indices":[72,48,3,48,11,30,11,0,0,0,0,0,0,0,0],"split_type":[0,0,0,0,0,0,0,0,0,0,0,0,0,0,0],"sum_hessian":[2.648E3,2.315E3,3.33E2,2.274E3,4.1E1,4E1,2.93E2,7.7E1,2.197E3,1.5E1,2.6E1,2.8E1,1.2E1,2.83E2,1E1],"tree_param":{"num_deleted":"0","num_feature":"89","num_nodes":"15","size_leaf_vector":"1"}},{"base_weights":[3.3624124E-2,2.704513E0,-8.793466E-2,7.0553094E-1,4.466424E0,1.0653541E0,-3.3378303E-1,2.2287626E-2,-5.065382E-2,8.8354684E-2,3.0080471E-2,4.4120606E-3,3.5365213E-2,-2.6514994E-3,-4.803806E-2],"categories":[],"categories_nodes":[],"categories_segments":[],"categories_sizes":[],"default_left":[0,0,0,0,0,0,0,0,0,0,0,0,0,0,0],"id":25,"left_children":[1,3,5,7,9,11,13,-1,-1,-1,-1,-1,-1,-1,-1],"loss_changes":[8.7262604E2,4.0892627E2,7.2932196E2,5.0355405E2,3.6846863E2,6.9559265E2,6.491243E2,0E0,0E0,0E0,0E0,0E0,0E0,0E0,0E0],"parents":[2147483647,0,0,1,1,2,2,3,3,4,4,5,5,6,6],"right_children":[2,4,6,8,10,12,14,-1,-1,-1,-1,-1,-1,-1,-1],"split_conditions":[3.7065304E1,2.3957045E1,1.4921649E0,2.6904966E1,1.8004284E0,2.7812477E1,8.414466E0,2.2287626E-2,-5.065382E-2,8.8354684E-2,3.0080471E-2,4.4120606E-3,3.5365213E-2,-2.6514994E-3,-4.803806E-2],"split_indices":[48,3,60,28,60,88,73,0,0,0,0,0,0,0,0],"split_type":[0,0,0,0,0,0,0,0,0,0,0,0,0,0,0],"sum_hessian":[2.686E3,1.16E2,2.57E3,5.5E1,6.1E1,4.51E2,2.119E3,4.4E1,1.1E1,1.4E1,4.7E1,3.61E2,9E1,2.088E3,3.1E1],"tree_param":{"num_deleted":"0","num_feature":"89","num_nodes":"15","size_leaf_vector":"1"}},{"base_weights":[4.3832313E-2,2.439225E0,-1.04084924E-1,-1.3002612E-1,3.7632952E0,-6.846497E-1,4.8743835E-1,-2.0283133E-2,4.3865327E-2,9.74021E-2,2.8479783E-2,-1.3176697E-2,2.3767492E-3,2.5517859E-2,1.6460755E-3],"categories":[],"categories_nodes":[],"categories_segments":[],"categories_sizes":[],"default_left":[0,0,0,0,0,0,0,0,0,0,0,0,0,0,0],"id":26,"left_children":[1,3,5,7,9,11,13,-1,-1,-1,-1,-1,-1,-1,-1],"loss_changes":[9.3211523E2,5.209753E2,8.5132245E2,4.633048E2,5.2480786E2,7.3070953E2,8.1796216E2,0E0,0E0,0E0,0E0,0E0,0E0,0E0,0E0],"parents":[2147483647,0,0,1,1,2,2,3,3,4,4,5,5,6,6],"right_children":[2,4,6,8,10,12,14,-1,-1,-1,-1,-1,-1,-1,-1],"split_conditions":[3.78913E1,2.0751106E1,6.043882E0,2.296005E1,-8.660254E-1,7.6916665E-1,6.40367E0,-2.0283133E-2,4.3865327E-2,9.74021E-2,2.8479783E-2,-1.3176697E-2,2.3767492E-3,2.5517859E-2,1.6460755E-3],"split_indices":[48,17,72,88,79,63,72,0,0,0,0,0,0,0,0],"split_type":[0,0,0,0,0,0,0,0,0,0,0,0,0,0,0],"sum_hessian":[2.629E3,1.52E2,2.477E3,5.2E1,1E2,1.25E3,1.227E3,3.7E1,1.5E1,1.2E1,8.8E1,7.41E2,5.09E2,1.65E2,1.062E3],"tree_param":{"num_deleted":"0","num_feature":"89","num_nodes":"15","size_leaf_vector":"1"}},{"base_weights":[-5.7453934E-2,1.185989E0,-2.5362167E-1,1.7104197E0,-2.510808E0,-8.203657E-1,2.3236139E-1,1.8087234E-3,3.2773085E-2,-7.7199966E-2,8.09061E-3,-1.140743E-2,2.0856673E-2,3.348439E-2,4.5147652E-4],"categories":[],"categories_nodes":[],"categories_segments":[],"categories_sizes":[],"default_left":[0,0,0,0,0,0,0,0,0,0,0,0,0,0,0],"id":27,"left_children":[1,3,5,7,9,11,13,-1,-1,-1,-1,-1,-1,-1,-1],"loss_changes":[6.569425E2,7.1580237E2,6.408361E2,7.711224E2,8.017617E2,1.00230225E3,7.308146E2,0E0,0E0,0E0,0E0,0E0,0E0,0E0,0E0],"parents":[2147483647,0,0,1,1,2,2,3,3,4,4,5,5,6,6],"right_children":[2,4,6,8,10,12,14,-1,-1,-1,-1,-1,-1,-1,-1],"split_conditions":[4.329814E1,7.599077E0,2.647466E1,2.6182666E0,5.8626602E1,5.5932907E1,5.1E-1,1.8087234E-3,3.2773085E-2,-7.7199966E-2,8.09061E-3,-1.140743E-2,2.0856673E-2,3.348439E-2,4.5147652E-4],"split_indices":[26,73,55,76,29,20,18,0,0,0,0,0,0,0,0],"split_type":[0,0,0,0,0,0,0,0,0,0,0,0,0,0,0],"sum_hessian":[2.691E3,3.66E2,2.325E3,3.21E2,4.5E1,1.073E3,1.252E3,1.63E2,1.58E2,1.7E1,2.8E1,9.67E2,1.06E2,7E1,1.182E3],"tree_param":{"num_deleted":"0","num_feature":"89","num_nodes":"15","size_leaf_vector":"1"}},{"base_weights":[1.06015295E-1,-3.3103132E-1,8.6051923E-1,3.0950853E-1,-1.0812104E0,2.4825976E0,2.8403726E-1,-8.0694E-3,1.00598615E-2,-1.2576322E-2,6.398375E-2,-4.351547E-2,2.897658E-2,3.29919E-2,-7.2229316E-4],"categories":[],"categories_nodes":[],"categories_segments":[],"categories_sizes":[],"default_left":[0,0,0,0,0,0,0,0,0,0,0,0,0,0,0],"id":28,"left_children":[1,3,5,7,9,11,13,-1,-1,-1,-1,-1,-1,-1,-1],"loss_changes":[8.7479083E2,8.0760754E2,9.09146E2,7.060781E2,1.029388E3,7.35938E2,7.7258685E2,0E0,0E0,0E0,0E0,0E0,0E0,0E0,0E0],"parents":[2147483647,0,0,1,1,2,2,3,3,4,4,5,5,6,6],"right_children":[2,4,6,8,10,12,14,-1,-1,-1,-1,-1,-1,-1,-1],"split_conditions":[3.0418317E0,1.914906E1,6.6E-1,2.6342228E1,3.252049E1,5.8557247E1,5.7637318E1,-8.0694E-3,1.00598615E-2,-1.2576322E-2,6.398375E-2,-4.351547E-2,2.897658E-2,3.29919E-2,-7.2229316E-4],"split_indices":[76,52,25,55,9,51,50,0,0,0,0,0,0,0,0],"split_type":[0,0,0,0,0,0,0,0,0,0,0,0,0,0,0],"sum_hessian":[2.651E3,1.679E3,9.72E2,9.06E2,7.73E2,2.54E2,7.18E2,3.48E2,5.58E2,7.56E2,1.7E1,1.4E1,2.4E2,7.5E1,6.43E2],"tree_param":{"num_deleted":"0","num_feature":"89","num_nodes":"15","size_leaf_vector":"1"}},{"base_weights":[-1.6573156E-1,8.690251E-1,-4.8317862E-1,2.31366E0,-2.4751253E-1,-5.718025E-1,3.9623125E0,1.9510385E-2,9.4160095E-2,-2.38302E-2,1.1941152E-2,-3.2439765E-2,-4.324872E-3,-1.9180806E-2,5.2677922E-2],"categories":[],"categories_nodes":[],"categories_segments":[],"categories_sizes":[],"default_left":[0,0,0,0,0,0,0,0,0,0,0,0,0,0,0],"id":29,"left_children":[1,3,5,7,9,11,13,-1,-1,-1,-1,-1,-1,-1,-1],"loss_changes":[8.758203E2,1.01030383E3,8.059784E2,6.8473083E2,1.0926725E3,7.435187E2,3.171734E2,0E0,0E0,0E0,0E0,0E0,0E0,0E0,0E0],"parents":[2147483647,0,0,1,1,2,2,3,3,4,4,5,5,6,6],"right_children":[2,4,6,8,10,12,14,-1,-1,-1,-1,-1,-1,-1,-1],"split_conditions":[1.5945182E0,6.3493507E1,2.5814808E1,1.8210873E-1,2.3862774E1,1.382205E0,5.010519E0,1.9510385E-2,9.4160095E-2,-2.38302E-2,1.1941152E-2,-3.2439765E-2,-4.324872E-3,-1.9180806E-2,5.2677922E-2],"split_indices":[60,19,38,65,75,76,72,0,0,0,0,0,0,0,0],"split_type":[0,0,0,0,0,0,0,0,0,0,0,0,0,0,0],"sum_hessian":[2.664E3,6.25E2,2.039E3,2.72E2,3.53E2,2E3,3.9E1,2.6E2,1.2E1,1.42E2,2.11E2,9.8E1,1.902E3,7E0,3.2E1],"tree_param":{"num_deleted":"0","num_feature":"89","num_nodes":"15","size_leaf_vector":"1"}},{"base_weights":[7.173939E-2,-1.5453757E-1,1.6044604E0,7.278403E-1,-5.556719E-1,9.107582E-1,4.8305974E0,-2.571781E-3,1.6792178E-2,-9.781546E-3,3.9688647E-3,6.534263E-4,3.964109E-2,5.54732E-2,-4.3061614E-2],"categories":[],"categories_nodes":[],"categories_segments":[],"categories_sizes":[],"default_left":[0,0,0,0,0,0,0,0,0,0,0,0,0,0,0],"id":30,"left_children":[1,3,5,7,9,11,13,-1,-1,-1,-1,-1,-1,-1,-1],"loss_changes":[9.328454E2,8.30068E2,7.699411E2,6.87344E2,6.4912067E2,7.380071E2,4.233474E2,0E0,0E0,0E0,0E0,0E0,0E0,0E0,0E0],"parents":[2147483647,0,0,1,1,2,2,3,3,4,4,5,5,6,6],"right_children":[2,4,6,8,10,12,14,-1,-1,-1,-1,-1,-1,-1,-1],"split_conditions":[8.420296E0,2.4989262E1,2.7457504E1,1.2246469E-16,2.540745E1,2.3508987E1,2.9642061E1,-2.571781E-3,1.6792178E-2,-9.781546E-3,3.9688647E-3,6.534263E-4,3.964109E-2,5.54732E-2,-4.3061614E-2],"split_indices":[72,9,88,78,21,31,23,0,0,0,0,0,0,0,0],"split_type":[0,0,0,0,0,0,0,0,0,0,0,0,0,0,0],"sum_hessian":[2.688E3,2.343E3,3.45E2,7.32E2,1.611E3,2.85E2,6E1,3.6E2,3.72E2,1.116E3,4.95E2,2.24E2,6.1E1,5.6E1,4E0],"tree_param":{"num_deleted":"0","num_feature":"89","num_nodes":"15","size_leaf_vector":"1"}},{"base_weights":[-1.8800514E-2,-5.582698E-1,5.1908547E-1,-1.5789667E0,8.6431485E-3,1.2753907E0,-3.9352253E-1,-5.8479637E-2,-1.11408895E-2,-1.2229631E-2,7.714876E-3,7.3247245E-3,2.8972512E-2,-1.5920145E-2,6.4588087E-3],"categories":[],"categories_nodes":[],"categories_segments":[],"categories_sizes":[],"default_left":[0,0,0,0,0,0,0,0,0,0,0,0,0,0,0],"id":31,"left_children":[1,3,5,7,9,11,13,-1,-1,-1,-1,-1,-1,-1,-1],"loss_changes":[7.8288617E2,7.794502E2,9.329761E2,9.4805945E2,8.155108E2,6.485952E2,7.646525E2,0E0,0E0,0E0,0E0,0E0,0E0,0E0,0E0],"parents":[2147483647,0,0,1,1,2,2,3,3,4,4,5,5,6,6],"right_children":[2,4,6,8,10,12,14,-1,-1,-1,-1,-1,-1,-1,-1],"split_conditions":[6.043882E0,2.535299E0,6.8782295E1,2.2437714E1,4.623466E1,8.058655E1,2.359992E1,-5.8479637E-2,-1.11408895E-2,-1.2229631E-2,7.714876E-3,7.3247245E-3,2.8972512E-2,-1.5920145E-2,6.4588087E-3],"split_indices":[72,77,22,74,34,33,49,0,0,0,0,0,0,0,0],"split_type":[0,0,0,0,0,0,0,0,0,0,0,0,0,0,0],"sum_hessian":[2.696E3,1.346E3,1.35E3,4.8E2,8.66E2,7.38E2,6.12E2,4.6E1,4.34E2,3.31E2,5.35E2,5.54E2,1.84E2,2.84E2,3.28E2],"tree_param":{"num_deleted":"0","num_feature":"89","num_nodes":"15","size_leaf_vector":"1"}},{"base_weights":[4.676285E-2,-4.8817918E-1,5.9182394E-1,-3.7649462E-1,-4.2099357E0,-6.428853E-1,1.060523E0,-4.0747188E-2,-2.562385E-3,2.132145E-2,-6.470382E-2,-3.7216367E-3,-6.490901E-2,4.5053996E-2,7.99705E-3],"categories":[],"categories_nodes":[],"categories_segments":[],"categories_sizes":[],"default_left":[0,0,0,0,0,0,0,0,0,0,0,0,0,0,0],"id":32,"left_children":[1,3,5,7,9,11,13,-1,-1,-1,-1,-1,-1,-1,-1],"loss_changes":[7.7529816E2,5.562344E2,7.62839E2,5.78889E2,5.728973E2,5.722803E2,8.544513E2,0E0,0E0,0E0,0E0,0E0,0E0,0E0,0E0],"parents":[2147483647,0,0,1,1,2,2,3,3,4,4,5,5,6,6],"right_children":[2,4,6,8,10,12,14,-1,-1,-1,-1,-1,-1,-1,-1],"split_conditions":[6.0623307E0,5.971205E1,7.45E-1,5.2806826E0,4.3474514E1,1.02E0,6.233072E0,-4.0747188E-2,-2.562385E-3,2.132145E-2,-6.470382E-2,-3.7216367E-3,-6.490901E-2,4.5053996E-2,7.99705E-3],"split_indices":[72,41,63,88,13,11,72,0,0,0,0,0,0,0,0],"split_type":[0,0,0,0,0,0,0,0,0,0,0,0,0,0,0],"sum_hessian":[2.657E3,1.341E3,1.316E3,1.303E3,3.8E1,3.62E2,9.54E2,4E1,1.263E3,1E1,2.8E1,3.47E2,1.5E1,6.6E1,8.88E2],"tree_param":{"num_deleted":"0","num_feature":"89","num_nodes":"15","size_leaf_vector":"1"}},{"base_weights":[-4.4841062E-2,-2.92143E-1,1.715635E0,2.0859528E0,-4.3581298E-1,2.6123087E0,-9.8425335E-1,4.0180262E-2,3.6641716E-3,-5.133925E-3,3.6922064E-2,4.1407313E-2,1.9032339E-3,-4.012801E-2,1.199082E-2],"categories":[],"categories_nodes":[],"categories_segments":[],"categories_sizes":[],"default_left":[0,0,0,0,0,0,0,0,0,0,0,0,0,0,0],"id":33,"left_children":[1,3,5,7,9,11,13,-1,-1,-1,-1,-1,-1,-1,-1],"loss_changes":[1.1664197E3,8.034708E2,8.0147437E2,4.437118E2,7.1156885E2,9.172627E2,5.5363556E2,0E0,0E0,0E0,0E0,0E0,0E0,0E0,0E0],"parents":[2147483647,0,0,1,1,2,2,3,3,4,4,5,5,6,6],"right_children":[2,4,6,8,10,12,14,-1,-1,-1,-1,-1,-1,-1,-1],"split_conditions":[8.420296E0,3.78913E1,9.947659E0,2.1223019E1,3.2380634E1,7.320521E1,2.0561237E1,4.0180262E-2,3.6641716E-3,-5.133925E-3,3.6922064E-2,4.1407313E-2,1.9032339E-3,-4.012801E-2,1.199082E-2],"split_indices":[72,48,72,45,9,26,87,0,0,0,0,0,0,0,0],"split_type":[0,0,0,0,0,0,0,0,0,0,0,0,0,0,0],"sum_hessian":[2.677E3,2.348E3,3.29E2,1.33E2,2.215E3,2.47E2,8.2E1,6.2E1,7.1E1,2.175E3,4E1,1.51E2,9.6E1,3.4E1,4.8E1],"tree_param":{"num_deleted":"0","num_feature":"89","num_nodes":"15","size_leaf_vector":"1"}},{"base_weights":[4.589775E-2,5.096611E-1,-5.231635E-1,1.2724292E0,-2.1326506E-1,-2.578563E0,-6.657369E-2,1.4359098E-2,-5.1195137E-2,-1.2230365E-2,8.86606E-3,-5.2413795E-2,-1.7288942E-2,1.9491544E-3,-3.0862547E-2],"categories":[],"categories_nodes":[],"categories_segments":[],"categories_sizes":[],"default_left":[0,0,0,0,0,0,0,0,0,0,0,0,0,0,0],"id":34,"left_children":[1,3,5,7,9,11,13,-1,-1,-1,-1,-1,-1,-1,-1],"loss_changes":[7.017387E2,8.08109E2,1.120367E3,7.524071E2,8.3738E2,4.8190344E2,7.728439E2,0E0,0E0,0E0,0E0,0E0,0E0,0E0,0E0],"parents":[2147483647,0,0,1,1,2,2,3,3,4,4,5,5,6,6],"right_children":[2,4,6,8,10,12,14,-1,-1,-1,-1,-1,-1,-1,-1],"split_conditions":[2.1238582E0,7.7E-1,2.400509E0,3.6985474E0,2.8571367E0,8.4E-1,5.17E0,1.4359098E-2,-5.1195137E-2,-1.2230365E-2,8.86606E-3,-5.2413795E-2,-1.7288942E-2,1.9491544E-3,-3.0862547E-2],"split_indices":[60,32,56,57,77,7,7,0,0,0,0,0,0,0,0],"split_type":[0,0,0,0,0,0,0,0,0,0,0,0,0,0,0],"sum_hessian":[2.657E3,1.464E3,1.193E3,7.12E2,7.52E2,2.16E2,9.77E2,6.95E2,1.7E1,3.92E2,3.6E2,5.1E1,1.65E2,9E2,7.7E1],"tree_param":{"num_deleted":"0","num_feature":"89","num_nodes":"15","size_leaf_vector":"1"}},{"base_weights":[6.3544E-2,-1.5487877E-1,1.5661323E0,7.8822005E-1,-5.0241935E-1,2.6239736E0,-1.5170003E0,1.517724E-2,-6.305317E-3,-4.643982E-3,-1.1286387E-1,3.4151215E-2,-1.4695893E-2,6.6410586E-2,-2.19492E-2],"categories":[],"categories_nodes":[],"categories_segments":[],"categories_sizes":[],"default_left":[0,0,0,0,0,0,0,0,0,0,0,0,0,0,0],"id":35,"left_children":[1,3,5,7,9,11,13,-1,-1,-1,-1,-1,-1,-1,-1],"loss_changes":[8.84412E2,7.7162726E2,1.1194019E3,6.5713745E2,6.999907E2,8.3086536E2,5.0126138E2,0E0,0E0,0E0,0E0,0E0,0E0,0E0,0E0],"parents":[2147483647,0,0,1,1,2,2,3,3,4,4,5,5,6,6],"right_children":[2,4,6,8,10,12,14,-1,-1,-1,-1,-1,-1,-1,-1],"split_conditions":[8.420296E0,1.4757898E1,9.947659E0,7.125647E1,3.1919214E1,2.9504974E1,9.973298E-2,1.517724E-2,-6.305317E-3,-4.643982E-3,-1.1286387E-1,3.4151215E-2,-1.4695893E-2,6.6410586E-2,-2.19492E-2],"split_indices":[72,52,72,15,35,23,64,0,0,0,0,0,0,0,0],"split_type":[0,0,0,0,0,0,0,0,0,0,0,0,0,0,0],"sum_hessian":[2.693E3,2.352E3,3.41E2,6.33E2,1.719E3,2.54E2,8.7E1,4.18E2,2.15E2,1.714E3,5E0,2.13E2,4.1E1,6E0,8.1E1],"tree_param":{"num_deleted":"0","num_feature":"89","num_nodes":"15","size_leaf_vector":"1"}},{"base_weights":[-2.502722E-2,-5.30367E-1,4.682993E-1,1.1348653E0,-9.0233845E-1,1.2403438E0,-4.0343496E-1,3.425196E-2,-5.5397376E-3,1.3546638E-2,-1.1826326E-2,9.104938E-3,4.1197065E-2,-1.3919479E-2,4.388479E-3],"categories":[],"categories_nodes":[],"categories_segments":[],"categories_sizes":[],"default_left":[0,0,0,0,0,0,0,0,0,0,0,0,0,0,0],"id":36,"left_children":[1,3,5,7,9,11,13,-1,-1,-1,-1,-1,-1,-1,-1],"loss_changes":[6.621333E2,8.1370166E2,9.0503613E2,9.3021765E2,6.8040826E2,6.734263E2,5.2681885E2,0E0,0E0,0E0,0E0,0E0,0E0,0E0,0E0],"parents":[2147483647,0,0,1,1,2,2,3,3,4,4,5,5,6,6],"right_children":[2,4,6,8,10,12,14,-1,-1,-1,-1,-1,-1,-1,-1],"split_conditions":[6.043882E0,4.216526E1,6.759995E1,6.0103752E1,3.9912952E1,3.0392618E1,2.3387295E1,3.425196E-2,-5.5397376E-3,1.3546638E-2,-1.1826326E-2,9.104938E-3,4.1197065E-2,-1.3919479E-2,4.388479E-3],"split_indices":[72,41,22,5,48,44,49,0,0,0,0,0,0,0,0],"split_type":[0,0,0,0,0,0,0,0,0,0,0,0,0,0,0],"sum_hessian":[2.654E3,1.311E3,1.343E3,2.39E2,1.072E3,7.12E2,6.31E2,1.01E2,1.38E2,1.18E2,9.54E2,6.4E2,7.2E1,2.9E2,3.41E2],"tree_param":{"num_deleted":"0","num_feature":"89","num_nodes":"15","size_leaf_vector":"1"}},{"base_weights":[-3.226429E-3,-5.062261E-1,4.9193376E-1,1.3464472E-1,-1.2340016E0,4.1103014E-1,6.442483E0,1.865181E-2,-6.371172E-3,-3.5204723E-2,-6.6792965E-3,8.7902E-3,-7.069991E-3,1.0459223E-1,-1.3637115E-2],"categories":[],"categories_nodes":[],"categories_segments":[],"categories_sizes":[],"default_left":[0,0,0,0,0,0,0,0,0,0,0,0,0,0,0],"id":37,"left_children":[1,3,5,7,9,11,13,-1,-1,-1,-1,-1,-1,-1,-1],"loss_changes":[6.6575183E2,6.1862585E2,6.458259E2,9.4409515E2,8.0141327E2,6.965126E2,5.7866144E2,0E0,0E0,0E0,0E0,0E0,0E0,0E0,0E0],"parents":[2147483647,0,0,1,1,2,2,3,3,4,4,5,5,6,6],"right_children":[2,4,6,8,10,12,14,-1,-1,-1,-1,-1,-1,-1,-1],"split_conditions":[6.043882E0,6.123234E-17,2.0192507E-1,2.4989262E1,1.9637022E1,4.9497868E1,7.7E-1,1.865181E-2,-6.371172E-3,-3.5204723E-2,-6.6792965E-3,8.7902E-3,-7.069991E-3,1.0459223E-1,-1.3637115E-2],"split_indices":[72,79,65,9,17,70,32,0,0,0,0,0,0,0,0],"split_type":[0,0,0,0,0,0,0,0,0,0,0,0,0,0,0],"sum_hessian":[2.671E3,1.325E3,1.346E3,7.05E2,6.2E2,1.329E3,1.7E1,2.17E2,4.88E2,1.22E2,4.98E2,9.37E2,3.92E2,1.1E1,6E0],"tree_param":{"num_deleted":"0","num_feature":"89","num_nodes":"15","size_leaf_vector":"1"}},{"base_weights":[-6.799121E-2,-2.741495E-1,1.3903164E0,-3.9668673E-1,2.7855191E0,4.1207707E-1,4.250254E0,2.0009901E-2,-5.39003E-3,-2.5673067E-2,4.4518474E-2,-2.4911278E-4,1.07711926E-1,6.252705E-2,-2.0872524E-3],"categories":[],"categories_nodes":[],"categories_segments":[],"categories_sizes":[],"default_left":[0,0,0,0,0,0,0,0,0,0,0,0,0,0,0],"id":38,"left_children":[1,3,5,7,9,11,13,-1,-1,-1,-1,-1,-1,-1,-1],"loss_changes":[8.0099133E2,8.761758E2,9.214908E2,7.6713666E2,8.1419006E2,1.118391E3,7.5133167E2,0E0,0E0,0E0,0E0,0E0,0E0,0E0,0E0],"parents":[2147483647,0,0,1,1,2,2,3,3,4,4,5,5,6,6],"right_children":[2,4,6,8,10,12,14,-1,-1,-1,-1,-1,-1,-1,-1],"split_conditions":[8.420296E0,5.015951E1,2.6329514E1,3.78913E1,5.0248875E1,9.9246735E1,7.231961E1,2.0009901E-2,-5.39003E-3,-2.5673067E-2,4.4518474E-2,-2.4911278E-4,1.07711926E-1,6.252705E-2,-2.0872524E-3],"split_indices":[72,71,88,48,12,33,26,0,0,0,0,0,0,0,0],"split_type":[0,0,0,0,0,0,0,0,0,0,0,0,0,0,0],"sum_hessian":[2.662E3,2.333E3,3.29E2,2.244E3,8.9E1,2.46E2,8.3E1,1.25E2,2.119E3,2.1E1,6.8E1,2.37E2,9E0,5.7E1,2.6E1],"tree_param":{"num_deleted":"0","num_feature":"89","num_nodes":"15","size_leaf_vector":"1"}},{"base_weights":[-3.0745366E-3,6.186374E0,-4.877856E-2,1.2568979E0,1.0497213E1,-1.6197084E-1,2.4633057E0,-3.65627E-2,3.8848653E-2,1.3256691E-1,3.0438237E-2,-6.913069E-3,3.752884E-3,6.589295E-2,9.23757E-3],"categories":[],"categories_nodes":[],"categories_segments":[],"categories_sizes":[],"default_left":[0,0,0,0,0,0,0,0,0,0,0,0,0,0,0],"id":39,"left_children":[1,3,5,7,9,11,13,-1,-1,-1,-1,-1,-1,-1,-1],"loss_changes":[7.3325085E2,3.905595E2,7.320278E2,1.4332057E2,1.6532361E2,7.0071375E2,6.990031E2,0E0,0E0,0E0,0E0,0E0,0E0,0E0,0E0],"parents":[2147483647,0,0,1,1,2,2,3,3,4,4,5,5,6,6],"right_children":[2,4,6,8,10,12,14,-1,-1,-1,-1,-1,-1,-1,-1],"split_conditions":[3.346133E1,4.7486637E1,5.015951E1,2.52E0,2.1372278E1,6.043882E0,2.314821E1,-3.65627E-2,3.8848653E-2,1.3256691E-1,3.0438237E-2,-6.913069E-3,3.752884E-3,6.589295E-2,9.23757E-3],"split_indices":[41,71,71,7,31,72,21,0,0,0,0,0,0,0,0],"split_type":[0,0,0,0,0,0,0,0,0,0,0,0,0,0,0],"sum_hessian":[2.59E3,1.8E1,2.572E3,9E0,9E0,2.462E3,1.1E2,3E0,6E0,6E0,3E0,1.24E3,1.222E3,2.9E1,8.1E1],"tree_param":{"num_deleted":"0","num_feature":"89","num_nodes":"15","size_leaf_vector":"1"}},{"base_weights":[-5.9703086E-3,-1.096546E-1,2.4884343E0,-6.520359E-1,4.4103202E-1,5.15126E-1,6.5940156E0,7.3738856E-4,-1.579186E-2,8.000209E-3,-1.637666E-2,-9.644046E-2,1.0965979E-2,7.829087E-2,-2.1352181E-2],"categories":[],"categories_nodes":[],"categories_segments":[],"categories_sizes":[],"default_left":[0,0,0,0,0,0,0,0,0,0,0,0,0,0,0],"id":40,"left_children":[1,3,5,7,9,11,13,-1,-1,-1,-1,-1,-1,-1,-1],"loss_changes":[6.804712E2,7.5475867E2,8.472689E2,8.5672076E2,9.37082E2,4.358993E2,3.8327856E2,0E0,0E0,0E0,0E0,0E0,0E0,0E0,0E0],"parents":[2147483647,0,0,1,1,2,2,3,3,4,4,5,5,6,6],"right_children":[2,4,6,8,10,12,14,-1,-1,-1,-1,-1,-1,-1,-1],"split_conditions":[5.015951E1,6.043882E0,5.1547874E1,2.5881904E-1,3.4195075E0,5E-1,3.1451105E1,7.3738856E-4,-1.579186E-2,8.000209E-3,-1.637666E-2,-9.644046E-2,1.0965979E-2,7.829087E-2,-2.1352181E-2],"split_indices":[71,72,48,79,77,4,2,0,0,0,0,0,0,0,0],"split_type":[0,0,0,0,0,0,0,0,0,0,0,0,0,0,0],"sum_hessian":[2.629E3,2.525E3,1.04E2,1.272E3,1.253E3,7.1E1,3.3E1,7.14E2,5.58E2,1.069E3,1.84E2,3E0,6.8E1,2.9E1,4E0],"tree_param":{"num_deleted":"0","num_feature":"89","num_nodes":"15","size_leaf_vector":"1"}},{"base_weights":[-9.779033E-2,-4.544764E-1,5.2484345E-1,4.021728E0,-5.8302945E-1,1.3136601E0,-3.6069074E-1,-1.7924696E-2,6.0663804E-2,-8.4989155E-3,1.0907115E-2,-2.2136332E-2,1.737149E-2,-6.4907847E-3,5.0716657E-2],"categories":[],"categories_nodes":[],"categories_segments":[],"categories_sizes":[],"default_left":[0,0,0,0,0,0,0,0,0,0,0,0,0,0,0],"id":41,"left_children":[1,3,5,7,9,11,13,-1,-1,-1,-1,-1,-1,-1,-1],"loss_changes":[5.8654236E2,9.6849146E2,6.724541E2,5.696105E2,7.303195E2,7.641742E2,7.145397E2,0E0,0E0,0E0,0E0,0E0,0E0,0E0,0E0],"parents":[2147483647,0,0,1,1,2,2,3,3,4,4,5,5,6,6],"right_children":[2,4,6,8,10,12,14,-1,-1,-1,-1,-1,-1,-1,-1],"split_conditions":[6.657972E1,2.1303308E0,7.8E-1,6.8E-1,2.515028E0,3.9616615E1,2.6765192E1,-1.7924696E-2,6.0663804E-2,-8.4989155E-3,1.0907115E-2,-2.2136332E-2,1.737149E-2,-6.4907847E-3,5.0716657E-2],"split_indices":[67,57,46,39,61,6,84,0,0,0,0,0,0,0,0],"split_type":[0,0,0,0,0,0,0,0,0,0,0,0,0,0,0],"sum_hessian":[2.639E3,1.678E3,9.61E2,4.6E1,1.632E3,5.08E2,4.53E2,1.2E1,3.4E1,1.408E3,2.24E2,5.4E1,4.54E2,4.31E2,2.2E1],"tree_param":{"num_deleted":"0","num_feature":"89","num_nodes":"15","size_leaf_vector":"1"}},{"base_weights":[1.5078869E-2,-9.4491236E-2,2.7307818E0,-3.1170738E-1,1.3545524E0,8.865232E-1,5.99658E0,1.8826503E-3,-9.135474E-3,2.2810105E-2,-1.2507119E-2,8.214109E-2,-1.0526351E-3,1.2674384E-1,4.0159464E-2],"categories":[],"categories_nodes":[],"categories_segments":[],"categories_sizes":[],"default_left":[0,0,0,0,0,0,0,0,0,0,0,0,0,0,0],"id":42,"left_children":[1,3,5,7,9,11,13,-1,-1,-1,-1,-1,-1,-1,-1],"loss_changes":[7.9027936E2,8.039934E2,6.150504E2,6.684785E2,8.066045E2,4.8778052E2,4.384729E2,0E0,0E0,0E0,0E0,0E0,0E0,0E0,0E0],"parents":[2147483647,0,0,1,1,2,2,3,3,4,4,5,5,6,6],"right_children":[2,4,6,8,10,12,14,-1,-1,-1,-1,-1,-1,-1,-1],"split_conditions":[5.015951E1,8.420296E0,5.1547874E1,2.423745E1,9.947659E0,3.8049644E1,5.2302048E1,1.8826503E-3,-9.135474E-3,2.2810105E-2,-1.2507119E-2,8.214109E-2,-1.0526351E-3,1.2674384E-1,4.0159464E-2],"split_indices":[71,72,48,35,72,48,48,0,0,0,0,0,0,0,0],"split_type":[0,0,0,0,0,0,0,0,0,0,0,0,0,0,0],"sum_hessian":[2.654E3,2.552E3,1.02E2,2.22E3,3.32E2,6.6E1,3.6E1,1.213E3,1.007E3,2.45E2,8.7E1,7E0,5.9E1,7E0,2.9E1],"tree_param":{"num_deleted":"0","num_feature":"89","num_nodes":"15","size_leaf_vector":"1"}},{"base_weights":[1.0466921E-1,5.6999624E-1,-4.426136E-1,7.112666E-1,-3.061266E0,-5.9047806E-1,2.8956916E0,4.288239E-3,2.5394825E-2,1.09523805E-2,-4.840195E-2,-7.970047E-3,1.8693656E-2,-1.6493298E-2,6.850329E-2],"categories":[],"categories_nodes":[],"categories_segments":[],"categories_sizes":[],"default_left":[0,0,0,0,0,0,0,0,0,0,0,0,0,0,0],"id":43,"left_children":[1,3,5,7,9,11,13,-1,-1,-1,-1,-1,-1,-1,-1],"loss_changes":[6.7715314E2,7.393436E2,6.0490936E2,7.135618E2,4.0458395E2,5.9638513E2,9.459419E2,0E0,0E0,0E0,0E0,0E0,0E0,0E0,0E0],"parents":[2147483647,0,0,1,1,2,2,3,3,4,4,5,5,6,6],"right_children":[2,4,6,8,10,12,14,-1,-1,-1,-1,-1,-1,-1,-1],"split_conditions":[6.759995E1,1.03E0,5.015951E1,8.298195E0,1.5067295E1,9.216809E1,7.2E-1,4.288239E-3,2.5394825E-2,1.09523805E-2,-4.840195E-2,-7.970047E-3,1.8693656E-2,-1.6493298E-2,6.850329E-2],"split_indices":[22,39,71,72,88,5,4,0,0,0,0,0,0,0,0],"split_type":[0,0,0,0,0,0,0,0,0,0,0,0,0,0,0],"sum_hessian":[2.657E3,1.436E3,1.221E3,1.383E3,5.3E1,1.17E3,5.1E1,1.199E3,1.84E2,1.6E1,3.7E1,1.08E3,9E1,2.4E1,2.7E1],"tree_param":{"num_deleted":"0","num_feature":"89","num_nodes":"15","size_leaf_vector":"1"}},{"base_weights":[-7.465603E-2,2.2614646E0,-2.132735E-1,8.508857E-1,4.872329E0,-1.6645304E0,-9.406901E-3,-1.4386809E-2,3.9573453E-2,3.1747008E-3,6.116979E-2,-1.4069089E-2,-9.9238425E-2,4.085834E-2,-9.0649555E-4],"categories":[],"categories_nodes":[],"categories_segments":[],"categories_sizes":[],"default_left":[0,0,0,0,0,0,0,0,0,0,0,0,0,0,0],"id":44,"left_children":[1,3,5,7,9,11,13,-1,-1,-1,-1,-1,-1,-1,-1],"loss_changes":[8.440519E2,5.335475E2,7.278068E2,6.8848816E2,2.871875E2,6.307543E2,7.183548E2,0E0,0E0,0E0,0E0,0E0,0E0,0E0,0E0],"parents":[2147483647,0,0,1,1,2,2,3,3,4,4,5,5,6,6],"right_children":[2,4,6,8,10,12,14,-1,-1,-1,-1,-1,-1,-1,-1],"split_conditions":[3.78913E1,7.75E-1,2.2627718E1,4.9644505E1,4.631686E1,9.191156E0,1.1898834E0,-1.4386809E-2,3.9573453E-2,3.1747008E-3,6.116979E-2,-1.4069089E-2,-9.9238425E-2,4.085834E-2,-9.0649555E-4],"split_indices":[48,63,74,13,70,72,56,0,0,0,0,0,0,0,0],"split_type":[0,0,0,0,0,0,0,0,0,0,0,0,0,0,0],"sum_hessian":[2.604E3,1.45E2,2.459E3,9.5E1,5E1,3.02E2,2.157E3,5.5E1,4E1,1.1E1,3.9E1,2.94E2,8E0,4.1E1,2.116E3],"tree_param":{"num_deleted":"0","num_feature":"89","num_nodes":"15","size_leaf_vector":"1"}},{"base_weights":[8.621822E-3,-2.4212526E-1,1.1698458E0,-1.2571315E-1,-2.9337282E0,-7.469669E0,1.3551182E0,-3.9559305E-2,-3.342502E-4,7.0375726E-2,-3.4793418E-2,-3.5760812E-2,-1.06480405E-1,1.11368E-2,7.581201E-2],"categories":[],"categories_nodes":[],"categories_segments":[],"categories_sizes":[],"default_left":[0,0,0,0,0,0,0,0,0,0,0,0,0,0,0],"id":45,"left_children":[1,3,5,7,9,11,13,-1,-1,-1,-1,-1,-1,-1,-1],"loss_changes":[7.689814E2,6.801952E2,7.6083356E2,7.3617413E2,5.141291E2,8.567444E1,6.8303534E2,0E0,0E0,0E0,0E0,0E0,0E0,0E0,0E0],"parents":[2147483647,0,0,1,1,2,2,3,3,4,4,5,5,6,6],"right_children":[2,4,6,8,10,12,14,-1,-1,-1,-1,-1,-1,-1,-1],"split_conditions":[8.4536674E1,3.0677736E1,2.1791397E1,5.2806826E0,-9.659258E-1,6.1739285E1,1.04E0,-3.9559305E-2,-3.342502E-4,7.0375726E-2,-3.4793418E-2,-3.5760812E-2,-1.06480405E-1,1.11368E-2,7.581201E-2],"split_indices":[82,83,74,88,78,29,4,0,0,0,0,0,0,0,0],"split_type":[0,0,0,0,0,0,0,0,0,0,0,0,0,0,0],"sum_hessian":[2.639E3,2.171E3,4.68E2,2.082E3,8.9E1,9E0,4.59E2,4.8E1,2.034E3,4E0,8.5E1,5E0,4E0,4.43E2,1.6E1],"tree_param":{"num_deleted":"0","num_feature":"89","num_nodes":"15","size_leaf_vector":"1"}},{"base_weights":[7.334325E-2,9.60276E-1,-2.3521177E-1,-1.7274379E0,1.4536066E0,-1.171757E-1,-2.7953835E0,-3.941239E-3,-8.298038E-2,7.966774E-2,1.2669207E-2,-1.0760044E-2,2.1757404E-3,-3.829611E-2,3.3863433E-2],"categories":[],"categories_nodes":[],"categories_segments":[],"categories_sizes":[],"default_left":[0,0,0,0,0,0,0,0,0,0,0,0,0,0,0],"id":46,"left_children":[1,3,5,7,9,11,13,-1,-1,-1,-1,-1,-1,-1,-1],"loss_changes":[7.284552E2,9.1342615E2,5.965028E2,9.3412164E2,6.9635474E2,6.06542E2,5.6918665E2,0E0,0E0,0E0,0E0,0E0,0E0,0E0,0E0],"parents":[2147483647,0,0,1,1,2,2,3,3,4,4,5,5,6,6],"right_children":[2,4,6,8,10,12,14,-1,-1,-1,-1,-1,-1,-1,-1],"split_conditions":[6.6E-1,5.4095486E1,5.9E0,5.352622E1,5.4748993E1,2.13233E1,9.031879E1,-3.941239E-3,-8.298038E-2,7.966774E-2,1.2669207E-2,-1.0760044E-2,2.1757404E-3,-3.829611E-2,3.3863433E-2],"split_indices":[25,50,7,50,50,59,15,0,0,0,0,0,0,0,0],"split_type":[0,0,0,0,0,0,0,0,0,0,0,0,0,0,0],"sum_hessian":[2.66E3,6.86E2,1.974E3,1.06E2,5.8E2,1.888E3,8.6E1,8.9E1,1.7E1,1.5E1,5.65E2,4.88E2,1.4E3,7.4E1,1.2E1],"tree_param":{"num_deleted":"0","num_feature":"89","num_nodes":"15","size_leaf_vector":"1"}},{"base_weights":[6.4446586E-3,7.032514E-2,-4.275351E0,-3.726845E-2,2.7477505E0,1.8176464E0,-7.0506697E0,7.4777356E-3,-3.7977835E-3,-2.516824E-2,3.8431622E-2,4.1543964E-2,-4.4786405E-2,-1.411609E-2,-8.59461E-2],"categories":[],"categories_nodes":[],"categories_segments":[],"categories_sizes":[],"default_left":[0,0,0,0,0,0,0,0,0,0,0,0,0,0,0],"id":47,"left_children":[1,3,5,7,9,11,13,-1,-1,-1,-1,-1,-1,-1,-1],"loss_changes":[7.25684E2,7.531273E2,6.7230615E2,6.7626013E2,5.9212714E2,2.0987311E2,2.2293982E2,0E0,0E0,0E0,0E0,0E0,0E0,0E0,0E0],"parents":[2147483647,0,0,1,1,2,2,3,3,4,4,5,5,6,6],"right_children":[2,4,6,8,10,12,14,-1,-1,-1,-1,-1,-1,-1,-1],"split_conditions":[8.414466E0,5.015951E1,4.1456482E1,5.4822124E1,6.3E-1,1.8661904E-1,4.10105E1,7.4777356E-3,-3.7977835E-3,-2.516824E-2,3.8431622E-2,4.1543964E-2,-4.4786405E-2,-1.411609E-2,-8.59461E-2],"split_indices":[73,71,27,22,11,64,34,0,0,0,0,0,0,0,0],"split_type":[0,0,0,0,0,0,0,0,0,0,0,0,0,0,0],"sum_hessian":[2.651E3,2.613E3,3.8E1,2.513E3,1E2,1.2E1,2.6E1,7.63E2,1.75E3,1.7E1,8.3E1,9E0,3E0,6E0,2E1],"tree_param":{"num_deleted":"0","num_feature":"89","num_nodes":"15","size_leaf_vector":"1"}},{"base_weights":[5.0993107E-2,-1.0552079E-1,1.4605923E0,7.431114E-2,-1.5279207E0,3.5658166E0,6.967452E-2,-8.9311687E-4,2.0452678E-2,-9.8611945E-3,-5.421993E-2,2.956326E-2,1.5408158E-1,-4.1746378E-2,1.1383206E-2],"categories":[],"categories_nodes":[],"categories_segments":[],"categories_sizes":[],"default_left":[0,0,0,0,0,0,0,0,0,0,0,0,0,0,0],"id":48,"left_children":[1,3,5,7,9,11,13,-1,-1,-1,-1,-1,-1,-1,-1],"loss_changes":[5.9384766E2,6.1989984E2,7.874357E2,6.9418866E2,5.685225E2,7.2675244E2,7.4406586E2,0E0,0E0,0E0,0E0,0E0,0E0,0E0,0E0],"parents":[2147483647,0,0,1,1,2,2,3,3,4,4,5,5,6,6],"right_children":[2,4,6,8,10,12,14,-1,-1,-1,-1,-1,-1,-1,-1],"split_conditions":[9.168661E1,8.333333E-1,4.6204975E1,2.2826004E1,2.259954E1,2.4848877E-1,1.9883338E0,-8.9311687E-4,2.0452678E-2,-9.8611945E-3,-5.421993E-2,2.956326E-2,1.5408158E-1,-4.1746378E-2,1.1383206E-2],"split_indices":[5,62,48,69,53,64,76,0,0,0,0,0,0,0,0],"split_type":[0,0,0,0,0,0,0,0,0,0,0,0,0,0,0],"sum_hessian":[2.69E3,2.422E3,2.68E2,2.151E3,2.71E2,1.06E2,1.62E2,1.987E3,1.64E2,2.39E2,3.2E1,1.02E2,4E0,3.2E1,1.3E2],"tree_param":{"num_deleted":"0","num_feature":"89","num_nodes":"15","size_leaf_vector":"1"}},{"base_weights":[-1.8559378E-1,-2.1821469E-1,6.4858575E0,1.7623272E0,-3.2925257E-1,-1.684387E0,9.10537E0,8.594852E-3,5.7226095E-2,-2.5636852E-3,-3.304723E-2,-2.7100222E-2,6.962595E-3,1.1223514E-1,3.1222757E-2],"categories":[],"categories_nodes":[],"categories_segments":[],"categories_sizes":[],"default_left":[0,0,0,0,0,0,0,0,0,0,0,0,0,0,0],"id":49,"left_children":[1,3,5,7,9,11,13,-1,-1,-1,-1,-1,-1,-1,-1],"loss_changes":[5.813961E2,5.840152E2,2.935636E2,4.992283E2,5.4413293E2,1.1653579E1,9.168762E1,0E0,0E0,0E0,0E0,0E0,0E0,0E0,0E0],"parents":[2147483647,0,0,1,1,2,2,3,3,4,4,5,5,6,6],"right_children":[2,4,6,8,10,12,14,-1,-1,-1,-1,-1,-1,-1,-1],"split_conditions":[6.534716E1,3.78913E1,2.3339813E1,2.422331E1,8.313456E0,7.898595E1,2.5660613E0,8.594852E-3,5.7226095E-2,-2.5636852E-3,-3.304723E-2,-2.7100222E-2,6.962595E-3,1.1223514E-1,3.1222757E-2],"split_indices":[48,48,9,68,73,0,56,0,0,0,0,0,0,0,0],"split_type":[0,0,0,0,0,0,0,0,0,0,0,0,0,0,0],"sum_hessian":[2.664E3,2.652E3,1.2E1,1.4E2,2.512E3,3E0,9E0,1.15E2,2.5E1,2.453E3,5.9E1,2E0,1E0,6E0,3E0],"tree_param":{"num_deleted":"0","num_feature":"89","num_nodes":"15","size_leaf_vector":"1"}},{"base_weights":[6.52213E-2,-4.3819785E-2,2.5943816E0,2.3562496E0,-1.8094845E-1,-9.9216324E-1,3.890702E0,2.7296713E-2,-8.122703E-2,2.7826824E-3,-7.1393796E-3,4.364393E-3,-5.7484917E-2,4.857849E-2,-3.461826E-2],"categories":[],"categories_nodes":[],"categories_segments":[],"categories_sizes":[],"default_left":[0,0,0,0,0,0,0,0,0,0,0,0,0,0,0],"id":50,"left_children":[1,3,5,7,9,11,13,-1,-1,-1,-1,-1,-1,-1,-1],"loss_changes":[7.339706E2,8.403363E2,5.152845E2,5.621758E2,5.912885E2,2.0635596E2,5.92806E2,0E0,0E0,0E0,0E0,0E0,0E0,0E0,0E0],"parents":[2147483647,0,0,1,1,2,2,3,3,4,4,5,5,6,6],"right_children":[2,4,6,8,10,12,14,-1,-1,-1,-1,-1,-1,-1,-1],"split_conditions":[5.015951E1,3.785909E1,5.543539E1,3.109615E0,2.5881904E-1,5.6156174E1,8.660254E-1,2.7296713E-2,-8.122703E-2,2.7826824E-3,-7.1393796E-3,4.364393E-3,-5.7484917E-2,4.857849E-2,-3.461826E-2],"split_indices":[71,41,8,60,79,34,78,0,0,0,0,0,0,0,0],"split_type":[0,0,0,0,0,0,0,0,0,0,0,0,0,0,0],"sum_hessian":[2.66E3,2.551E3,1.09E2,1.37E2,2.414E3,2.9E1,8E1,1.33E2,4E0,1.297E3,1.117E3,2.3E1,6E0,7.1E1,9E0],"tree_param":{"num_deleted":"0","num_feature":"89","num_nodes":"15","size_leaf_vector":"1"}},{"base_weights":[-4.459197E-2,2.3155243E0,-1.7732467E-1,9.289893E-1,5.1286826E0,-7.651615E-1,4.1921642E-1,-1.9225005E-2,2.8637106E-2,6.4674065E-2,2.811614E-3,-4.0180446E-3,-2.5904967E-2,-2.0717902E-2,6.668373E-3],"categories":[],"categories_nodes":[],"categories_segments":[],"categories_sizes":[],"default_left":[0,0,0,0,0,0,0,0,0,0,0,0,0,0,0],"id":51,"left_children":[1,3,5,7,9,11,13,-1,-1,-1,-1,-1,-1,-1,-1],"loss_changes":[8.236699E2,5.413115E2,8.731355E2,5.296051E2,2.9669836E2,8.306727E2,7.6377765E2,0E0,0E0,0E0,0E0,0E0,0E0,0E0,0E0],"parents":[2147483647,0,0,1,1,2,2,3,3,4,4,5,5,6,6],"right_children":[2,4,6,8,10,12,14,-1,-1,-1,-1,-1,-1,-1,-1],"split_conditions":[3.78913E1,7.48131E1,6.0747623E0,2.5674755E1,7.8573425E1,2.3866438E1,4.0872578E1,-1.9225005E-2,2.8637106E-2,6.4674065E-2,2.811614E-3,-4.0180446E-3,-2.5904967E-2,-2.0717902E-2,6.668373E-3],"split_indices":[48,19,72,30,40,31,48,0,0,0,0,0,0,0,0],"split_type":[0,0,0,0,0,0,0,0,0,0,0,0,0,0,0],"sum_hessian":[2.627E3,1.39E2,2.488E3,9.4E1,4.5E1,1.253E3,1.235E3,3.8E1,5.6E1,3.5E1,1E1,1.046E3,2.07E2,1.11E2,1.124E3],"tree_param":{"num_deleted":"0","num_feature":"89","num_nodes":"15","size_leaf_vector":"1"}},{"base_weights":[-3.4877125E-2,-2.3117825E-1,1.6853925E0,-8.494685E-1,3.303285E-1,2.3833697E0,-3.311604E0,-4.116951E-3,-2.1783499E-2,1.3587043E-3,2.7669117E-2,2.6560796E-2,-7.112384E-2,-6.5348665E-3,-8.8100776E-2],"categories":[],"categories_nodes":[],"categories_segments":[],"categories_sizes":[],"default_left":[0,0,0,0,0,0,0,0,0,0,0,0,0,0,0],"id":52,"left_children":[1,3,5,7,9,11,13,-1,-1,-1,-1,-1,-1,-1,-1],"loss_changes":[9.03375E2,8.3384576E2,9.6354706E2,6.6404224E2,5.96155E2,6.4298206E2,4.9117276E2,0E0,0E0,0E0,0E0,0E0,0E0,0E0,0E0],"parents":[2147483647,0,0,1,1,2,2,3,3,4,4,5,5,6,6],"right_children":[2,4,6,8,10,12,14,-1,-1,-1,-1,-1,-1,-1,-1],"split_conditions":[5.5932907E1,2.647466E1,5.6270657E1,2.3086601E1,9.481253E1,9.848935E1,2.2401768E1,-4.116951E-3,-2.1783499E-2,1.3587043E-3,2.7669117E-2,2.6560796E-2,-7.112384E-2,-6.5348665E-3,-8.8100776E-2],"split_indices":[20,55,13,45,82,15,24,0,0,0,0,0,0,0,0],"split_type":[0,0,0,0,0,0,0,0,0,0,0,0,0,0,0],"sum_hessian":[2.673E3,2.4E3,2.73E2,1.142E3,1.258E3,2.4E2,3.3E1,8.6E2,2.82E2,1.166E3,9.2E1,2.34E2,6E0,2.3E1,1E1],"tree_param":{"num_deleted":"0","num_feature":"89","num_nodes":"15","size_leaf_vector":"1"}},{"base_weights":[2.4164066E-2,1.4011261E-1,-2.617214E0,-1.428389E-2,1.9056721E0,-3.4084475E0,2.3926678E0,-6.464047E-4,5.9008103E-2,3.899647E-2,1.795356E-3,-5.801148E-2,-1.3514113E-2,-3.5359737E-2,5.4089565E-2],"categories":[],"categories_nodes":[],"categories_segments":[],"categories_sizes":[],"default_left":[0,0,0,0,0,0,0,0,0,0,0,0,0,0,0],"id":53,"left_children":[1,3,5,7,9,11,13,-1,-1,-1,-1,-1,-1,-1,-1],"loss_changes":[8.229917E2,7.016898E2,4.5608582E2,7.0572314E2,7.1176746E2,4.7450366E2,3.0524585E2,0E0,0E0,0E0,0E0,0E0,0E0,0E0,0E0],"parents":[2147483647,0,0,1,1,2,2,3,3,4,4,5,5,6,6],"right_children":[2,4,6,8,10,12,14,-1,-1,-1,-1,-1,-1,-1,-1],"split_conditions":[1.03E0,2.6773941E1,2.399343E1,2.0192507E-1,2.6011847E1,2.0996769E1,2.3040724E1,-6.464047E-4,5.9008103E-2,3.899647E-2,1.795356E-3,-5.801148E-2,-1.3514113E-2,-3.5359737E-2,5.4089565E-2],"split_indices":[39,52,24,65,16,84,42,0,0,0,0,0,0,0,0],"split_type":[0,0,0,0,0,0,0,0,0,0,0,0,0,0,0],"sum_hessian":[2.685E3,2.573E3,1.12E2,2.367E3,2.06E2,9.7E1,1.5E1,2.348E3,1.9E1,9.5E1,1.11E2,4.4E1,5.3E1,5E0,1E1],"tree_param":{"num_deleted":"0","num_feature":"89","num_nodes":"15","size_leaf_vector":"1"}},{"base_weights":[1.0502657E-1,1.2795116E0,-2.3059107E-1,1.6801218E0,-2.5992107E0,3.472344E0,-3.6325082E-1,2.0266183E-2,-2.1686751E-2,-3.7102528E-2,7.277848E-2,4.0885277E-2,-8.0249056E-2,-1.2850636E-2,6.303333E-4],"categories":[],"categories_nodes":[],"categories_segments":[],"categories_sizes":[],"default_left":[0,0,0,0,0,0,0,0,0,0,0,0,0,0,0],"id":54,"left_children":[1,3,5,7,9,11,13,-1,-1,-1,-1,-1,-1,-1,-1],"loss_changes":[1.0535383E3,9.273575E2,1.02252924E3,7.232025E2,6.41537E2,5.4288794E2,7.891332E2,0E0,0E0,0E0,0E0,0E0,0E0,0E0,0E0],"parents":[2147483647,0,0,1,1,2,2,3,3,4,4,5,5,6,6],"right_children":[2,4,6,8,10,12,14,-1,-1,-1,-1,-1,-1,-1,-1],"split_conditions":[1.5697478E0,9.1932785E1,3.6151253E1,3.408769E0,2.3971535E1,2.9529787E1,6.373695E1,2.0266183E-2,-2.1686751E-2,-3.7102528E-2,7.277848E-2,4.0885277E-2,-8.0249056E-2,-1.2850636E-2,6.303333E-4],"split_indices":[60,40,48,77,24,28,67,0,0,0,0,0,0,0,0],"split_type":[0,0,0,0,0,0,0,0,0,0,0,0,0,0,0],"sum_hessian":[2.671E3,5.93E2,2.078E3,5.38E2,5.5E1,7.1E1,2.007E3,4.94E2,4.4E1,5E1,5E0,6.8E1,3E0,6.34E2,1.373E3],"tree_param":{"num_deleted":"0","num_feature":"89","num_nodes":"15","size_leaf_vector":"1"}},{"base_weights":[3.3302557E-2,3.888692E0,-3.841073E-2,-7.2204003E0,5.0627093E0,-1.9152686E-1,1.6474696E0,-1.048047E-1,2.9099416E-2,-6.0746912E-2,6.328317E-2,-2.4579717E-3,5.6043677E-2,-2.482464E-3,3.7896466E-2],"categories":[],"categories_nodes":[],"categories_segments":[],"categories_sizes":[],"default_left":[0,0,0,0,0,0,0,0,0,0,0,0,0,0,0],"id":55,"left_children":[1,3,5,7,9,11,13,-1,-1,-1,-1,-1,-1,-1,-1],"loss_changes":[7.267457E2,6.625837E2,6.665632E2,1.9562573E2,6.5864795E2,7.459056E2,8.74047E2,0E0,0E0,0E0,0E0,0E0,0E0,0E0,0E0],"parents":[2147483647,0,0,1,1,2,2,3,3,4,4,5,5,6,6],"right_children":[2,4,6,8,10,12,14,-1,-1,-1,-1,-1,-1,-1,-1],"split_conditions":[1.1898834E0,4.256534E1,2.6922173E1,2.797424E1,6.0646973E1,2.0192507E-1,2.4055231E1,-1.048047E-1,2.9099416E-2,-6.0746912E-2,6.328317E-2,-2.4579717E-3,5.6043677E-2,-2.482464E-3,3.7896466E-2],"split_indices":[56,40,52,9,51,65,75,0,0,0,0,0,0,0,0],"split_type":[0,0,0,0,0,0,0,0,0,0,0,0,0,0,0],"sum_hessian":[2.627E3,4.7E1,2.58E3,4E0,4.3E1,2.366E3,2.14E2,3E0,1E0,4E0,3.9E1,2.345E3,2.1E1,1.14E2,1E2],"tree_param":{"num_deleted":"0","num_feature":"89","num_nodes":"15","size_leaf_vector":"1"}},{"base_weights":[-1.3122302E-1,-6.4650935E-1,3.8533863E-1,2.943442E0,-8.0517185E-1,1.0834558E0,-3.8947287E-1,-5.3087056E-2,3.6803134E-2,-1.3370919E-2,1.2628218E-3,4.561771E-3,2.9626548E-2,2.8834678E-3,-2.407499E-2],"categories":[],"categories_nodes":[],"categories_segments":[],"categories_sizes":[],"default_left":[0,0,0,0,0,0,0,0,0,0,0,0,0,0,0],"id":56,"left_children":[1,3,5,7,9,11,13,-1,-1,-1,-1,-1,-1,-1,-1],"loss_changes":[7.0082745E2,7.530905E2,7.117175E2,3.6006076E2,6.259336E2,8.143653E2,8.5423755E2,0E0,0E0,0E0,0E0,0E0,0E0,0E0,0E0],"parents":[2147483647,0,0,1,1,2,2,3,3,4,4,5,5,6,6],"right_children":[2,4,6,8,10,12,14,-1,-1,-1,-1,-1,-1,-1,-1],"split_conditions":[6.043882E0,3.7065304E1,6.759995E1,3.1993017E1,6.700599E1,8.058655E1,2.2965466E1,-5.3087056E-2,3.6803134E-2,-1.3370919E-2,1.2628218E-3,4.561771E-3,2.9626548E-2,2.8834678E-3,-2.407499E-2],"split_indices":[72,48,22,5,51,33,10,0,0,0,0,0,0,0,0],"split_type":[0,0,0,0,0,0,0,0,0,0,0,0,0,0,0],"sum_hessian":[2.631E3,1.317E3,1.314E3,5.5E1,1.262E3,6.91E2,6.23E2,4E0,5.1E1,8.03E2,4.59E2,5.19E2,1.72E2,4.67E2,1.56E2],"tree_param":{"num_deleted":"0","num_feature":"89","num_nodes":"15","size_leaf_vector":"1"}},{"base_weights":[5.8756135E-2,2.081073E0,-6.1942294E-2,1.6634113E-1,3.6435206E0,-4.326107E-1,6.317475E-1,2.6582174E-2,-2.4037179E-2,-1.12308115E-2,4.9074482E-2,-2.020958E-3,-2.0964198E-2,3.8288727E-3,5.9245672E-2],"categories":[],"categories_nodes":[],"categories_segments":[],"categories_sizes":[],"default_left":[0,0,0,0,0,0,0,0,0,0,0,0,0,0,0],"id":57,"left_children":[1,3,5,7,9,11,13,-1,-1,-1,-1,-1,-1,-1,-1],"loss_changes":[6.457483E2,4.4515234E2,6.4232416E2,4.4187994E2,4.995321E2,6.239678E2,1.1436714E3,0E0,0E0,0E0,0E0,0E0,0E0,0E0,0E0],"parents":[2147483647,0,0,1,1,2,2,3,3,4,4,5,5,6,6],"right_children":[2,4,6,8,10,12,14,-1,-1,-1,-1,-1,-1,-1,-1],"split_conditions":[3.78913E1,2.3957045E1,2.4194326E1,4.200791E1,1.2911223E1,9.659258E-1,2.6243358E0,2.6582174E-2,-2.4037179E-2,-1.12308115E-2,4.9074482E-2,-2.020958E-3,-2.0964198E-2,3.8288727E-3,5.9245672E-2],"split_indices":[48,3,75,6,88,79,61,0,0,0,0,0,0,0,0],"split_type":[0,0,0,0,0,0,0,0,0,0,0,0,0,0,0],"sum_hessian":[2.644E3,1.48E2,2.496E3,6.7E1,8.1E1,1.627E3,8.69E2,3.4E1,3.3E1,1.7E1,6.4E1,1.43E3,1.97E2,8.31E2,3.8E1],"tree_param":{"num_deleted":"0","num_feature":"89","num_nodes":"15","size_leaf_vector":"1"}},{"base_weights":[5.3303886E-2,-7.082025E-1,3.5471356E-1,4.5955354E-1,-1.5499425E0,1.1300336E0,-3.3075452E-1,-4.930802E-6,4.484977E-2,-2.4849037E-2,6.90004E-3,1.9057656E-2,2.5038952E-3,4.251097E-4,-2.1213738E-2],"categories":[],"categories_nodes":[],"categories_segments":[],"categories_sizes":[],"default_left":[0,0,0,0,0,0,0,0,0,0,0,0,0,0,0],"id":58,"left_children":[1,3,5,7,9,11,13,-1,-1,-1,-1,-1,-1,-1,-1],"loss_changes":[6.013782E2,7.310419E2,9.979187E2,5.7778955E2,9.064363E2,6.006891E2,6.664614E2,0E0,0E0,0E0,0E0,0E0,0E0,0E0,0E0],"parents":[2147483647,0,0,1,1,2,2,3,3,4,4,5,5,6,6],"right_children":[2,4,6,8,10,12,14,-1,-1,-1,-1,-1,-1,-1,-1],"split_conditions":[2.1318861E1,1.7796013E1,7.7E-1,1.8901678E1,2.4627914E1,2.6828325E1,8.428533E1,-4.930802E-6,4.484977E-2,-2.4849037E-2,6.90004E-3,1.9057656E-2,2.5038952E-3,4.251097E-4,-2.1213738E-2],"split_indices":[59,52,32,68,68,9,47,0,0,0,0,0,0,0,0],"split_type":[0,0,0,0,0,0,0,0,0,0,0,0,0,0,0],"sum_hessian":[2.618E3,7.42E2,1.876E3,3.11E2,4.31E2,8.8E2,9.96E2,2.8E2,3.1E1,3.04E2,1.27E2,4.67E2,4.13E2,8.25E2,1.71E2],"tree_param":{"num_deleted":"0","num_feature":"89","num_nodes":"15","size_leaf_vector":"1"}},{"base_weights":[5.760688E-2,2.2326388E0,-7.710649E-2,1.0429977E-1,3.8949695E0,-3.329884E-1,1.0692117E0,-2.8057601E-2,2.4147497E-2,2.4346266E-2,7.4192345E-2,-5.707022E-3,1.3323086E-2,-1.3328762E-3,2.1380987E-2],"categories":[],"categories_nodes":[],"categories_segments":[],"categories_sizes":[],"default_left":[0,0,0,0,0,0,0,0,0,0,0,0,0,0,0],"id":59,"left_children":[1,3,5,7,9,11,13,-1,-1,-1,-1,-1,-1,-1,-1],"loss_changes":[7.7868884E2,5.4798425E2,7.3454126E2,4.7070007E2,4.296942E2,8.11094E2,5.876835E2,0E0,0E0,0E0,0E0,0E0,0E0,0E0,0E0],"parents":[2147483647,0,0,1,1,2,2,3,3,4,4,5,5,6,6],"right_children":[2,4,6,8,10,12,14,-1,-1,-1,-1,-1,-1,-1,-1],"split_conditions":[3.78913E1,2.3957045E1,8.4199814E1,2.1524542E1,4.8922863E1,8.420296E0,2.6418575E1,-2.8057601E-2,2.4147497E-2,2.4346266E-2,7.4192345E-2,-5.707022E-3,1.3323086E-2,-1.3328762E-3,2.1380987E-2],"split_indices":[48,3,82,17,71,72,55,0,0,0,0,0,0,0,0],"split_type":[0,0,0,0,0,0,0,0,0,0,0,0,0,0,0],"sum_hessian":[2.656E3,1.54E2,2.502E3,6.8E1,8.6E1,2.046E3,4.56E2,3E1,3.8E1,6.2E1,2.4E1,1.791E3,2.55E2,2.15E2,2.41E2],"tree_param":{"num_deleted":"0","num_feature":"89","num_nodes":"15","size_leaf_vector":"1"}},{"base_weights":[4.566891E-2,1.2655613E-1,-3.3343444E0,-4.4580996E-1,7.214351E-1,-2.650151E0,-1.2763657E-1,-5.220047E-3,6.329687E-2,2.0895336E-2,2.4370407E-3,4.3007877E-2,-3.9611164E-2],"categories":[],"categories_nodes":[],"categories_segments":[],"categories_sizes":[],"default_left":[0,0,0,0,0,0,0,0,0,0,0,0,0],"id":60,"left_children":[1,3,5,7,9,11,-1,-1,-1,-1,-1,-1,-1],"loss_changes":[7.369613E2,8.964875E2,3.7261707E2,6.961215E2,8.4326654E2,5.637824E2,0E0,0E0,0E0,0E0,0E0,0E0,0E0],"parents":[2147483647,0,0,1,1,2,2,3,3,4,4,5,5],"right_children":[2,4,6,8,10,12,-1,-1,-1,-1,-1,-1,-1],"split_conditions":[8.313456E0,6.043882E0,2.1838343E1,3.1249685E1,6.6E-1,4.576192E1,-1.2763657E-1,-5.220047E-3,6.329687E-2,2.0895336E-2,2.4370407E-3,4.3007877E-2,-3.9611164E-2],"split_indices":[73,72,59,49,25,82,0,0,0,0,0,0,0],"split_type":[0,0,0,0,0,0,0,0,0,0,0,0,0],"sum_hessian":[2.693E3,2.631E3,6.2E1,1.341E3,1.29E3,5.9E1,3E0,1.327E3,1.4E1,3.33E2,9.57E2,9E0,5E1],"tree_param":{"num_deleted":"0","num_feature":"89","num_nodes":"13","size_leaf_vector":"1"}},{"base_weights":[5.672498E-2,2.3618016E-2,7.36036E0,2.4444015E0,-7.527637E-2,-1.4020166E0,9.253037E0,-1.5814058E-2,4.1756537E-2,3.7126956E-3,-6.6167973E-3,-2.79462E-2,6.9159507E-3,1.1090555E-1,3.724122E-2],"categories":[],"categories_nodes":[],"categories_segments":[],"categories_sizes":[],"default_left":[0,0,0,0,0,0,0,0,0,0,0,0,0,0,0],"id":61,"left_children":[1,3,5,7,9,11,13,-1,-1,-1,-1,-1,-1,-1,-1],"loss_changes":[6.430174E2,6.343596E2,2.119851E2,7.3145105E2,6.669312E2,1.0679459E1,6.0292236E1,0E0,0E0,0E0,0E0,0E0,0E0,0E0,0E0],"parents":[2147483647,0,0,1,1,2,2,3,3,4,4,5,5,6,6],"right_children":[2,4,6,8,10,12,14,-1,-1,-1,-1,-1,-1,-1,-1],"split_conditions":[6.534716E1,-9.659258E-1,2.3339813E1,4.4349705E1,2.1358469E0,7.898595E1,2.5660613E0,-1.5814058E-2,4.1756537E-2,3.7126956E-3,-6.6167973E-3,-2.79462E-2,6.9159507E-3,1.1090555E-1,3.724122E-2],"split_indices":[48,78,9,6,60,0,56,0,0,0,0,0,0,0,0],"split_type":[0,0,0,0,0,0,0,0,0,0,0,0,0,0,0],"sum_hessian":[2.659E3,2.648E3,1.1E1,1.03E2,2.545E3,2E0,9E0,3.1E1,7.2E1,1.445E3,1.1E3,1E0,1E0,6E0,3E0],"tree_param":{"num_deleted":"0","num_feature":"89","num_nodes":"15","size_leaf_vector":"1"}},{"base_weights":[-2.6621668E-2,-5.5180645E-1,5.0291693E-1,-2.4817199E-1,-2.0770352E0,1.0359539E0,-6.623139E-1,8.482405E-3,-1.0782433E-2,-6.736917E-2,-1.4007407E-2,9.338337E-3,7.541409E-2,4.1700143E-2,-1.2404271E-2],"categories":[],"categories_nodes":[],"categories_segments":[],"categories_sizes":[],"default_left":[0,0,0,0,0,0,0,0,0,0,0,0,0,0,0],"id":62,"left_children":[1,3,5,7,9,11,13,-1,-1,-1,-1,-1,-1,-1,-1],"loss_changes":[7.4448804E2,6.219071E2,8.2862714E2,1.0220474E3,6.933374E2,6.008266E2,1.1757048E3,0E0,0E0,0E0,0E0,0E0,0E0,0E0,0E0],"parents":[2147483647,0,0,1,1,2,2,3,3,4,4,5,5,6,6],"right_children":[2,4,6,8,10,12,14,-1,-1,-1,-1,-1,-1,-1,-1],"split_conditions":[6.043882E0,2.39698E1,7.560763E1,6.1162617E1,2.2915983E1,7.529345E1,2.3308067E1,8.482405E-3,-1.0782433E-2,-6.736917E-2,-1.4007407E-2,9.338337E-3,7.541409E-2,4.1700143E-2,-1.2404271E-2],"split_indices":[72,31,26,26,83,26,75,0,0,0,0,0,0,0,0],"split_type":[0,0,0,0,0,0,0,0,0,0,0,0,0,0,0],"sum_hessian":[2.675E3,1.343E3,1.332E3,1.121E3,2.22E2,9.14E2,4.18E2,4.83E2,6.38E2,2.7E1,1.95E2,9.01E2,1.3E1,4.4E1,3.74E2],"tree_param":{"num_deleted":"0","num_feature":"89","num_nodes":"15","size_leaf_vector":"1"}},{"base_weights":[-1.09490855E-2,-3.7856305E-1,6.633492E-1,-1.445654E-1,-2.8735545E0,2.6107259E0,2.4266365E-1,-3.8813823E-3,1.5636673E-2,-3.280628E-2,5.7365827E-2,3.302792E-2,-3.649312E-2,1.2223368E-3,6.737151E-2],"categories":[],"categories_nodes":[],"categories_segments":[],"categories_sizes":[],"default_left":[0,0,0,0,0,0,0,0,0,0,0,0,0,0,0],"id":63,"left_children":[1,3,5,7,9,11,13,-1,-1,-1,-1,-1,-1,-1,-1],"loss_changes":[6.5688916E2,1.0008395E3,7.653496E2,6.5343506E2,5.3404895E2,7.312246E2,6.0141724E2,0E0,0E0,0E0,0E0,0E0,0E0,0E0,0E0],"parents":[2147483647,0,0,1,1,2,2,3,3,4,4,5,5,6,6],"right_children":[2,4,6,8,10,12,14,-1,-1,-1,-1,-1,-1,-1,-1],"split_conditions":[6.661844E1,7.3204124E1,2.4281336E1,2.515028E0,2.8748598E1,2.7420835E1,1.9913399E-1,-3.8813823E-3,1.5636673E-2,-3.280628E-2,5.7365827E-2,3.302792E-2,-3.649312E-2,1.2223368E-3,6.737151E-2],"split_indices":[67,50,9,61,21,55,65,0,0,0,0,0,0,0,0],"split_type":[0,0,0,0,0,0,0,0,0,0,0,0,0,0,0],"sum_hessian":[2.648E3,1.714E3,9.34E2,1.568E3,1.46E2,1.65E2,7.69E2,1.373E3,1.95E2,1.4E2,6E0,1.49E2,1.6E1,7.56E2,1.3E1],"tree_param":{"num_deleted":"0","num_feature":"89","num_nodes":"15","size_leaf_vector":"1"}},{"base_weights":[2.2710377E-2,-5.1678044E-1,5.448981E-1,1.8301679E0,-6.93005E-1,8.4963953E-1,-1.365564E0,-1.5850186E-2,3.895104E-2,9.280385E-3,-1.0425842E-2,9.184517E-2,7.6169865E-3,-3.1913817E-2,1.29503505E-2],"categories":[],"categories_nodes":[],"categories_segments":[],"categories_sizes":[],"default_left":[0,0,0,0,0,0,0,0,0,0,0,0,0,0,0],"id":64,"left_children":[1,3,5,7,9,11,13,-1,-1,-1,-1,-1,-1,-1,-1],"loss_changes":[7.4401044E2,5.385217E2,7.824685E2,6.4791876E2,6.8608765E2,8.417907E2,9.0282025E2,0E0,0E0,0E0,0E0,0E0,0E0,0E0,0E0],"parents":[2147483647,0,0,1,1,2,2,3,3,4,4,5,5,6,6],"right_children":[2,4,6,8,10,12,14,-1,-1,-1,-1,-1,-1,-1,-1],"split_conditions":[6.001938E0,3.5883377E1,3.4195075E0,2.5205262E0,2.0649637E1,1.1898834E0,7.049536E1,-1.5850186E-2,3.895104E-2,9.280385E-3,-1.0425842E-2,9.184517E-2,7.6169865E-3,-3.1913817E-2,1.29503505E-2],"split_indices":[72,82,77,77,58,56,29,0,0,0,0,0,0,0,0],"split_type":[0,0,0,0,0,0,0,0,0,0,0,0,0,0,0],"sum_hessian":[2.639E3,1.298E3,1.341E3,9E1,1.208E3,1.157E3,1.84E2,3.4E1,5.6E1,2.14E2,9.94E2,1.1E1,1.146E3,1.09E2,7.5E1],"tree_param":{"num_deleted":"0","num_feature":"89","num_nodes":"15","size_leaf_vector":"1"}},{"base_weights":[7.37291E-2,2.1183403E0,-3.8721327E-2,3.3994699E0,-2.4546106E0,9.724504E-2,-1.791877E0,1.8996026E-2,5.9392508E-2,5.40155E-2,-3.8185433E-2,1.363186E-3,-7.51718E-2,8.600531E-2,-2.1340383E-2],"categories":[],"categories_nodes":[],"categories_segments":[],"categories_sizes":[],"default_left":[0,0,0,0,0,0,0,0,0,0,0,0,0,0,0],"id":65,"left_children":[1,3,5,7,9,11,13,-1,-1,-1,-1,-1,-1,-1,-1],"loss_changes":[6.130418E2,8.2268176E2,6.027742E2,4.039353E2,3.5279962E2,6.993106E2,6.655242E2,0E0,0E0,0E0,0E0,0E0,0E0,0E0,0E0],"parents":[2147483647,0,0,1,1,2,2,3,3,4,4,5,5,6,6],"right_children":[2,4,6,8,10,12,14,-1,-1,-1,-1,-1,-1,-1,-1],"split_conditions":[3.785909E1,2.8224304E1,2.8293526E1,7.0494785E0,2.2147345E1,3.336588E1,1.4061158E1,1.8996026E-2,5.9392508E-2,5.40155E-2,-3.8185433E-2,1.363186E-3,-7.51718E-2,8.600531E-2,-2.1340383E-2],"split_indices":[41,86,54,73,30,16,53,0,0,0,0,0,0,0,0],"split_type":[0,0,0,0,0,0,0,0,0,0,0,0,0,0,0],"sum_hessian":[2.665E3,1.38E2,2.527E3,1.08E2,3E1,2.346E3,1.81E2,6.9E1,3.9E1,4E0,2.6E1,2.335E3,1.1E1,5E0,1.76E2],"tree_param":{"num_deleted":"0","num_feature":"89","num_nodes":"15","size_leaf_vector":"1"}},{"base_weights":[-5.3499922E-2,-2.9907513E-1,1.0437111E0,-1.1461707E0,2.3359885E-2,4.46038E0,6.471187E-1,-6.621235E-3,-5.7081666E-2,5.261E-3,-8.579951E-3,6.0400188E-2,-1.1767813E-2,-7.4384145E-2,8.133E-3],"categories":[],"categories_nodes":[],"categories_segments":[],"categories_sizes":[],"default_left":[0,0,0,0,0,0,0,0,0,0,0,0,0,0,0],"id":66,"left_children":[1,3,5,7,9,11,13,-1,-1,-1,-1,-1,-1,-1,-1],"loss_changes":[7.2485736E2,6.003737E2,6.6378577E2,1.3344026E3,7.062977E2,4.6124646E2,5.999493E2,0E0,0E0,0E0,0E0,0E0,0E0,0E0,0E0],"parents":[2147483647,0,0,1,1,2,2,3,3,4,4,5,5,6,6],"right_children":[2,4,6,8,10,12,14,-1,-1,-1,-1,-1,-1,-1,-1],"split_conditions":[8.4199814E1,1.5686192E1,2.3099129E1,1.5256526E1,7.346827E1,7.0710677E-1,2.1791397E1,-6.621235E-3,-5.7081666E-2,5.261E-3,-8.579951E-3,6.0400188E-2,-1.1767813E-2,-7.4384145E-2,8.133E-3],"split_indices":[82,88,30,88,26,79,74,0,0,0,0,0,0,0,0],"split_type":[0,0,0,0,0,0,0,0,0,0,0,0,0,0,0],"sum_hessian":[2.688E3,2.197E3,4.91E2,6.05E2,1.592E3,5E1,4.41E2,5.48E2,5.7E1,1.014E3,5.78E2,3.9E1,1.1E1,8E0,4.33E2],"tree_param":{"num_deleted":"0","num_feature":"89","num_nodes":"15","size_leaf_vector":"1"}},{"base_weights":[1.2942264E-3,-8.050993E-1,3.3181745E-1,-3.6517862E-2,-2.0347078E0,4.6760622E-1,-2.5425522E0,-6.277462E-3,1.8944537E-2,-6.833833E-2,-1.6858922E-2,3.8352476E-3,6.2480066E-2,-9.686575E-4,-5.7788167E-2],"categories":[],"categories_nodes":[],"categories_segments":[],"categories_sizes":[],"default_left":[0,0,0,0,0,0,0,0,0,0,0,0,0,0,0],"id":67,"left_children":[1,3,5,7,9,11,13,-1,-1,-1,-1,-1,-1,-1,-1],"loss_changes":[7.1510535E2,7.370681E2,7.4394336E2,5.503206E2,4.906819E2,8.811961E2,6.8012067E2,0E0,0E0,0E0,0E0,0E0,0E0,0E0,0E0],"parents":[2147483647,0,0,1,1,2,2,3,3,4,4,5,5,6,6],"right_children":[2,4,6,8,10,12,14,-1,-1,-1,-1,-1,-1,-1,-1],"split_conditions":[2.1318861E1,6.724061E1,2.527198E1,7.7007744E1,2.9638674E1,2.0192507E-1,2.1663952E1,-6.277462E-3,1.8944537E-2,-6.833833E-2,-1.6858922E-2,3.8352476E-3,6.2480066E-2,-9.686575E-4,-5.7788167E-2],"split_indices":[59,26,10,29,15,65,31,0,0,0,0,0,0,0,0],"split_type":[0,0,0,0,0,0,0,0,0,0,0,0,0,0,0],"sum_hessian":[2.681E3,7.79E2,1.902E3,4.8E2,2.99E2,1.817E3,8.5E1,3.68E2,1.12E2,1.9E1,2.8E2,1.792E3,2.5E1,4.9E1,3.6E1],"tree_param":{"num_deleted":"0","num_feature":"89","num_nodes":"15","size_leaf_vector":"1"}},{"base_weights":[-1.05659105E-1,1.9777924E0,-2.280767E-1,2.2105296E-1,3.617587E0,-9.8437846E-2,-2.0197012E0,1.3378329E-2,-5.0362267E-2,-1.4035393E-2,4.755671E-2,-2.6063556E-3,1.5672607E-2,-7.044654E-3,-5.2799933E-2],"categories":[],"categories_nodes":[],"categories_segments":[],"categories_sizes":[],"default_left":[0,0,0,0,0,0,0,0,0,0,0,0,0,0,0],"id":68,"left_children":[1,3,5,7,9,11,13,-1,-1,-1,-1,-1,-1,-1,-1],"loss_changes":[6.8475323E2,4.2842334E2,5.885908E2,4.3533704E2,4.466886E2,6.393665E2,7.2953754E2,0E0,0E0,0E0,0E0,0E0,0E0,0E0,0E0],"parents":[2147483647,0,0,1,1,2,2,3,3,4,4,5,5,6,6],"right_children":[2,4,6,8,10,12,14,-1,-1,-1,-1,-1,-1,-1,-1],"split_conditions":[3.78913E1,2.4387714E1,2.8293526E1,8.810891E1,4.8593067E1,2.7819273E1,2.414802E0,1.3378329E-2,-5.0362267E-2,-1.4035393E-2,4.755671E-2,-2.6063556E-3,1.5672607E-2,-7.044654E-3,-5.2799933E-2],"split_indices":[48,3,54,82,82,54,61,0,0,0,0,0,0,0,0],"split_type":[0,0,0,0,0,0,0,0,0,0,0,0,0,0,0],"sum_hessian":[2.682E3,1.48E2,2.534E3,7.2E1,7.6E1,2.364E3,1.7E2,6E1,1.2E1,1.4E1,6.2E1,2.155E3,2.09E2,1.22E2,4.8E1],"tree_param":{"num_deleted":"0","num_feature":"89","num_nodes":"15","size_leaf_vector":"1"}},{"base_weights":[2.0811645E-2,1.3109654E-1,-2.5695567E0,6.2302756E-1,-3.6751208E-1,-7.0770965E0,-1.6001852E0,3.8873532E-3,3.13068E-2,-2.1724014E-3,-4.3678626E-2,-1.0638826E-1,-2.8076569E-2,-3.441126E-2,2.0739302E-2],"categories":[],"categories_nodes":[],"categories_segments":[],"categories_sizes":[],"default_left":[0,0,0,0,0,0,0,0,0,0,0,0,0,0,0],"id":69,"left_children":[1,3,5,7,9,11,13,-1,-1,-1,-1,-1,-1,-1,-1],"loss_changes":[7.6252716E2,6.281484E2,4.6494873E2,7.561008E2,7.6370166E2,2.5905493E2,6.226452E2,0E0,0E0,0E0,0E0,0E0,0E0,0E0,0E0],"parents":[2147483647,0,0,1,1,2,2,3,3,4,4,5,5,6,6],"right_children":[2,4,6,8,10,12,14,-1,-1,-1,-1,-1,-1,-1,-1],"split_conditions":[1.03E0,6.589716E1,2.4150381E1,5.6587402E1,3.206419E1,2.6027205E1,7.661723E1,3.8873532E-3,3.13068E-2,-2.1724014E-3,-4.3678626E-2,-1.0638826E-1,-2.8076569E-2,-3.441126E-2,2.0739302E-2],"split_indices":[39,22,83,34,16,54,22,0,0,0,0,0,0,0,0],"split_type":[0,0,0,0,0,0,0,0,0,0,0,0,0,0,0],"sum_hessian":[2.667E3,2.559E3,1.08E2,1.288E3,1.271E3,1.8E1,9E1,1.179E3,1.09E2,1.226E3,4.5E1,9E0,9E0,6E1,3E1],"tree_param":{"num_deleted":"0","num_feature":"89","num_nodes":"15","size_leaf_vector":"1"}},{"base_weights":[9.818408E-2,3.176E0,1.5852029E-2,8.642808E0,1.7775561E0,8.045229E-1,-2.7128172E-1,2.158253E-2,1.1020804E-1,3.36635E-2,-2.504126E-2,3.7456E-2,4.6604825E-3,-1.2193324E-2,6.7021174E-4],"categories":[],"categories_nodes":[],"categories_segments":[],"categories_sizes":[],"default_left":[0,0,0,0,0,0,0,0,0,0,0,0,0,0,0],"id":70,"left_children":[1,3,5,7,9,11,13,-1,-1,-1,-1,-1,-1,-1,-1],"loss_changes":[6.8084326E2,5.1978864E2,5.930748E2,1.9209778E2,3.9618433E2,6.940949E2,6.1588E2,0E0,0E0,0E0,0E0,0E0,0E0,0E0,0E0],"parents":[2147483647,0,0,1,1,2,2,3,3,4,4,5,5,6,6],"right_children":[2,4,6,8,10,12,14,-1,-1,-1,-1,-1,-1,-1,-1],"split_conditions":[1.8281559E1,2.1133595E1,6.6E-1,2.2604227E1,3.785909E1,1.6542277E0,2.13233E1,2.158253E-2,1.1020804E-1,3.36635E-2,-2.504126E-2,3.7456E-2,4.6604825E-3,-1.2193324E-2,6.7021174E-4],"split_indices":[42,59,25,49,41,56,59,0,0,0,0,0,0,0,0],"split_type":[0,0,0,0,0,0,0,0,0,0,0,0,0,0,0],"sum_hessian":[2.686E3,6.9E1,2.617E3,1.3E1,5.6E1,6.98E2,1.919E3,4E0,9E0,4.1E1,1.5E1,7.1E1,6.27E2,5.04E2,1.415E3],"tree_param":{"num_deleted":"0","num_feature":"89","num_nodes":"15","size_leaf_vector":"1"}},{"base_weights":[-8.1978716E-2,-2.0592768E0,5.092203E-2,2.853632E0,-3.0551286E0,1.9469205E-1,-1.8151761E0,4.6049833E-2,-3.3084705E-2,-1.4926953E-2,-5.700587E-2,1.0848255E-4,1.846097E-2,-3.657154E-3,-4.6368174E-2],"categories":[],"categories_nodes":[],"categories_segments":[],"categories_sizes":[],"default_left":[0,0,0,0,0,0,0,0,0,0,0,0,0,0,0],"id":71,"left_children":[1,3,5,7,9,11,13,-1,-1,-1,-1,-1,-1,-1,-1],"loss_changes":[7.0515546E2,8.355554E2,6.7510016E2,3.2820364E2,5.742936E2,7.0919086E2,7.344787E2,0E0,0E0,0E0,0E0,0E0,0E0,0E0,0E0],"parents":[2147483647,0,0,1,1,2,2,3,3,4,4,5,5,6,6],"right_children":[2,4,6,8,10,12,14,-1,-1,-1,-1,-1,-1,-1,-1],"split_conditions":[4.790761E0,4.3881813E1,2.8293526E1,6.964781E1,2.2452501E1,1.8319577E-1,3.3E0,4.6049833E-2,-3.3084705E-2,-1.4926953E-2,-5.700587E-2,1.0848255E-4,1.846097E-2,-3.657154E-3,-4.6368174E-2],"split_indices":[73,41,54,51,31,65,7,0,0,0,0,0,0,0,0],"split_type":[0,0,0,0,0,0,0,0,0,0,0,0,0,0,0],"sum_hessian":[2.682E3,1.68E2,2.514E3,2.8E1,1.4E2,2.335E3,1.79E2,2.2E1,6E0,8.9E1,5.1E1,2.102E3,2.33E2,1.19E2,6E1],"tree_param":{"num_deleted":"0","num_feature":"89","num_nodes":"15","size_leaf_vector":"1"}},{"base_weights":[7.495702E-2,2.9384382E0,-8.891681E-4,-1.5435952E0,4.550599E0,-1.2858149E0,1.7506702E-1,-4.620843E-2,1.688012E-2,8.3767526E-2,2.391147E-2,-3.349758E-2,-9.261842E-4,1.1112699E-2,-1.2881352E-3],"categories":[],"categories_nodes":[],"categories_segments":[],"categories_sizes":[],"default_left":[0,0,0,0,0,0,0,0,0,0,0,0,0,0,0],"id":72,"left_children":[1,3,5,7,9,11,13,-1,-1,-1,-1,-1,-1,-1,-1],"loss_changes":[5.8075305E2,5.0560162E2,5.8941724E2,1.9674469E2,4.0135205E2,7.729743E2,6.5248755E2,0E0,0E0,0E0,0E0,0E0,0E0,0E0,0E0],"parents":[2147483647,0,0,1,1,2,2,3,3,4,4,5,5,6,6],"right_children":[2,4,6,8,10,12,14,-1,-1,-1,-1,-1,-1,-1,-1],"split_conditions":[1.8281559E1,2.8857696E0,2.2627718E1,2.5472078E1,2.6193733E1,2.6763506E0,2.2287683E1,-4.620843E-2,1.688012E-2,8.3767526E-2,2.391147E-2,-3.349758E-2,-9.261842E-4,1.1112699E-2,-1.2881352E-3],"split_indices":[42,77,74,2,55,77,21,0,0,0,0,0,0,0,0],"split_type":[0,0,0,0,0,0,0,0,0,0,0,0,0,0,0],"sum_hessian":[2.673E3,6.8E1,2.605E3,1.8E1,5E1,3.13E2,2.292E3,9E0,9E0,1.7E1,3.3E1,1.14E2,1.99E2,5.61E2,1.731E3],"tree_param":{"num_deleted":"0","num_feature":"89","num_nodes":"15","size_leaf_vector":"1"}},{"base_weights":[-2.3062136E-2,-1.2822309E-1,2.3498378E0,-3.312677E-1,1.2782152E0,-5.514691E-1,4.165891E0,-6.301678E-3,1.0775852E-2,5.5313325E-3,4.5315463E-2,7.791703E-2,-1.820894E-2,2.9668447E-2,9.6141234E-2],"categories":[],"categories_nodes":[],"categories_segments":[],"categories_sizes":[],"default_left":[0,0,0,0,0,0,0,0,0,0,0,0,0,0,0],"id":73,"left_children":[1,3,5,7,9,11,13,-1,-1,-1,-1,-1,-1,-1,-1],"loss_changes":[6.5857837E2,7.2205804E2,5.924173E2,9.3090283E2,7.4999255E2,4.801932E2,4.2223145E2,0E0,0E0,0E0,0E0,0E0,0E0,0E0,0E0],"parents":[2147483647,0,0,1,1,2,2,3,3,4,4,5,5,6,6],"right_children":[2,4,6,8,10,12,14,-1,-1,-1,-1,-1,-1,-1,-1],"split_conditions":[5.015951E1,8.420296E0,6.311387E1,8.4199814E1,2.7457504E1,6.7833334E-1,2.9386585E1,-6.301678E-3,1.0775852E-2,5.5313325E-3,4.5315463E-2,7.791703E-2,-1.820894E-2,2.9668447E-2,9.6141234E-2],"split_indices":[71,72,50,82,88,62,44,0,0,0,0,0,0,0,0],"split_type":[0,0,0,0,0,0,0,0,0,0,0,0,0,0,0],"sum_hessian":[2.637E3,2.526E3,1.11E2,2.208E3,3.18E2,4.3E1,6.8E1,1.822E3,3.86E2,2.61E2,5.7E1,5E0,3.8E1,5.7E1,1.1E1],"tree_param":{"num_deleted":"0","num_feature":"89","num_nodes":"15","size_leaf_vector":"1"}},{"base_weights":[-7.374266E-2,-4.714339E-1,6.6746897E-1,-2.7919742E-1,-3.3365467E0,1.787345E0,-3.6160964E-1,-2.9978113E-2,-1.1054282E-3,-4.108284E-2,6.920174E-2,-4.9678334E-3,2.4833865E-2,-5.7419715E-3,5.9190366E-2],"categories":[],"categories_nodes":[],"categories_segments":[],"categories_sizes":[],"default_left":[0,0,0,0,0,0,0,0,0,0,0,0,0,0,0],"id":74,"left_children":[1,3,5,7,9,11,13,-1,-1,-1,-1,-1,-1,-1,-1],"loss_changes":[7.8588574E2,9.546703E2,1.0735685E3,7.456591E2,8.91219E2,7.1030566E2,6.5229974E2,0E0,0E0,0E0,0E0,0E0,0E0,0E0,0E0],"parents":[2147483647,0,0,1,1,2,2,3,3,4,4,5,5,6,6],"right_children":[2,4,6,8,10,12,14,-1,-1,-1,-1,-1,-1,-1,-1],"split_conditions":[6.661844E1,7.448536E1,6.382524E1,1.4545542E0,2.5671999E1,2.0477114E1,8.323528E1,-2.9978113E-2,-1.1054282E-3,-4.108284E-2,6.920174E-2,-4.9678334E-3,2.4833865E-2,-5.7419715E-3,5.9190366E-2],"split_indices":[67,50,47,76,74,17,66,0,0,0,0,0,0,0,0],"split_type":[0,0,0,0,0,0,0,0,0,0,0,0,0,0,0],"sum_hessian":[2.664E3,1.734E3,9.3E2,1.626E3,1.08E2,4.45E2,4.85E2,9.4E1,1.532E3,1.01E2,7E0,1.04E2,3.41E2,4.7E2,1.5E1],"tree_param":{"num_deleted":"0","num_feature":"89","num_nodes":"15","size_leaf_vector":"1"}},{"base_weights":[-2.7377086E-2,-5.341707E-1,4.7340366E-1,-1.1596421E0,3.8355953E-1,1.1338516E0,-3.183966E-1,-4.462747E-2,-8.018008E-3,2.8206758E-2,-1.6441797E-3,1.0308487E-2,1.3442564E-1,-1.2089794E-2,8.919654E-3],"categories":[],"categories_nodes":[],"categories_segments":[],"categories_sizes":[],"default_left":[0,0,0,0,0,0,0,0,0,0,0,0,0,0,0],"id":75,"left_children":[1,3,5,7,9,11,13,-1,-1,-1,-1,-1,-1,-1,-1],"loss_changes":[6.7813257E2,7.6273535E2,7.0319617E2,9.301919E2,7.2029016E2,9.1546454E2,6.607701E2,0E0,0E0,0E0,0E0,0E0,0E0,0E0,0E0],"parents":[2147483647,0,0,1,1,2,2,3,3,4,4,5,5,6,6],"right_children":[2,4,6,8,10,12,14,-1,-1,-1,-1,-1,-1,-1,-1],"split_conditions":[6.043882E0,7.704167E-1,2.4362923E1,1.618025E1,4.53423E1,1.05E0,2.1992104E1,-4.462747E-2,-8.018008E-3,2.8206758E-2,-1.6441797E-3,1.0308487E-2,1.3442564E-1,-1.2089794E-2,8.919654E-3],"split_indices":[72,63,35,53,43,32,45,0,0,0,0,0,0,0,0],"split_type":[0,0,0,0,0,0,0,0,0,0,0,0,0,0,0],"sum_hessian":[2.67E3,1.327E3,1.343E3,7.89E2,5.38E2,7.32E2,6.11E2,7.6E1,7.13E2,9.8E1,4.4E2,7.27E2,5E0,3.52E2,2.59E2],"tree_param":{"num_deleted":"0","num_feature":"89","num_nodes":"15","size_leaf_vector":"1"}},{"base_weights":[6.8683766E-2,-5.50869E-2,2.9640522E0,-1.8995334E-1,1.6532762E0,6.540557E0,1.6911362E0,-2.3817245E-4,-2.0301733E-2,3.6818277E-2,2.5668374E-5,1.887262E-2,9.912574E-2,3.0572945E-2,-1.8868847E-2],"categories":[],"categories_nodes":[],"categories_segments":[],"categories_sizes":[],"default_left":[0,0,0,0,0,0,0,0,0,0,0,0,0,0,0],"id":76,"left_children":[1,3,5,7,9,11,13,-1,-1,-1,-1,-1,-1,-1,-1],"loss_changes":[9.440879E2,5.8253705E2,4.8061877E2,7.162699E2,6.194722E2,4.2064014E2,4.0170837E2,0E0,0E0,0E0,0E0,0E0,0E0,0E0,0E0],"parents":[2147483647,0,0,1,1,2,2,3,3,4,4,5,5,6,6],"right_children":[2,4,6,8,10,12,14,-1,-1,-1,-1,-1,-1,-1,-1],"split_conditions":[5.015951E1,2.7193983E1,2.314821E1,2.4455404E1,2.3656532E1,2.5328224E1,5.4199104E1,-2.3817245E-4,-2.0301733E-2,3.6818277E-2,2.5668374E-5,1.887262E-2,9.912574E-2,3.0572945E-2,-1.8868847E-2],"split_indices":[71,52,21,24,35,37,41,0,0,0,0,0,0,0,0],"split_type":[0,0,0,0,0,0,0,0,0,0,0,0,0,0,0],"sum_hessian":[2.633E3,2.526E3,1.07E2,2.342E3,1.84E2,2.7E1,8E1,2.149E3,1.93E2,8.2E1,1.02E2,1.2E1,1.5E1,5.8E1,2.2E1],"tree_param":{"num_deleted":"0","num_feature":"89","num_nodes":"15","size_leaf_vector":"1"}},{"base_weights":[-4.528618E-2,5.6653794E-2,-2.3367498E0,1.6993825E0,-9.3726516E-2,-5.1949396E0,-8.393006E-1,2.2566754E-2,-3.8470563E-2,-3.21566E-3,1.3012113E-2,3.7486185E-3,-7.6842904E-2,-2.9999495E-2,1.6447524E-2],"categories":[],"categories_nodes":[],"categories_segments":[],"categories_sizes":[],"default_left":[0,0,0,0,0,0,0,0,0,0,0,0,0,0,0],"id":77,"left_children":[1,3,5,7,9,11,13,-1,-1,-1,-1,-1,-1,-1,-1],"loss_changes":[6.252239E2,6.333076E2,4.8355933E2,6.7324457E2,7.469822E2,5.436229E2,4.128388E2,0E0,0E0,0E0,0E0,0E0,0E0,0E0,0E0],"parents":[2147483647,0,0,1,1,2,2,3,3,4,4,5,5,6,6],"right_children":[2,4,6,8,10,12,14,-1,-1,-1,-1,-1,-1,-1,-1],"split_conditions":[1.03E0,9.186743E0,2.091701E0,8.940296E1,8.298195E0,6.026897E1,2.1443802E1,2.2566754E-2,-3.8470563E-2,-3.21566E-3,1.3012113E-2,3.7486185E-3,-7.6842904E-2,-2.9999495E-2,1.6447524E-2],"split_indices":[39,86,61,40,72,33,17,0,0,0,0,0,0,0,0],"split_type":[0,0,0,0,0,0,0,0,0,0,0,0,0,0,0],"sum_hessian":[2.675E3,2.562E3,1.13E2,2.14E2,2.348E3,3.8E1,7.5E1,1.95E2,1.9E1,2.019E3,3.29E2,1.2E1,2.6E1,4E1,3.5E1],"tree_param":{"num_deleted":"0","num_feature":"89","num_nodes":"15","size_leaf_vector":"1"}},{"base_weights":[-4.9014352E-2,-8.7966055E-1,2.2942992E-1,8.6741716E-2,-1.8176436E0,-2.5439374E0,3.6123416E-1,-1.2669049E-3,8.639865E-2,-1.1975869E-2,-6.664995E-2,6.339737E-2,-3.3695456E-2,7.3591303E-3,-5.178473E-3],"categories":[],"categories_nodes":[],"categories_segments":[],"categories_sizes":[],"default_left":[0,0,0,0,0,0,0,0,0,0,0,0,0,0,0],"id":78,"left_children":[1,3,5,7,9,11,13,-1,-1,-1,-1,-1,-1,-1,-1],"loss_changes":[6.1172906E2,6.0205304E2,7.250568E2,5.998626E2,1.00491626E3,6.814609E2,6.235553E2,0E0,0E0,0E0,0E0,0E0,0E0,0E0,0E0],"parents":[2147483647,0,0,1,1,2,2,3,3,4,4,5,5,6,6],"right_children":[2,4,6,8,10,12,14,-1,-1,-1,-1,-1,-1,-1,-1],"split_conditions":[2.5431113E0,2.634365E1,1.8862953E1,3.252049E1,8.9972595E1,1.8169024E1,2.5501709E1,-1.2669049E-3,8.639865E-2,-1.1975869E-2,-6.664995E-2,6.339737E-2,-3.3695456E-2,7.3591303E-3,-5.178473E-3],"split_indices":[77,37,3,9,29,85,86,0,0,0,0,0,0,0,0],"split_type":[0,0,0,0,0,0,0,0,0,0,0,0,0,0,0],"sum_hessian":[2.643E3,6.63E2,1.98E3,3.27E2,3.36E2,8.9E1,1.891E3,3.2E2,7E0,2.99E2,3.7E1,7E0,8.2E1,1.326E3,5.65E2],"tree_param":{"num_deleted":"0","num_feature":"89","num_nodes":"15","size_leaf_vector":"1"}},{"base_weights":[-1.2223204E-1,1.22019045E-1,-1.0876592E0,2.3678309E-1,-2.637804E0,-1.1851495E-2,-2.3269424E0,-9.964623E-5,1.9669589E-2,-5.1872723E-2,-1.4427004E-3,-6.1077487E-2,5.133076E-3,-8.137303E-2,-1.8948779E-2],"categories":[],"categories_nodes":[],"categories_segments":[],"categories_sizes":[],"default_left":[0,0,0,0,0,0,0,0,0,0,0,0,0,0,0],"id":79,"left_children":[1,3,5,7,9,11,13,-1,-1,-1,-1,-1,-1,-1,-1],"loss_changes":[6.283216E2,6.7430597E2,7.172504E2,8.7221094E2,5.396125E2,9.283155E2,6.1219324E2,0E0,0E0,0E0,0E0,0E0,0E0,0E0,0E0],"parents":[2147483647,0,0,1,1,2,2,3,3,4,4,5,5,6,6],"right_children":[2,4,6,8,10,12,14,-1,-1,-1,-1,-1,-1,-1,-1],"split_conditions":[8.306076E1,1.03E0,2.1898182E1,8.420296E0,2.6268358E1,2.001523E1,8.396744E0,-9.964623E-5,1.9669589E-2,-5.1872723E-2,-1.4427004E-3,-6.1077487E-2,5.133076E-3,-8.137303E-2,-1.8948779E-2],"split_indices":[22,39,86,72,54,3,88,0,0,0,0,0,0,0,0],"split_type":[0,0,0,0,0,0,0,0,0,0,0,0,0,0,0],"sum_hessian":[2.663E3,2.126E3,5.37E2,2.042E3,8.4E1,2.88E2,2.49E2,1.788E3,2.54E2,4.1E1,4.3E1,2.2E1,2.66E2,1.6E1,2.33E2],"tree_param":{"num_deleted":"0","num_feature":"89","num_nodes":"15","size_leaf_vector":"1"}},{"base_weights":[9.24039E-2,-1.2872233E0,2.7667007E-1,-8.170013E-1,-5.664403E0,1.6217086E0,9.198623E-2,-3.0165521E-2,9.989734E-4,-9.4397224E-2,-2.2221152E-2,-1.7994317E-3,3.2190107E-2,3.9808106E-2,-5.3290296E-5],"categories":[],"categories_nodes":[],"categories_segments":[],"categories_sizes":[],"default_left":[0,0,0,0,0,0,0,0,0,0,0,0,0,0,0],"id":80,"left_children":[1,3,5,7,9,11,13,-1,-1,-1,-1,-1,-1,-1,-1],"loss_changes":[6.7098486E2,6.3548676E2,5.781421E2,5.690292E2,3.6889606E2,8.09236E2,7.750704E2,0E0,0E0,0E0,0E0,0E0,0E0,0E0,0E0],"parents":[2147483647,0,0,1,1,2,2,3,3,4,4,5,5,6,6],"right_children":[2,4,6,8,10,12,14,-1,-1,-1,-1,-1,-1,-1,-1],"split_conditions":[2.2627718E1,2.8433231E1,2.048582E1,1.7951202E1,3.0189028E0,4.7194557E1,2.7699627E1,-3.0165521E-2,9.989734E-4,-9.4397224E-2,-2.2221152E-2,-1.7994317E-3,3.2190107E-2,3.9808106E-2,-5.3290296E-5],"split_indices":[74,54,58,53,56,48,19,0,0,0,0,0,0,0,0],"split_type":[0,0,0,0,0,0,0,0,0,0,0,0,0,0,0],"sum_hessian":[2.637E3,3.1E2,2.327E3,2.81E2,2.9E1,2.8E2,2.047E3,8.2E1,1.99E2,1.3E1,1.6E1,1.32E2,1.48E2,4.9E1,1.998E3],"tree_param":{"num_deleted":"0","num_feature":"89","num_nodes":"15","size_leaf_vector":"1"}},{"base_weights":[-1.167851E-2,2.636474E-2,-7.1983013E0,-1.5436728E-1,1.2357216E0,-9.267973E0,3.4798172E0,7.852816E-3,-4.324207E-3,5.2164495E-3,4.3516565E-2,-1.0773138E-1,-5.0061125E-2,4.090967E-3,4.8106287E-2],"categories":[],"categories_nodes":[],"categories_segments":[],"categories_sizes":[],"default_left":[0,0,0,0,0,0,0,0,0,0,0,0,0,0,0],"id":81,"left_children":[1,3,5,7,9,11,13,-1,-1,-1,-1,-1,-1,-1,-1],"loss_changes":[7.268937E2,5.783071E2,3.4165356E2,6.017891E2,7.6313556E2,2.3046143E1,1.0291641E1,0E0,0E0,0E0,0E0,0E0,0E0,0E0,0E0],"parents":[2147483647,0,0,1,1,2,2,3,3,4,4,5,5,6,6],"right_children":[2,4,6,8,10,12,14,-1,-1,-1,-1,-1,-1,-1,-1],"split_conditions":[1.08E0,8.370871E0,9.225807E1,1.4182243E1,2.8563002E1,2.9002867E1,9.730992E1,7.852816E-3,-4.324207E-3,5.2164495E-3,4.3516565E-2,-1.0773138E-1,-5.0061125E-2,4.090967E-3,4.8106287E-2],"split_indices":[11,72,0,52,88,37,0,0,0,0,0,0,0,0,0],"split_type":[0,0,0,0,0,0,0,0,0,0,0,0,0,0,0],"sum_hessian":[2.657E3,2.644E3,1.3E1,2.301E3,3.43E2,1.1E1,2E0,5.25E2,1.776E3,2.8E2,6.3E1,7E0,4E0,1E0,1E0],"tree_param":{"num_deleted":"0","num_feature":"89","num_nodes":"15","size_leaf_vector":"1"}},{"base_weights":[-5.0030563E-2,4.1442993E-1,-6.394808E-1,1.1427851E0,-3.9953408E-1,-7.74336E-1,4.091655E0,1.3925765E-2,-2.1739764E-2,-3.7067916E-2,-3.83073E-4,-2.6367363E-2,-4.540111E-3,6.765079E-2,-1.8702002E-2],"categories":[],"categories_nodes":[],"categories_segments":[],"categories_sizes":[],"default_left":[0,0,0,0,0,0,0,0,0,0,0,0,0,0,0],"id":82,"left_children":[1,3,5,7,9,11,13,-1,-1,-1,-1,-1,-1,-1,-1],